{"c_1":{"kernels":[[0.45470356749477714,0.10748961012492442,0.1092385876106048,0.1446790277722132,-0.1579387711336021,0.10005361684317383,0.2723906149117787,0.41638758964243383,0.10350524446520833,0.06726967893784185,0.14256250228033893,0.32623314047804725,0.07650556885336376,-0.08512740276547046,0.05236471514620296,0.14880787491761996,0.09036394095084097,0.01242481983398421,-0.1882530568287016,-0.1477934551877171,0.058830550678574324,-0.17586889401662192,-0.3153515314733883,-0.09143890517142902,-0.18969375071826014],[0.023721303503342155,0.15439728138387757,0.02807011773035686,-0.17312404261831582,0.013845785780078978,-0.019053172219135477,-0.12210461176003455,-0.3290254622151479,0.001604768721195059,0.05137265199263104,0.008268453905461968,-0.10577237070726983,-0.12338529586849344,0.16703585623382267,0.07711522621368808,-0.1285935870684502,-0.24309638797522776,-0.04808181727266852,0.08047453356520622,0.1067179470170252,0.0167979128408621,0.031052374445350236,0.23987942502840584,0.13985906157990943,0.09379349450448639],[-0.26859340220448236,-0.06973967379801792,0.20640875737145983,0.3765820949365373,0.3830634844831489,-0.1416985056047008,0.08616194007870309,0.49880002758899183,0.36534586367217964,0.19955987877564496,0.015381168782164984,0.2307408098051852,0.24327816101306157,-0.11169652030385668,0.09025306966171409,-0.16800649414237517,-0.11897644844212515,-0.13489051408658698,-0.1971686391745807,-0.04130717780124654,-0.26816415279269545,-0.15908596700862787,-0.17939505692222624,-0.025890279533532207,-0.14598352797219877],[0.15818231294042503,0.2896488450927665,0.2259493895938481,0.21616417928014225,0.16306339328290673,0.05852875135477547,0.008255406764539149,0.17016501859660726,0.1345986228004948,0.07686621847717225,-0.262718125322234,-0.09327879333995602,-0.239664114217255,-0.16033577885856132,0.01830454278699847,-0.13943219502154292,-0.36479296110904746,-0.3030503119713528,-0.02910691732232393,0.09618422399741443,0.044191906759757545,0.14224179994675373,0.11765966859184367,-0.1322979417223102,-0.18271112597298755],[-0.0803680395577447,-0.182806270286244,-0.1556755346327246,-0.22061179538851744,-0.15815202268282694,-0.2669208669793775,-0.24427061212087317,-0.20250377974685754,-0.04731468109825953,-0.04698370823280593,-0.259326772804009,-0.05412596956682763,0.07679822012895149,-0.028330599179057826,0.21676143089725733,0.1068320835671092,0.19165272903493297,0.16993843785333723,0.0640165631138032,0.1769953765880174,0.5468804775540015,0.23511388822752158,-0.011350727815804212,-0.0037702064911529784,0.1255699051475629],[0.4147080879488763,0.08865296032975803,-0.3189331609032511,-0.22039600176020255,0.15945730288767654,0.16340808099071125,0.1413712440144668,-0.13700763033478686,0.008138261688429153,-0.0719530879391383,0.06071406979598765,0.1538042040936312,-0.2449007182699772,-0.08115564588848381,0.023038877517682705,-0.04945297860993763,0.0998133136156801,0.06013653614622263,-0.14685019439859018,-0.13366664714983092,-0.03586864313110506,-0.13493584608748121,-0.11641812640014286,-0.03906297783584145,-0.1933520186197545]],"bias":[0.38566719035608626,0.3075721067422273,0.03256113620987513,-0.719812255887686,-0.3060950871676653,-0.17644772723979182]},"s_2":{"kernels":[[-0.42756438212237313],[-0.10039793257694844],[0.9657023285269611],[-0.05643023724586343],[0.1240557922772524],[-0.7374531550929757]],"bias":[0,0,0,0,0,0]},"c_3":{"kernels":[[0.06990741429718743,0.1154328463099295,-0.01562426253682929,0.06529683732163512,0.07277469697038583,-0.05304605550492557,-0.09772682529132584,-0.0940421758998337,-0.14759642065254316,0.2339389356144611,-0.018878627822299644,-0.21643869988515527,-0.21176833289079183,-0.015497031283236855,0.3496926965882706,0.08812274304056295,-0.05184322815841846,-0.15213653267842422,0.22218572173495857,0.14053063009438813,0.01951330627968817,-0.002741822512977084,-0.09371309328506532,0.18727300349643378,0.08568656324527485],[-0.0855613843393498,0.07833398615483918,0.04556703422725327,-0.027315653333472373,0.02387527983159161,-0.020788455415433914,0.05472457356474762,0.05299168608427142,0.005561697514399007,0.0458133521518931,-0.0527846493270194,0.07590907896084623,0.096680628952347,-0.09354016930640664,0.002166696006895584,-0.04582607372226997,0.03901715729139766,-0.04665863876639611,0.045026310021933726,-0.08164361530917362,0.03702814151632869,0.0570318920157963,0.09068300755400327,-0.019951813056520013,0.08047275463222713],[-0.0536728017335701,0.09577210553561272,-0.045718902773464944,-0.013188428537610482,0.0924126986768769,-0.08241564400851863,-0.05811264068972567,0.08572899037125319,-0.022350274706646134,-0.037004131943345835,0.029000994514322784,0.06353452240022536,-0.009576356854834319,-0.03487258543749865,0.028836672094324944,0.02445181083911784,-0.007740993670061958,-0.020462165468884606,0.06342265455326247,0.09075582880855236,-0.009349813897187833,-0.09325480595663467,-0.04676609287827363,-0.007968419384452863,0.04378872373246447],[-0.07211038943818583,0.07824606951677687,0.07137050441669694,0.08142243863707195,-0.0017346458200465837,0.03349502072720586,0.09322218870288762,0.0382439851424074,0.026101307232471373,-0.05144325206032502,-0.03974165622760688,-0.052955879087517824,0.07136961509399325,-0.04465069187169002,0.03407641871555305,0.015388178094086482,-0.0650473694113716,0.05375324348906845,0.09221509399305124,0.09089571793233002,-0.02198071572087734,0.06958666042326758,0.06346991015112181,-0.06637849581550388,-0.06484824502411694],[-0.05574306694454504,-0.0847592145667312,-0.11450113183131755,-0.0013487103569020957,0.11085178445145225,0.010324176202889912,-0.18130424545473378,-0.237322054170149,-0.14656907381162299,-0.02751205449346937,0.16308452483746716,0.09335655589333484,-0.17168543969159084,-0.15625202411358344,-0.24028360079853292,0.01801882635985871,0.07506283008510839,0.032578573201285606,0.17722375915122354,0.09199086307676095,0.06236624303537505,0.14544522721054357,0.0951026018267071,0.1145549043531603,0.18804088005712877],[-0.11591299602147259,-0.21463189849916245,-0.09065387205071779,-0.13331139291160302,-0.04325358759550851,0.1428969077492065,-0.06602715984279332,-0.07332453870214825,-0.24020139078881617,-0.23977171376052608,0.15851095886524966,0.11472287490551689,0.1608936626858173,0.10601983001144454,-0.0724293067797091,0.04163040263324795,0.1489032222948637,0.1895684914856136,0.17284997568440877,0.11004637783815653,0.08188081389868967,0.16377322782301323,0.1543634146798495,0.166157849209231,0.22418682167627343],[0.03882846476071137,0.056147236129909704,-0.027027651251579094,-0.0648111705939012,-0.05114927530970771,-0.03722316020443214,-0.02361909865427966,0.1959599795668526,0.11012305818063323,0.20113541845742833,-0.24682327824882794,-0.30116575462590855,-0.262865809488432,-0.12703393992757642,-0.060811098514766904,-0.05952095212108285,-0.12161614169067414,-0.19274062607644518,-0.21767836767074733,-0.13702323981652803,0.12884464965648668,0.031532117009288506,0.0721096617753195,0.017446381190098344,0.01529322477374314],[-0.01391367579862794,0.06263580093928886,-0.027857198380972396,0.021422477086744454,0.056494320346380855,0.021347883509563587,0.05815219577920628,-0.056389914298700175,0.009118450406802533,0.024654735798136828,0.051136754395446786,0.04025371471936985,-0.06912794388177383,0.059521094736473004,-0.05089345948708516,0.10422619183041945,0.09848713464891576,-0.04289622898955575,-0.0067441046981992,-0.021688119650846112,0.0009048698495021879,0.0495711964470342,0.015738498235594377,0.0014747646176900238,0.0010091284792384005],[0.09166442829314052,-0.019893978676927836,0.09225048927984111,0.06722824339136216,-0.017407889534130336,0.050278525837519586,-0.09386270581018807,0.01508319483123309,-0.020568929717309628,0.010188719712485856,0.09380458987253566,0.03266372466413862,0.07501436234596201,-0.0437822634121974,-0.016727903278460427,-0.07717478579470687,-0.03860419716903649,0.033151246701165996,0.010070032752060117,0.010304688900783706,0.07152666082612316,-0.07975467749599069,-0.013988453125394495,-0.045023227279744664,0.02523857559377621],[0.2525959419311057,0.16294238915208645,0.08076782414854605,-0.02687693365455726,-0.21599629496632552,0.06808056072919541,-0.07745673949092934,-0.030255258003153828,-0.16381240087556567,-0.15407291337983858,-0.14441502950957216,-0.08028674977892819,-0.1848603515408032,-0.250148276626771,-0.21653196007258127,-0.01840976932509404,0.05465852406362525,0.06659029349228607,-0.02387943617862334,-0.07069784031814597,0.1672183441923152,0.1310974585878105,0.166229674946808,0.15721666010156804,0.1644239670949869],[-0.13146971100978305,0.025604956756471394,0.1580786356616997,0.11370973608941275,0.010690017032784471,0.04815216640165375,0.07737865299406606,0.08014515897335707,-0.12440961839794731,-0.22862992499957688,-0.12430571011587482,-0.21107296455835298,-0.2338962882415056,-0.1308504763722198,-0.10388569712550916,-0.20831008754732144,0.014172908785155479,0.006692904766566952,-0.011322406778385287,-0.12073905982378808,-0.08830548749659423,-0.1052166863398118,-0.04228894272365094,-0.10805647381690532,-0.17576598684659692],[-0.04125185955889448,-0.02738543895141898,-0.20256690080957715,-0.1173364052071997,0.08739816003741152,-0.03662957132267875,-0.09211069888571961,-0.21560183559627719,-0.05745387205862034,0.17722986680286298,-0.17697554794674278,-0.1703231907404738,-0.13567890566966062,0.12590479410578562,0.13141192267295468,-0.03788782389261328,-0.06905014378907356,-0.08261594425503015,-0.024307010016445686,-0.0493252247049719,0.00646819605081569,-0.022423296802684903,0.04862980181712609,0.11213009564426281,0.06686348166123021],[0.1199232401855579,0.032077445140372696,-0.19092128471244144,-0.19444013378010977,-0.2427661196074389,0.10431521576298342,-0.17132598279592293,-0.09584266141632708,-0.11128478766057731,0.0597452675492645,-0.003043342170906241,-0.05058107493044064,0.041028229393724656,0.16066203802356177,0.12719324207559576,0.16079467622606078,0.16634835116775545,0.22603198476055142,0.06748242599525277,-0.02045242212791427,0.017247008046709148,-0.018166379249497672,0.01894199173796188,-0.036176088293725435,0.03718387450333033],[-0.0038871000910873413,-0.06065666819745527,-0.07733339913744997,-0.07589251182972497,-0.00779712231071289,-0.0877572383365176,-0.08823900942006124,-0.015060923729714308,0.048373716593076134,-0.013466716652871847,-0.020712533763560876,-0.03695698952316939,0.005517635355938119,-0.03340037704502047,0.08588072774418995,0.08564559422591006,0.04106954634337698,-0.08188693346589467,0.06207564796325732,0.10139093912767783,0.04634912897986836,0.09711772417910462,-0.06930967562660016,0.03724685337596236,-0.04372837658458341],[0.19116929414164865,-0.060370148575483264,-0.036918655718180975,0.19251940551073113,-0.022696586586603774,-0.03933411663731332,-0.18367794736505277,0.008834793653249129,0.21666124733262715,0.040581940206619774,-0.020840941503380606,-0.0669612217353849,0.054806809309478996,0.06492349033244899,0.03808073875051283,-0.1136509753275981,-0.07380563085646305,0.15127483381446305,0.16811920404219946,0.11663946502944693,0.09987321987050256,0.09581868596278992,0.1771555626946652,0.1188234363887814,-0.09321248911904342],[0.01675417685834703,0.025112495124310227,0.014768662780215843,0.12581711630758888,0.1228392863681326,0.07259632996173358,0.19229631461538452,0.1476881928174944,-0.04318676574135198,-0.2848981840762917,0.11089186573348582,0.2669870485707524,-0.023694460642621297,-0.2252161509204929,-0.04738847670589439,0.09622902407171546,0.12913608962574621,-0.2586377078582564,-0.12204923842480922,0.06440792515097384,0.19479950337369306,-0.04571690418465294,-0.1399190288274789,0.02966804217027291,-0.00899728850701576],[-0.10220426322056635,-0.16740068616814813,-0.047644632317557646,-0.13394759003360115,-0.14905774679216402,-0.09926667836122541,-0.06531116677195901,0.039581331406688146,-0.12763656413775745,-0.3702009215508635,-0.16504959298266658,0.048942496555700696,-0.10969696419454826,-0.15458780280982795,-0.2454160065188668,-0.024210248904709505,-0.06267787415125473,-0.18822055948726385,-0.16709694635713843,-0.2163179316198164,0.08016924756003699,0.011094800848737993,-0.07425467666250232,-0.04298598512055937,-0.12720498553088322],[-0.16172990116185543,-0.03521125028487362,-0.10941466352111759,-0.09196285191356655,-0.019042120863728952,-0.024108427220075605,-0.0909725374788876,-0.001343258473194603,-0.15500525394200912,-0.09903953576690896,-0.14198802903992153,-0.04488160219672615,0.024309946865723124,0.0219250893183948,-0.04701416600090845,-0.012199534238233991,0.041904612094140266,0.004110874244519979,-0.01574033061683553,-0.10371076238910829,-0.04175992796235185,-0.11183356628439933,0.06151575700687032,0.013815778253903425,-0.04181139177069533],[0.019686532203818243,0.06813834361105257,-0.044504795624744145,0.04227605239720589,0.058077830162403456,0.07317637457704644,-0.09179816151397692,-0.05549982177278116,0.005543421628858903,0.08923410233456543,-0.03265175662270065,-0.09750431774365698,-0.046056045229293,-0.09855652866728015,-0.08143852655044101,0.03233993377031886,0.03837147797829341,0.02285058193090008,0.02992374889387505,-0.04384321895699946,0.012660238116233076,0.02472217734340217,0.027179225199773647,-0.05075139377213249,-0.015842897133674996],[0.0057507510819835485,0.08681785369536174,-0.07689484850502731,-0.043049271237461974,-0.044085770404226364,0.03595830361848684,0.013796249599652796,0.017614913743104657,0.05433784060731211,0.05043445136836369,-0.07885676306440187,-0.010187513667362369,0.02332504276722849,0.014237992406918774,0.09077150900016996,0.0315653820403338,-0.06677795165650813,0.015411659812581885,0.017987689562541556,0.1008410038542568,0.020281550228952203,-0.07637990522258768,-0.10368212248772428,-0.08638816769157552,0.04532003451285902],[-0.023051761463401862,-0.05689255983127375,-0.06031534497650363,0.06081746995010004,0.016617744234553092,0.055510250412912375,-0.0850812190462565,-0.06383044488248915,-0.0805340152752693,0.09051631603863239,0.10331351892198234,-0.03661456677154441,-0.07376977202616254,0.0877103258221886,0.10089481198763318,-0.07052147111993225,-0.01962541387186337,-0.017402217323520913,-0.07367308141833828,0.021022179392490112,-0.060891105821327486,0.0754183734063144,-0.08415834122667024,-0.03869242279627773,0.011793742577871958],[-0.024538024677540654,0.003004418709708948,-0.05747345836894086,-0.07193156634450701,0.0008572918448536993,-0.027001818255658047,0.07147391777336584,-0.08638953776345087,-0.11367786061483602,0.13618509776021903,0.10140738957013606,-0.02167874285172848,0.03459070241021104,-0.04192386998644909,-0.08097361345026394,0.06603646009294462,-0.03602619313613852,0.03396432253773371,0.04546717795554812,0.0826614276987328,0.045196632439398046,0.03367356351539995,-0.0010343838728375096,-0.08149251645923097,0.08856678496709666],[0.014504989201867522,-0.05327666175122664,0.004080348408862028,0.0002642192290781745,0.043768400981426585,-0.20083636699992052,-0.147793325912993,-0.144753194027605,-0.10570194613423602,-0.09624801354722214,-0.02904171416528107,-0.03227340985892254,0.14333146949222283,-0.01787418275198476,-0.06586912153550882,0.0605378020219839,0.05968810916143496,-0.017375504816685688,-0.019886139637315173,-0.026858957572275417,0.14919792870065632,0.004178267648467709,-0.06040801536756958,-0.13153279640015492,-0.10756276339277],[-0.13702457068577945,0.1337531356835024,0.055681021560402756,-0.06586977428899536,-0.10900327762807527,-0.08693728830101419,-0.001532279930468219,-0.04269291667793916,-0.062053821615944034,-0.07128505655643563,0.010233823433951541,0.045045538015100646,-0.0446454203853199,-0.056684822518259764,0.08997006057927141,-0.023939455111669086,-0.08973366563823311,-0.08028633142468934,0.08492839254394687,0.02263817087588553,-0.09259637313268965,-0.07665061551941758,0.024350201839622627,0.10029579500185434,0.030403988005065056],[0.02851927304024909,-0.00456812945881772,-0.017133436133621404,-0.012675314823239959,0.07970265617899318,-0.011553449334261752,0.07232621689623672,-0.07344910837714459,-0.019929120858147596,-0.10234677490134142,-0.03687167047586223,0.09495623232719698,0.07683381591963667,-0.05132772118628505,-0.06033238300849539,0.025855673091692146,0.009801285510601802,0.003064231169223115,-0.023063924538148095,-0.07259025634490848,-0.08507743180095764,-0.013101980388494954,-0.05182805389618825,-0.07437914348141378,0.014685629500127226],[0.09652494665381577,-0.10325584728090624,0.10215295678190031,0.058530262740432076,0.049058040710524435,-0.08440550363094385,-0.08484030237697414,-0.012176218118689151,0.06358247559477809,-0.08635873531716151,0.05579900724497478,0.001298156120642571,-0.024190083337655214,0.10115548086191681,-0.0964585949118767,0.024265288667691808,-0.05639834479583795,-0.03979399178655072,0.07145412147009148,-0.078338670018352,0.07091013549076047,0.08541299239560908,0.03557828739418653,-0.0491865470873359,0.004691210310540859],[-0.025812658217910237,-0.030330723000052934,-0.09899766550500799,-0.12761192514793682,-0.17947037597007234,-0.15804315345292969,-0.11895324890292315,0.0015420850719397726,0.012231586651249246,-0.18807246950841278,0.06150602017136017,0.0320116493136238,0.06150476330625475,-0.13220689021167073,-0.11953920952844121,0.08997351775986943,-0.05997274724626645,-0.05565582844727257,-0.062087543759511955,-0.021540620546580097,0.027806349579491713,0.019183544965560326,-0.015070889031439718,-0.0019974838743745736,0.0486411291338495],[0.07364223298154562,0.017267985462227003,0.19404832464171437,0.018677845368196458,-0.08501040128796825,0.11405260154816829,0.15350143744850808,0.18578988639771943,-0.044581164662227245,0.06518305864583686,-0.0078081085317310926,0.06552827457970334,-0.08263148072509724,0.0310446161064637,0.01555027044014228,0.032546225229705746,-0.0830353537604222,-0.06659626377099113,-0.07152814974255631,-0.02130356463072441,-0.03281991411375442,-0.08304983718230662,-0.12169694182123966,-0.08880022806488884,0.02940999550363772],[-0.009665177351988123,0.11120310854686678,0.022842560412360473,0.03885939193134398,0.07725188479604515,-0.003784131707888458,0.16184150510512268,-0.10626063573269212,0.016307613637072067,-0.18176100411137155,-0.027928268184847404,-0.09687995559366987,0.006493165047499714,-0.11981714919918537,-0.19003596294520442,-0.18027096652881824,0.006686686280501671,0.03600489406535172,-0.16811492723387814,-0.04938415222198317,0.0416820048728403,-0.022595632950328515,-0.09891093809100936,-0.08311630314036643,-0.05392340715884618],[0.0425079174383206,-0.0652890267184153,0.11149314378008711,0.19032913488226208,-0.06411055030091625,-0.17425150771106318,-0.07027502576416325,-0.06536212680094594,-0.09568665977105628,-0.015461760104808502,-0.1402336838457264,0.06913610255212733,0.049553836513387864,0.0944316113733827,0.12730910125364803,-0.07586189148665655,-0.09536092132859587,-0.10621953951056817,0.03995548551066363,-0.01122699700325003,-0.06674648731501136,-0.07855554483207075,-0.21078486299279048,-0.04581978458878266,0.02491113329803432],[-0.07545271595097022,0.07043049391803212,0.03626748272385176,0.0022517447312283517,-0.030964349791068296,-0.08892203868170752,0.09014179999680898,0.05560196047313893,-0.029923648215833126,0.020926917440126484,-0.03650818991471549,0.03917733522927637,0.002655161450676228,-0.05158207774188688,0.09929960377223278,-0.04918918674886702,0.02847856968608643,0.012023262200987957,-0.007536563695908036,-0.010647562855401421,-0.09778338963990658,-0.08746829328028986,0.04982084778759644,0.09646608462864492,0.08431349061249356],[-0.12502496681792863,-0.084534492242497,-0.167226034061803,-0.0013518324817590375,-0.04135706222929098,-0.10572141408269027,-0.1909571976905347,-0.18299181645334514,0.0032164703451256103,0.11373378417591325,-0.05977280912093317,-0.19324256926216635,0.018647487903247738,0.03954523219156548,-0.10415824729297696,-0.10347697689760384,-0.11768928239527145,0.12177650410159407,0.08117776155575666,-0.031811879387593306,-0.15367291328802307,-0.07900071292255073,0.112104173050806,-0.036098889900078375,-0.06071713707480285],[-0.055230775717834496,0.011267222190686994,0.08593771656044098,0.014743433727127808,-0.09732476383531721,0.04532239022033476,-0.06212323278819757,0.0817713748901671,0.0824147923592432,0.04187411553097689,-0.08009519189177673,-0.08794074671724496,-0.019461140103159337,0.253676349409461,-0.09059787032809466,-0.14880697727251804,-0.12577033023521877,0.07367035750611968,0.19028735564915117,-0.16720381860458314,-0.18372204108627369,0.021671314247130966,0.2057524542127189,-0.02351153636368248,-0.11659996414816712],[0.10641323002950023,0.11201358162865475,0.11564739777325843,0.12793258665195228,0.10980911980937803,-0.24865639126665723,-0.15368806720682127,-0.11358609192659562,0.04789846611096648,0.22273191656852004,-0.2413955331198992,-0.3486825932440718,-0.2761864513712418,-0.17075086301245052,-0.031107067644324332,-0.22532037037591426,-0.2094370858729352,-0.1963716769311603,-0.1417731421618101,-0.06811104697906553,0.07950723010482157,0.21147704839371126,0.1617378000282727,0.1458964549402245,-0.03809537549479148],[0.02145807288329802,0.09114954111041854,-0.006954583514790525,0.006994280380002883,-0.0719632857089871,-0.04342163716975367,0.024648882222488084,0.19942421703334048,0.10775232414069821,-0.08104196934472394,-0.016211392494529006,0.2668377769204949,0.2236290898326124,-0.14074642455037398,-0.003876611637526679,-0.04439118111484638,-0.14857945396739308,-0.036643801452741875,0.24668178220989342,0.16793723217961107,-0.11710845286829732,0.05511401991194846,0.25267434172738046,0.13652789656548003,0.06842259219959955],[-0.0005082061461940097,-0.08346554147719387,-0.037346372988128006,-0.07256424196569948,0.09187147030315995,-0.05914889779145883,-0.07082407536551862,0.022131364846863344,0.04523346083232987,0.01330908557763345,0.0761820161597711,0.06036392383401834,-0.041845055827952164,0.0795841347293774,0.02401660373905856,0.08076444698308106,-0.00813665064158762,-0.0028348187414715476,-0.08539333167630679,0.05442838022450536,-0.09344805896584915,-0.060231273899185714,0.06794118842793388,-0.09910729660160832,-0.002145608869422489],[-0.01819360971762617,-0.004370754048561919,0.08244378322941635,0.02105354677941523,0.013186587296724894,-0.07510403024694974,-0.05976421134256328,-0.002798550571194491,-0.01019623934084624,-0.02064100250114028,0.024281294384978305,-0.0957779240455217,-0.04319506252633323,0.06695888498068894,0.04351223400912497,0.043839434532631234,-0.061478767637531434,-0.0740438924595821,0.007684541497848284,0.031103906920491284,-0.07214156354272515,0.07878956679419227,-0.09421942012600315,-0.08673190572643132,0.08151998554325668],[0.0666852527141809,-0.1028077546073989,-0.10149287418602516,0.09946909204578955,0.022546840850264465,-0.0672642779593999,0.014843651031076072,-0.048632530802735226,0.08439484615497338,0.045326690644622136,-0.033214165759606014,0.10354581915588816,-0.029832250062989604,0.07141406012083386,0.0643677728818611,-0.0461760305473657,0.09897564547077035,-0.03060406826254455,0.10299619870805428,0.044223716782252016,0.03535374627592537,0.10041274057224953,-0.088927852327943,0.006262852082253112,-0.10247831115221076],[0.015281463780396421,-0.01900608092553589,0.023911070177541703,-0.07204891835369762,-0.0792089750070878,0.0455368999440629,0.07710796037558512,0.18546739240593832,0.12323534664092226,0.1660282883132791,-0.2208224594822232,-0.17505544329449857,-0.07845766928231329,-0.1205361550437341,-0.0052737156176034,-0.09778592578503843,-0.0918065352912579,-0.10781069552304243,-0.08932240134293352,-0.10041200121884172,-0.04433407558028181,-0.1456706848127331,-0.11866598117014582,-0.1073787916263057,-0.20838221459556008],[0.0036786051224672973,-0.10898869417414621,-0.21764184498683933,-0.07235914071476716,0.14993080626034577,-0.05825225457122847,-0.03421462937570843,0.2811860746402316,0.2429717373124328,0.03833452586681938,0.0053012602102979105,0.1410223348742155,0.10879794299695332,-0.10607097524464544,-0.17506952345551915,-0.017770526588876973,-0.018873736434570285,-0.06708291409872039,-0.23935014478661726,-0.04613431641494874,0.005951592925025149,-0.10527774990273503,-0.18352109974053477,-0.0038087003608418017,0.1191910520381911],[-0.05437210283964223,-0.011948365674767107,-0.15884772209895578,-0.08142074911739856,-0.0534978890804367,0.15309355009157444,0.009665937877768623,-0.052447606102002685,0.05565825348153338,-0.08764626881079099,0.016792210244630464,0.06787155084817457,0.009802949016594318,0.046883720573979874,-0.08027117907026322,0.0999049008325469,-0.01178397060868851,0.008449609615110725,0.11050338469896323,-0.07757727898031572,-0.12203900903221584,-0.08859156449513994,0.16399258857970878,0.24615450867785363,0.13231883218896442],[-0.08293363890563679,-0.036487435841605236,0.06798203822730632,0.0718827850324297,-0.017107087085037283,-0.08389052824825895,-0.055220680569183875,-0.006765919927598687,-0.006869598758814223,-0.07500256657584023,-0.046347053699012854,-0.08825018385589045,0.013228470626720938,-0.0023297979852963005,-0.10318213042951463,-0.01412169287791524,0.08356863588939889,0.016088728545052302,-0.09912067822111899,-0.09911121798702294,0.0427157505161228,-0.032843749745925736,-0.09809559326928849,0.013841586575580793,-0.024938255134729286],[-0.027431378024902222,0.10370746183768505,0.03354474828713321,0.0735295388975571,0.030845118196481443,0.04996335731275808,0.07903402689281978,0.056198856703077234,0.09194689459577852,0.058269619935438534,-0.06525118734084939,-0.08820389048720093,-0.1028438989971848,-0.06913567576084674,0.008670648872792284,0.02543047698811864,0.04606657950841313,0.09885568155286116,-0.006816668372598518,0.0759308476448901,0.07916775593089696,-0.027316940601943698,0.005693207452794573,0.04383519817571928,-0.07855336691549249],[-0.18420618585065957,0.035753437302235166,-0.1282974537233637,0.025798655677979333,0.05400516950811794,-0.028871689710252415,-0.24916954925619872,-0.15389505608005827,-0.01249537894204747,0.059214932898240875,-0.16868213050220626,-0.13918297386104386,0.0833705102207821,0.05349891151977749,-0.04835859314115763,-0.11351847061946865,-0.11296500091807098,0.10621385745218975,0.01776110670285897,0.10697048124128868,-0.026240664073383015,0.021279167592355083,0.10897134854521125,0.011253851197845678,0.08715649491756618],[-0.06294741329188057,0.0013533613442384285,-0.07286875714861302,-0.04230513813760791,0.05786091479785894,0.042310311432587344,0.03525217628491265,-0.04620706277854835,0.04493641080463324,0.042640896781045205,0.061226084963809255,0.0941983214616238,-0.01696941049498195,0.05799866327300895,-0.07579484376943278,-0.035140909879817626,-0.06238351095856693,0.0614223228581015,-0.026145695451605232,-0.03650853995329894,0.08064007511785799,-0.0070111020871974255,-0.030089964061061073,0.06581556597371116,0.016863456242745427],[0.09395787239737724,-0.0234426519401283,0.010995006995298267,-0.08670142510463476,0.132861298829421,0.1069199706308271,-0.032414259438372735,0.1004973723185071,0.237080111608759,0.3397423537586853,0.1201769736666063,-0.02844910533650984,0.15100542618975155,-0.07945259987357245,-0.27212901823120805,0.048587627264829514,0.01748973750756677,-0.06677819344666801,-0.07576802634146833,-0.09206467293157358,0.15025685732556393,0.18675604050456854,0.18720941579228037,0.16119960649864748,0.13345305263178045],[-0.07135341596246228,-0.08156336006669647,0.18525823311098807,0.07192340133854329,-0.05415256772769978,-0.15514039648101877,-0.04443758224565145,0.22784840407314014,0.0336343268489789,-0.10312459200575788,-0.12882652615533188,0.11146139956112065,0.07049903821292272,-0.12220849446430582,-0.025046608470410306,0.04381955316054603,-0.02374710892864588,-0.08837855576864619,0.10317720092611429,0.10130493175469842,0.047751718260237705,0.04410788137814495,0.09219466834848775,0.021626645300718342,-0.08559364375694634],[0.07310187912965571,0.023273350552993302,-0.00006653125226329558,0.04903899656959802,0.1189186891456402,-0.10325144421226327,0.0127960498008167,0.1418523377061693,-0.0076564769164585485,-0.09838121366715522,0.09900657225109029,-0.025232268368523932,-0.2135593181128142,-0.18667291149235976,0.027642332198534226,-0.023676157684004186,-0.1310233362120264,-0.21804074916040217,-0.08170671324246018,0.11290542416342134,-0.023092839525949385,-0.11257900379356467,0.060278874738037454,0.14539784806977749,0.1486087417241672],[0.09729793145410193,-0.04120460350478305,-0.07175945987838551,0.07467251433463723,-0.025561620983718353,-0.10112574382699333,0.06615863778256778,-0.10333006776569116,0.018261221151007676,-0.10123228857783227,0.06416588169664943,-0.046279908691922195,-0.040615109931856894,-0.05627293784361572,-0.04488570204720937,-0.01865612293994543,-0.08514585532190727,0.013006650636522399,0.09016570242306411,0.01729157638684093,0.05989245649146982,0.07295831746514242,0.07658363288228487,-0.058512561060188095,0.06144231936542382],[0.02839007609188851,0.12388275659054694,0.04183804503148663,0.14144909522188248,0.042139031381817814,0.10174332337942621,0.1614989588391963,0.14303462675058878,0.24402188644659698,0.235131509457544,-0.16263131445275317,-0.04805627140291417,0.005084149011984636,0.05472318486630687,0.25429940898327846,-0.11153864504521722,-0.14930760691413236,-0.16451136090853383,-0.08873956311765153,0.005579615074602871,-0.02522010384319013,-0.03121144229924466,-0.05466549130236106,0.07759118509137847,0.0028623779742035617],[0.11455682346351427,-0.004004561320651444,0.020481246717855228,-0.09246834308434036,0.0445215562622649,0.22299829572254423,-0.0230093420242,-0.15226272113400688,0.056629440956864924,0.1151288859656678,-0.006290361355683764,0.011987994296050321,0.10928719876023281,0.19151692068532145,0.03242952866059045,0.14330611189239112,0.07540562879086712,-0.011122391938456199,0.020979965541621497,0.2242553209061611,-0.08331153516751007,-0.06955332124793413,-0.02085513171243706,0.04690890386519677,0.17873399990415442],[0.08077784922908607,0.11627673554628783,0.0765086786787401,0.06711912676448496,-0.01002660586115248,0.18848648974258447,0.19155721054654415,0.03139775576421142,-0.05409656872014042,-0.17815415377027552,0.002564286266553454,-0.16016610901427394,-0.013577866183912888,-0.13268650116562963,-0.19792389662185672,0.10591830509015912,0.09978234650888705,0.213040816930008,0.08118868467107429,-0.06837219249913726,0.08504538518608988,0.11769054862506736,0.07797693770327721,-0.11411902950309565,-0.09715210809587602],[0.05320870091093949,0.03463738587053233,-0.009196784586653172,-0.03337582882019496,-0.060007251929436387,-0.053175193069933645,-0.07123159109173817,0.08464390086870459,0.019114505152521215,-0.006306952517824605,0.021568661311799613,0.1003048504806774,0.10054879361944616,0.002405172960265356,-0.03267915145836568,0.05000311293149805,0.07235078817487474,-0.041990947600318414,-0.014236945890286838,-0.05442623262082454,0.06283635140425718,-0.044668528129780366,0.04062585276529767,0.009137129539514423,0.044411856125124445],[-0.007399687569241111,-0.06799105518619748,-0.0445594171588805,0.08270286357929063,0.09183825170481852,-0.1026720894381657,-0.0745718963590799,-0.029330006707579636,-0.010105620251227632,-0.061174845239146874,0.07578684725788348,-0.024786448308534624,-0.05672533481955415,0.020964985364153976,0.012381533524607932,-0.07594429278397698,0.025849757308312703,-0.09812103402684219,-0.056648942266810616,-0.06684826933511127,0.012954842834792535,-0.09382925745190943,0.08585500630403724,-0.09247090464112623,-0.01767365466280478],[-0.037392287165702115,-0.059555748885872825,-0.10070529991061772,-0.0888240144292457,-0.030015462151251768,0.14817018346224273,0.16209840409819,0.139530007133621,-0.01091284853284024,0.013923862641242119,0.09884371878036985,0.120579630547096,0.3430784843113328,0.22295628548720853,0.33049238281924775,-0.020292588715861877,-0.043226849483206826,-0.09086887842750309,0.09450092850637726,0.01713579213835172,0.19568791713579461,0.043881974525682765,-0.02755220423783167,0.05332021274537316,0.003273013422367849],[-0.030253548549218082,-0.03696454212781326,-0.04683017630369094,-0.18432027197231518,0.044628311314015776,-0.00363888588045193,-0.12205486622114592,0.009942985146325993,0.1420587141808988,0.2678588247231096,0.0601771675635699,0.08610950785620947,0.1694274211428307,0.1940786699382335,-0.009670624656773043,0.12006536512318251,0.0723868519858441,0.05802706909487993,0.11891544165430519,-0.023862701914037436,-0.06817817207066132,0.005149074491615446,0.01926555028270731,-0.07522605393614791,0.05867205165569717],[-0.07679073365956257,-0.14288251829257648,0.05876080686968212,0.016361516604130766,-0.11762395619443372,-0.21725459232579836,-0.037077036513390525,0.048814396906638,-0.0438350428492892,-0.11026752209889758,0.145774488763659,-0.07107037351519113,0.11227476829110042,0.01903206007074271,-0.015619723453384693,0.04312833821543594,0.09669824641735009,0.13649158888178672,0.07161758248745174,-0.04070871728317522,0.002967027259226812,0.07186462786949421,0.1798574330859941,0.32809282252839606,0.25336263343880316],[-0.08544418285136823,0.1430326660450632,0.10833978421109669,0.07049862959460199,-0.010581931841283341,0.025644256001420833,0.004044636094198162,-0.17853012814027713,-0.08764139757663636,-0.03127966383632595,-0.01727516275748363,-0.10841910422511383,-0.05595525931360707,-0.0058431257957362575,0.022862651931276342,0.05834671918376255,0.07336932468298892,0.08617939228906943,0.004332193071666633,-0.02446132651093667,0.08712775203170274,0.07456291565478403,0.21090100641225004,0.22672281024661164,0.23559854816559705],[0.04357379075261121,0.060411662881025834,0.015590631082226799,-0.08952544727321962,0.06937859465860831,-0.07016163058068682,0.04747765283789951,-0.06140453859268112,-0.008528030255433524,0.005256897222943551,0.06319592152325472,-0.10314142658898463,0.008335507867255666,0.07782151682857373,-0.061890403381592296,-0.06670006746373185,-0.0658285941500669,-0.05997118550433706,0.08125050330345557,0.06317028349510294,-0.08696785522321815,0.10350462291705068,-0.10135717818110186,0.08059277477420226,-0.06665361315608544],[0.03709039862880223,0.06745507189528116,0.029380595818634857,0.08827494734690608,-0.08169813310115373,0.00952397051913888,0.0978863581802408,-0.07849107517366345,-0.08330079363167299,0.1032975210352102,-0.07404030968311814,0.017591213791578287,0.09853599131946209,-0.06253071358822108,0.04243965192940801,-0.0797427501148634,0.09237567104397923,0.09517337078844598,0.06339064175686088,-0.0602133308348248,-0.007798626596296806,-0.055935966589095686,0.03763552844687234,0.011658891976680397,-0.09487160187878718],[-0.06197946858088426,0.027817671854048365,-0.07800657445329763,0.0418867818746892,-0.07108781735815696,-0.07934566972747803,0.049882919955427506,0.04129084083646403,-0.10925818049304872,-0.07176490390380907,-0.13517622930472556,0.0025206141624478724,-0.0883215457866764,-0.05611940743016293,0.21660071446436643,0.341007439167583,0.34008114795194677,0.03960739992018955,0.1220683171912727,0.16878330065068972,0.1769578226434753,0.05088443246702695,-0.13037013683503215,0.0418776091369475,0.04911634004510515],[-0.02899314829028534,0.07168504538166376,-0.022687873180503696,0.02240886344200171,-0.06671307098126283,-0.08760396399411086,0.027003034784102226,0.10398729981115123,0.021016951575730494,-0.08980370795736231,-0.09236964286110465,0.054945488571213744,-0.07456371882160205,-0.09712664007085998,0.003064161326871318,0.02046887228012582,-0.06320046789071707,0.07680643027631459,0.08239611655387089,-0.014775691747764204,-0.08804128017755664,0.012626319294814538,0.10182011191663391,0.03850028726469189,-0.04788369827561307],[0.048090207840703766,0.15019332051951614,0.09119698243952253,-0.19987704871430348,-0.008496493292030107,0.15124192324156044,-0.11116989931446675,-0.1363920206502815,0.0382424600905039,-0.11103770329742124,-0.04774001453203116,0.004381185158757229,0.06907333228398532,0.08389321519820873,-0.023445847607172696,-0.07944050820147737,-0.018376258508473447,-0.01948479042867377,-0.01071022599993964,0.06162176231058906,-0.018898827028794578,0.07469710742426335,0.014754396648673814,0.14397156691373425,0.07278599107735872],[0.0071375447763186205,-0.02257439703363541,-0.10278888474167941,0.024483276131551802,0.11513465665532771,-0.07344913906876926,-0.06326588927799683,0.1939931917940067,0.29152787521471824,0.12200338578676569,-0.1535529604683921,-0.13471747295257372,0.04492446352059915,-0.052467968038286746,-0.17926657885412706,-0.09431754376823828,-0.20601677203671975,0.028539121182020368,-0.036838963813371095,0.1455191107364374,-0.13798440024847453,-0.08733707781535502,0.004755469981226038,0.0215837760216872,-0.07208610524728865],[-0.058811453933782565,0.04274062329388251,0.041473183970876265,0.023770186157748247,-0.06428944794299014,-0.06631651525150686,-0.0038602023228563585,-0.09090563797812092,0.0684629752394775,-0.020085823506747206,0.03281771678748388,-0.024283334112380376,0.07429058386571173,0.05222276575867494,-0.004402427652372041,-0.0968255658883272,-0.04650043372904525,-0.07762895198052601,-0.038235947289633136,-0.035513412214892306,-0.10248709869162184,0.09643762883123759,0.09035936237584224,-0.07613243397504535,-0.060279097282292096],[-0.09506344894589637,-0.03534492838719149,-0.09002636678533335,0.047529024514024576,-0.006866947619013582,-0.04318593068747345,0.05520144167628624,-0.08021296778513691,-0.05729589941285956,-0.09045178404014194,0.07984915946103147,0.007393729617812212,0.06424398164198321,0.07028865713619219,-0.051379091841038664,0.08197481732279745,-0.09075462349297989,0.08742977308326146,-0.020433721538840672,-0.10167891923107862,-0.059045476199935915,-0.08965129146969156,0.07935660736420988,0.02877043070913813,-0.02972747072836603],[-0.08587011053918338,-0.04093280904738738,-0.04862184082584836,0.11977748451968027,0.05305508143712261,-0.14613977958299196,-0.1509391881500306,-0.06128168592272841,-0.03290667301049973,-0.03731530410564903,0.0636757880642987,-0.1010791542144139,-0.19086635284706277,0.007551589058959736,0.15110075504741935,-0.16439486207660584,-0.12565151581625078,0.1167445865272537,0.14422160146343718,-0.07635771042838521,-0.0516641111562702,0.04892031926416221,-0.08277652992792126,-0.0089913302804499,0.04881643316993565],[-0.013105082279182256,-0.07349530312211057,-0.1420632731857935,-0.14694428147743052,-0.14749592545466442,-0.010048555066337865,-0.03231559307022636,0.015345981827550854,0.006858423405541575,0.03595086501709292,0.1358256009010453,0.19107017022265238,0.18319117516222275,0.03328585591423955,0.12274724969579132,-0.031759875798706,-0.015620149850468001,-0.07951439312187707,-0.12512337111347027,-0.05152875191590785,0.013681469967178674,0.015632920991354923,-0.06473445451724692,-0.02727911694228815,-0.08905068589261486],[0.09873226465737889,0.057421539035187465,-0.0614836364762915,-0.038025809092331546,-0.16434246207191203,-0.02805227854051752,0.2915851813393509,0.2188827718663341,0.05428819506988974,-0.017990606165422186,-0.1872050610317772,0.032809185176235114,0.16975418668030376,0.2205405662782688,0.19776357116634524,-0.13544669159722683,-0.06201601469346657,-0.03243482961294851,0.10253517770496012,0.18241505093418797,-0.11614655221778059,-0.06901656553726208,-0.02311567156153133,-0.00480114581616504,0.053815473104103326],[0.10387694845759282,0.08897398383357767,-0.0777621713542547,0.00871423054894581,0.0906880247250626,0.05678243347125251,-0.04652692041959007,-0.071837928733356,0.013546588872200654,0.04191821588599888,0.06915881439581184,0.05973539325011523,-0.06230434980830717,-0.06332669018916867,-0.029877226786619734,-0.01803104405650483,0.07578161063787477,-0.0893427547096888,-0.05939477638046932,0.021991586468931776,0.050016870999339394,0.005238365362265947,-0.004076078514915947,-0.044272121325707674,0.06926587902471362],[0.06886365487801359,-0.04586259047490079,-0.03586495420846265,0.03589164142826683,0.08492053193039668,0.0005896143622580939,-0.09894978332454263,-0.09548749289384902,0.03543274303402004,0.01443472980048183,0.08449401937631072,-0.0424901779099809,0.015832326571550384,0.018609017580961226,0.052668267407386386,-0.08204611697708489,-0.031064723269757618,0.03145833608793831,-0.10368389203806215,0.02383984412767476,0.0649550297486075,0.01667643116747712,0.0038563973737858787,0.004144754655068373,-0.10426205398123083],[0.00680016003613386,0.018115608316846953,0.17695219698714987,0.16774516279664034,-0.033987607398702366,0.051743549015868084,-0.050027474403936366,-0.0069006034517707995,-0.10786476120026808,-0.05184684449316839,-0.09632520065233435,-0.06029147938569957,-0.056282123156705326,0.07388845945062664,0.020890084618431042,-0.11480539685518511,-0.0605299034150674,0.10689050381777394,0.08259899377636207,0.0006062278197770005,0.04299536147384954,0.018325817892013783,0.04066278379371016,0.06694076070620959,0.031914141283000116],[-0.020937814967759993,-0.03311438180011364,-0.09884078039898837,-0.07869577805764878,0.03346797227389486,-0.10076410424335754,-0.09638824096189977,-0.1094954113652444,-0.028952138369195985,-0.07275342652137905,-0.14680151217545218,-0.1634378810510278,-0.1674410603572798,-0.1085582936792602,-0.044666746660178974,-0.01950658914783586,-0.11238322593580843,0.0482588153677351,-0.004890323910813834,0.022808245697278438,-0.08159814664816609,0.012349748137907166,-0.011619193043404696,-0.05796886790071265,0.05615676218402195],[-0.007290534805335172,-0.16560364464493524,0.011055947294310838,0.0007428093052622164,0.10851631160648764,-0.09016313878680436,0.0650640822707081,-0.00611241001616948,-0.02299204108596586,-0.09224035800704312,-0.018672198833246268,-0.04111445042535689,0.01613573355764985,0.0506789343028812,0.006058942662151759,-0.14060350193394885,-0.12365744154845963,-0.09738397108097673,-0.00282105746291835,0.002153249505005217,-0.13095064669821618,-0.12003367551360512,-0.10651907660262877,-0.14293830033331253,-0.09944558784099407],[-0.12850280934698952,0.09374426226532198,0.012441356164096407,-0.18423964608758817,-0.08138778406211104,-0.12015503131467499,-0.07666888667585434,0.06102213073817408,0.08320562558642743,0.052534523366207495,0.042016121825009356,0.16097479659562408,0.22992518859146327,0.09997862362427026,0.03007339607925484,0.23045349420926683,0.11060161734805046,-0.05256729812808135,-0.05331121403746006,0.12446535468745469,0.005405796361462931,0.0029139217944431244,-0.019957087154687782,0.08578605144026928,0.10675284217307926],[-0.07471502507851774,-0.0910253864839298,-0.09487223026540635,-0.017055714776634666,-0.009212949394700626,0.06328992076869834,0.012278841970480825,0.10251670221870712,0.04244893308304494,-0.038780969523244946,-0.03414535968272878,-0.0892584422968907,0.05024924131878068,-0.09065626989790464,0.09224845461065953,0.02635385523107371,-0.03655735630399177,-0.04102791636213472,-0.08119536164807266,-0.007365239531506546,0.031228308891853462,-0.05283016222201871,0.0871611446613473,0.009160814219105936,0.03455523326923555],[0.042495303652577456,0.09297902523528442,0.025991650941680797,0.04334415082849111,0.12209553852102052,0.007724709149268202,0.2068755863722622,0.23027814415248576,0.12252777811804412,0.05940570431089861,-0.015873555731521927,0.0012010837603660819,-0.02435354994330696,-0.1315527363778025,-0.1762738475335013,-0.01018281215127995,-0.06503886002665948,-0.03867237475272702,0.019172220792779093,-0.07896995450719277,-0.15726257456076628,-0.028355252163410012,-0.10000384656811995,-0.11022044744063898,-0.04600978545051696],[0.0687955061256733,0.03879931567132286,0.05467961191468229,0.19209803632755673,0.02019234151347437,0.020019600188720933,-0.0007257692126199201,0.0035617570794700577,-0.2044573241205233,-0.1588336239789591,-0.03136575824672062,0.05114597078701942,0.04229972818467892,-0.056869804339278136,0.23887362381744354,-0.08721259168073968,-0.034862868505884194,0.18306549131152716,0.2524608282739628,0.2195093358310845,-0.1193400184209963,-0.16770703656962432,-0.189945166560673,-0.10861670943598814,-0.06553083506888212],[0.09759941720068822,0.020362298055425332,-0.023598497071922332,-0.02378495246511091,-0.06353734498451769,0.008584485005394176,-0.03873359812131904,0.005831597641029192,0.03131120198744411,0.09563692634463795,0.08495656114839356,0.02319072911559388,-0.03256340201083759,0.0020837371058021635,-0.04553915331605637,0.009113259553961682,0.038381482214273,-0.02889053197718763,0.06865027924642235,-0.011775449912658203,0.09878674092614258,-0.0024791623232844643,0.04950791455854935,0.0774839607659493,0.08677135887331489],[0.0802134914181108,-0.0008045280966230841,-0.04754546370925948,-0.1272194955391902,-0.04347767219011407,-0.06982227616601988,-0.14245258288319165,-0.08016992924907745,-0.09234953520592445,-0.0063964406989934905,-0.03790371974111748,0.06086011652387405,0.10213077930070781,0.17066188942042468,0.14266952443588976,-0.05965029984396708,0.07472729307793782,-0.004093748159532838,0.07211344960630604,-0.02294663053564095,-0.08865387312745081,0.005978658616236387,0.009225816099367774,0.04667288165870859,0.03989023783794624],[-0.025660465615272476,-0.025174958452275433,0.0940064563016491,0.007789903695106855,0.05608161255140207,0.09187373205725834,-0.0832411352285995,-0.02161210009322506,-0.010803404098783378,-0.0009432349439819454,-0.0783878455513345,-0.0619388798101426,-0.051061763407502354,0.08831131463884953,0.033940958209701715,0.09525299768408228,0.021633188446616533,-0.04378340092816096,0.017594641708677285,-0.01878096663013695,-0.08954806277146057,-0.07040301489217841,-0.07127280376979216,0.05573258804388396,-0.02001599112548818],[-0.03852983427589083,0.08408233718416772,0.06095317354235404,0.0018865818254100188,0.06691720470906246,0.000272869958638414,-0.025264840987175734,-0.009151964667857431,-0.010134667617245557,-0.016523512067784487,0.07014409752400388,0.06762065731401945,0.1012295562146838,0.038153053415854725,-0.06584956168980809,0.10012971548216044,-0.04952163624611275,0.08072282833419812,-0.028535342277111814,0.062118922109334014,0.04619673846421421,-0.08401414298542469,0.012997866112588904,0.0680350126297674,0.037227715647474],[-0.015086329468818651,0.041394836610470366,0.03263228116072286,-0.08272396472414348,0.02315516685889194,0.06107760800305537,-0.09286675606231934,0.09409106928947093,-0.03685193130550602,0.09438816425751091,-0.09468254510117811,-0.05272929760957703,0.022291038664981395,-0.08417580745647896,0.09674810288967799,0.01858671316327882,0.02347193864499355,-0.004954092253550891,-0.01637994941139492,-0.05638379161464907,-0.03163965461506214,0.055442798556659165,0.08109409709575718,0.08599751553737844,-0.09681346010765508],[0.05338114904096785,0.05493629985197009,0.021071455572091575,0.03357736596169937,0.19291315760946925,-0.08515532414878269,-0.08820312447130875,-0.12239676980310384,-0.045086229842393334,0.08712371713128353,0.02661033447116673,-0.03293617538617734,-0.12186505298874373,-0.054507313941172884,0.08528471010497769,0.07096225950869961,0.022705531524909183,0.0019946005711715406,-0.08168025598605799,0.0018206347398112975,-0.06302034393676627,0.06047255741581044,-0.16036225376934451,-0.11467883426116615,-0.054203730188445605],[-0.1186824963991539,0.0162908293815821,0.019146237755985708,0.025038203306562028,0.08269206120628873,-0.04902238744083004,-0.05644192832253241,0.003280351094042071,0.03474374864321944,0.05988836484802247,0.0018519183670203392,0.04292303905054212,-0.0803138506430272,0.03228356471757258,-0.06436551526297633,-0.13746958332452813,0.02152181294930175,0.04926566240834885,0.14777284393053391,0.01926784613706252,-0.10468922840712712,-0.07574684429961401,-0.0018190142872220958,0.029616881444615044,0.022736090242508795],[0.048530819882009676,-0.04856200457457385,-0.05658979819397312,0.13742393754439097,0.09120791941968003,0.029769274629230888,0.045735706008179514,-0.08266194807431093,-0.056092780807548204,0.0044368107082501974,0.014138134407247809,-0.029548345259651967,0.0004955053971189503,0.009566228079141805,0.11683588002330603,-0.030907077607266166,0.02388988949508503,-0.033148396428079534,-0.08161883416290465,0.06269523669239599,0.13026885881125777,0.032822013311525705,0.13270008951145454,0.1887138752554054,-0.013085698441482073],[-0.050374307278852205,0.03556301847480202,0.040177924678502334,-0.09991183375432366,0.026852283569608976,-0.002036949879703115,-0.052384649532768356,0.06374159232773081,-0.05795318043551201,-0.011870299133686674,-0.0487604044642581,0.05313012845972295,0.08501990174141782,-0.04078917253899875,-0.03785978178157116,-0.07888859673170762,0.0006582780514063038,0.05640006386124463,0.07586374174173459,-0.08498925962548844,-0.035691260754141176,-0.07344468608199384,0.012175445913243916,-0.02714951170503001,0.02844359063247664],[0.10024922158248094,-0.010724499361391766,0.062055690851690555,0.05047164169114072,-0.0029546425369465575,-0.08052184913640875,-0.09854859912851525,-0.08509572261797546,0.00665946228515255,-0.08628394578257441,0.050294825709780756,-0.09851273653997328,0.09833253378819236,0.06238360784294351,0.031877000229333735,0.08150823335164968,-0.06520451100650668,0.08523326813202936,-0.04611025588029014,0.010422862646379327,0.01660210616234818,0.0377901034328526,0.10307103697665007,-0.08609957408439654,-0.09843728194666865],[-0.1557282060498813,-0.0790436662783914,-0.03587018999541511,-0.1425173533696347,0.02398413271078776,-0.19570312502918855,0.012351756005239875,0.11816904081831886,-0.0013740393262880793,0.04849860389907996,0.09003141174227897,0.009997492753978609,0.09054845298731816,0.07043223613663012,0.08764500417320888,0.025402345891193678,-0.0345412725330786,0.0428772311592469,-0.013575535346944327,0.07131786552058972,-0.10322784480208061,-0.06659256863542355,0.138035477899009,0.05153736644776593,0.004860719979690557],[-0.171385721309313,0.011539117321654052,0.10371463324929824,0.14285854847313967,-0.03936013944714668,-0.025509453648802465,-0.035522125163078545,0.06493463267480955,0.021239699786703956,-0.14057688553995476,0.0007896707887019095,0.019101598650445317,-0.04543186033554142,-0.04718943305426074,-0.075953589711879,-0.09434677227284818,-0.1338084806675571,-0.15873380710035015,-0.0761755301494197,-0.13024520820033342,0.009188537975007068,-0.12312359994595268,-0.0797436984703712,-0.09578827435978152,-0.017622233719265974],[0.05151852735089552,0.11217911613108118,-0.06649764558522908,-0.1565274696263716,-0.07204887204299218,0.15279325784588518,0.11882918767904464,-0.015553409010728462,-0.07553056474187396,0.052260283172005206,-0.04134986255408646,-0.05903061778122293,-0.023972439089938537,-0.040771644458875524,-0.021993100186841374,-0.15107569510404206,0.02326529322547337,-0.11703481402257862,-0.07795066564291446,0.0477152737039756,-0.03745476248515358,-0.01258820694128528,-0.10371809526740998,-0.07530374238396956,-0.047239513213340724],[-0.036252616931879415,0.05209058967596469,-0.08510415737974782,-0.13260802677534747,-0.0430274374099285,-0.06860931022567847,-0.031756902921527955,-0.11355537103954964,-0.06560241841718102,-0.07646313942061995,-0.06671142105561587,-0.1601267720249893,-0.062298939910783425,-0.11374250386720179,0.032788898476237206,0.03142355719120659,-0.1300762089557242,-0.024039297564907785,0.07145906504522465,0.04861399497984165,-0.010927955923234365,-0.0695926096486023,-0.0816632770472348,0.05650982343268605,-0.014321984515268772],[0.05276049924250848,-0.07235549353582452,0.04820110535475026,-0.04138366523875548,-0.07899180529433021,0.045057563987992294,-0.07943390242021234,0.038396943540582075,-0.09841499197409657,-0.08827893769921126,-0.03812619625929766,-0.09798507582127926,-0.009142731470041432,-0.10302893628908427,0.018023718829175153,-0.08928525178944724,-0.030528246996893025,0.09835600825981419,-0.028735477724818423,0.011348834735060907,0.02593154810093611,-0.05747513419633594,-0.08776999954583369,0.0011567400465623615,0.06718994867423826],[0.012631084231385446,0.12054273506351414,-0.10705123776639554,-0.029149083417302216,-0.07162629335179772,0.00937169994760459,0.06736916101270474,-0.021397661038137873,0.025152716289669523,-0.039242472290628515,0.07792968496193424,0.038370695969287875,-0.09506874301985221,-0.0012543400257123524,0.06769690297186362,0.1359164607135193,-0.082941582897357,-0.06900452400924487,-0.007823328288319916,-0.016275179151623242,0.11265583502724609,0.12006907168300422,0.05802535254466305,0.011430633168947267,0.026538551662951868],[0.0036331945995563015,-0.11456635955705063,-0.08750954886167181,0.043048679710300033,0.03240855798435941,-0.11306150714183648,-0.10747109797387103,-0.10485124968146695,0.07412980403537237,-0.05949953731218203,-0.10434878622944663,-0.012154010684074516,0.008952946207261617,-0.06902819787138552,0.06658550996077903,-0.07839496625298488,-0.12213704771711988,0.04565972511754594,-0.19875422028075423,-0.14986003658108113,-0.06908919148154338,-0.013823602988856603,-0.1544401469110407,-0.16077597020019008,0.029729063347132222],[-0.02489122150507703,0.023377501313784098,0.062143517664688425,-0.053352349582803896,-0.07112940405050858,-0.03732357981560099,0.026411323558207484,0.012556806757076445,-0.09049196870189817,-0.012087630631376389,-0.12383763982274905,0.09156554822015026,0.0007628711102067548,0.02282000242228087,-0.08334858073628156,-0.1483590165140681,0.1594037202851006,-0.040607591155277525,-0.08002833689522929,-0.0913006781953725,-0.01696473078180262,0.10077014205882188,0.026429567727516822,-0.13322767436747543,-0.0845432045153013]],"bias":[-0.36033112275604406,-0.30883386783668765,-0.3195183460194805,-0.09517798483781324,-0.41628060115478593,-0.08031765645887134,-0.2597223387909767,-0.1989530802751104,-0.09071619872814751,-0.16810240290774628,-0.15126853849112804,-0.04100686650136946,-0.2677846809601903,-0.28677128715261074,-0.23011347804122612,-0.27505577061374525]},"s_4":{"kernels":[[0.1613660055522378],[0.7419598450019492],[-1.0561243204891664],[-0.6821452347810082],[0.6214483210959162],[-0.9789075299881891],[-0.17372932641949318],[-0.7070062278244488],[-0.7679136491508529],[-0.18228026011442508],[0.9781814006941192],[-0.44282856576378316],[-0.5607832997719676],[0.9346556293961731],[-0.8332067570310133],[1.0335315588347744]],"bias":[0,0,0,0,0,0,0,0,0,0,0,0,0,0,0,0]},"c_5":{"kernels":[[0.02299592472457637,-0.008154000839885949,0.005488948608047742,0.001909639173705489,-0.02313939448728489,0.04540441501904235,0.04360763778680782,-0.02143981050298086,-0.020156895389342167,-0.07100101168832258,0.016171110281333268,0.017659294100071964,-0.04278611677529518,-0.008984655515350997,-0.060819135973096246,-0.06256473340901059,-0.008782067701547543,-0.009088919893745318,0.054614596670768074,-0.01731051423391171,0.012406634643977933,0.007505811442562588,-0.017322999449013065,-0.028508302896824527,-0.031508880232712484],[0.024785474021616283,0.08947119891727688,0.11916325226666098,0.02513357426833042,-0.05104613046921461,-0.08817245940349078,-0.03995368247061853,0.08902640047287767,0.01761352398079241,-0.042752406622142754,-0.11971673860015049,-0.061632127507545084,0.09866045704889384,-0.09706902980614666,-0.022752742091754555,0.05240293937205434,0.12453255920734298,0.026557568634252265,-0.1200097478463827,-0.023313429859050803,0.021625037082702,-0.014042570808890603,-0.07900483007821628,-0.06364552864331913,0.029028527308103597],[0.03509307094372083,0.00418888598353225,-0.043040560490913767,-0.01028248624826164,0.027017109441396136,-0.030425328458181508,-0.01982671158154952,0.019598551109580163,0.00021798412418835795,-0.03341574257411773,-0.011371497815100438,-0.02998118165836485,-0.02385963677901595,0.02565554676147878,-0.0023994079311838497,0.013873065242145665,-0.027760698580775657,0.016878840001132666,0.03806670200279619,-0.036603812111983124,0.021164337231588573,-0.021611452904426794,0.011973834955429231,0.0017254024186151439,-0.029745112976923373],[0.020931122180164057,-0.023113100054647038,-0.029592104693858767,0.04936038494005237,0.019243668343868744,-0.03183626881272549,-0.007243743334332107,-0.004827180960319892,0.013267489619374627,-0.023397685572512778,0.013441191945332788,0.04357645771645046,0.006150005250081877,-0.018776746178856055,-0.016055565727590076,0.024573172881319428,-0.0030691380973278197,-0.05058696395755386,0.005748033011371322,0.04221045444586569,0.004689723819424415,0.010763380193288903,-0.011765837656878308,0.01041848005772396,0.001817767936143674],[-0.03191437227901164,0.017582970447114033,0.0070633906537879675,-0.01438104336606846,0.012663885778905782,-0.04656319349516607,-0.05092739134341251,0.02236458705562123,0.0160758112741288,0.0595178584105743,-0.012024258298480042,0.053280176799690306,0.018748883514951898,0.03543944227997156,0.11205681249580303,0.07328007804708733,0.06823443528592457,-0.030591256176498143,0.028521437359541546,0.05030767534230316,0.03291292127992073,-0.011656022173513992,-0.036559603740735275,0.011191533399391067,0.006996009940957476],[0.02442942851066326,-0.027223129622931583,0.04104938616904028,-0.0013729922042903663,-0.03676365468683158,0.011844432509537269,-0.004361592257833467,-0.0012758529045775455,0.005526278530489097,-0.008677911686646443,-0.016465481176798545,0.03363215103712761,0.017590887049548306,0.025124983321914998,-0.024705550343847107,0.015432009339839098,-0.024021838962595854,-0.019607787338295806,-0.003725967043795163,0.009971832596167532,-0.019806029605719585,0.023108834239880905,0.003158355991540081,0.05260755897188617,0.01301594310602189],[0.04184719845173584,0.04915612936082775,-0.05715827155847577,-0.0326129206811663,-0.04399425053649613,0.013420602158328613,0.025109445879361158,-0.06774947664885755,-0.011220298913909445,-0.011987756607528509,-0.02621175026901593,-0.05935830049595279,0.03491539441814995,-0.004076829099797079,-0.0706231917467025,-0.013042596629636208,0.025651884553490687,-0.04326771446777128,-0.10989313427703158,-0.0400857507582908,-0.03733090342303891,-0.03411502404593839,0.032558563820969416,-0.007557927093987982,-0.026596349991284438],[-0.046160689430338284,0.007809622663251197,-0.017343261688746413,-0.028727773809785966,-0.017157223126861014,0.02456971329641706,-0.03245561786179582,-0.0024412218882861707,0.0032589240032844507,-0.07375975422177657,0.02281001425265575,-0.0661172966955922,0.040745861690212944,0.045355169613271955,0.015779682154340505,0.0037279752773199957,-0.015310879227976616,0.05168198967570967,0.02189669027699563,-0.02452351530427209,0.027444733506488034,0.01799970274458426,-0.06126563667884629,-0.027668383894913964,0.0000730980789006807],[-0.02978508771772988,0.025043479724585187,0.09314811613248987,0.03359015440202084,-0.052340797101264096,-0.0010377201635959471,-0.012168990021042131,0.01532429065084144,-0.003982146933470466,-0.0070377232455593975,0.012924537254847036,-0.08326016623287708,0.01815441884064196,0.01798906582041744,0.03366161042797801,0.07027414464055995,0.025142789352741043,0.06482988766154404,-0.05376932598271245,-0.004172095235893005,0.04043647447449946,0.025857824233089785,0.07809319856055193,0.016082250822852792,-0.05492871380209854],[0.03470802534719566,0.000980301251953327,0.028076194956446265,0.023547923283927803,0.06576169522142565,0.02678612388802762,0.030485629881788483,0.003256855871887518,-0.004559125805808331,0.03304486275931233,0.004290000679642613,0.03308647748229693,-0.018077532625206172,0.0024942713790266813,-0.024904440420869603,-0.03499169551504833,-0.03236785446029336,0.028741495335227442,0.04043061728933357,0.0784129762543348,0.023867717803029622,-0.011505637661066093,0.016076062108602164,-0.020089668473317848,-0.041504002464570214],[-0.05729316186445612,-0.012308310619672058,0.01527092060450743,-0.037149873349808675,-0.0018259015506619874,0.026169124152379902,0.0003365951920342534,0.018346857742438702,0.04379028906722684,-0.0333373081024896,-0.039474298225892074,0.013602429549595934,0.018817840560965405,-0.02330176404005475,-0.01018387727403428,-0.004316048980928355,-0.051837379055422676,-0.04514051503471705,-0.03478232582830976,-0.04333688108785149,0.013660013457419488,0.04456760779428422,-0.003560863474007414,0.02477981573136065,-0.011574154028378417],[0.028632159438137888,0.03511270689034943,0.008696724215432128,-0.005569193020387762,-0.011233061444007765,0.005505554340330293,-0.01317524938769861,-0.02357636995353481,-0.04804822583107613,-0.06587078838861564,-0.03486303714447281,-0.0020906919891002,0.01372835625826599,-0.007559932793722788,-0.044812002258335856,0.01554872265295437,-0.020149060102473318,-0.029645388507437302,-0.06084751961896796,-0.015560101478881412,-0.009016873399305356,-0.03145607205438768,0.00819767693263362,-0.05083886926518598,-0.06352170571217874],[0.03960324270595735,0.013468374803615357,-0.062142995134295276,-0.03110554211726125,0.04304826992082839,-0.02139742248827211,0.011752195563044235,0.0024164878027102066,0.0459711770956128,0.0048571291157876355,0.02287665593244029,-0.035973703674525646,0.05512142786532151,0.011240148289751525,0.027072259492167305,0.03350824283323953,-0.0007511275646582763,0.04464615692981862,-0.0042942024753390585,-0.009154006523101391,0.016034963597624605,-0.007410662745696803,0.014280169290080353,0.02633937419390673,0.02172476963582585],[-0.0023890987283917823,0.008291133532371747,-0.06973993841440394,-0.014649206222416661,0.02112268880113194,-0.02694944251927819,-0.03184692606294865,-0.026604926843596752,0.025500884321032587,-0.023179120480948997,-0.053376541730512435,0.017160672352223873,0.040468997473926384,-0.0008628529591640198,0.012404558527080795,-0.048254282429498294,-0.0003000635587999511,0.011522389826349034,-0.001088514571722921,-0.028761790042682294,-0.0656861176794617,-0.04695366175550672,0.02767123351358949,-0.00303844074242673,0.022880937742852245],[0.06013829079543962,-0.0210899567783046,-0.024006049906538828,0.025929442291212027,0.022209621596708765,0.06162443097574683,-0.001476596377795029,-0.016759068121092395,-0.049090689474928374,-0.04287604517866437,0.06190289289343775,-0.0985752409092652,0.03624751302956112,0.03813699260884081,-0.03867700580388235,-0.04213834207014387,-0.025144448948404518,0.07825844722217969,0.0007817704269623271,0.057739068358857525,0.007321784597937503,0.0654810801171484,0.04881644051767202,-0.005748392860156386,0.030343107073712235],[0.048885844243471796,-0.0447100480690701,-0.004872314673896635,-0.00963524154966695,0.010660432680157648,0.012912508153604896,0.008272189708586992,-0.03001086343123433,-0.04806804301606814,-0.05984324609153427,-0.02005310586489415,0.023223143041063956,-0.002529065089663154,-0.029947208311500034,-0.06360365056894271,0.037232871078199344,0.034602864060625876,-0.06528110944674874,0.05208234237188458,-0.013940029573364035,0.012887222436306767,-0.007608410062920265,-0.03047994363881077,0.013793491913864267,0.03959300004525927],[0.0037795938468887327,-0.0017461157970722167,0.0027821502111536655,0.04981713634950684,0.0033936603365465074,0.02897291314616153,-0.034521570197412664,-0.025238302767010366,-0.007280645057934346,0.003099987792109709,0.027053784572949765,-0.04955913492421713,0.010281255813870037,0.024708579046303508,-0.008348312646861861,-0.0019571672206936085,0.0577532027146102,0.03392610406532823,-0.05291330168823203,-0.016616039392514003,0.032937980891847164,-0.03224285940393731,-0.011565797520682293,-0.03361262523815453,0.033306129289023594],[0.04292706357121864,-0.03133771322268263,-0.03041063588464375,-0.02953456691774936,-0.012934193008982655,-0.008495696145025164,0.014744906074000745,-0.025144503401446597,-0.00042564864756389507,0.0014207026136967486,0.0015996292532403685,0.015653888237886392,0.0066398855511714,0.010605238030113482,0.040680865025684805,-0.0014627061253047434,0.031210545637645137,-0.016443265700617,0.014558916699734947,-0.04512572746100589,0.020928628213007935,-0.011631639296209684,-0.018115761140963416,0.029889433738586404,0.019013778433980177],[0.00938743053873548,0.011412418085065384,0.0261359149117077,-0.0109866239213446,-0.004645802544992535,0.009788275474057945,-0.021900183727432136,0.002338977517213596,-0.014392032444907795,0.007123910842711297,-0.001412195369275388,0.049528878959035585,-0.004594942513928038,0.003364198666592765,0.011832220059942347,0.08017617074772142,0.008406040141055653,-0.04845103004814013,-0.04310973387430702,0.010959484532597168,0.01626832599902222,-0.004287548808726308,0.008919985767645609,-0.01569544296782274,0.029779844695529724],[0.017594269335295308,0.0739281082129453,0.07562823463268017,0.026509365918280757,0.05882189427039097,-0.00177581888683509,-0.014755964594477625,0.047975331028943,0.03489950572842134,-0.026818074918152177,0.0075088732299977996,0.04138740237739806,-0.015070504758916562,0.008070748616606865,-0.023406609812836245,-0.022021147519552853,-0.0848943019811884,-0.03405472154914134,0.039545249908553425,0.048060844136766714,-0.0005406300404480949,0.009674905000381177,0.0012822484511439015,-0.005407593319009469,-0.003907335827448458],[-0.01814592439458638,0.009555214939749809,-0.012726076080874754,0.017034993501194747,0.06044530016040229,0.058750795905746285,-0.0026204530806472463,-0.003576998739008624,0.04465165624679635,0.01045251070329786,0.008761547888415318,0.018724565677958636,0.008936247099080499,0.01387791087872825,-0.03153666616680581,-0.034285867972880045,0.0349274532951854,-0.00010910188447804962,-0.015990030892906376,0.018970063277992166,-0.0034372189688876976,0.00356053792718891,-0.0006417632068571635,-0.02260611898360104,0.022141895168643507],[-0.002483528598995855,-0.011236151872446077,-0.002612074069085537,-0.009435079917112663,0.03554737495740359,-0.032738571650825284,-0.04664404056415362,0.012199369889215111,0.0044709904407364545,-0.049900540738535164,0.028550021995601166,-0.003535682573426163,0.010253461203999047,0.01926347014009639,-0.028532451231134175,-0.03172741063030853,0.03935722292731903,0.014529144082408327,0.0052759569484296135,-0.014773800758783174,0.020981612394185428,-0.04359434314804648,0.05299253422953015,0.0016777224346186423,0.004599069218006127],[-0.00449421036996059,0.019508186899587728,-0.019429922927277545,0.016088791966162808,-0.05092233346409503,-0.03371361258755213,-0.00965842063070568,-0.000165142937461025,-0.01892095508683989,-0.008791708069232556,0.02102772294268099,0.026007436260730977,0.010373647514092074,-0.05891678873066371,-0.054600163571897765,-0.03283092637723293,-0.008118700111095056,0.0552561198198034,-0.046989674387413936,0.005498920616568604,-0.04676397729855394,-0.02320085649693079,-0.012272952037136178,0.033526359338141645,-0.028322780970154275],[-0.02997512759686913,-0.020426257218358015,0.033502108324930786,0.06095285194879273,0.0008130094099509149,-0.04344625648004678,-0.037802901279331724,0.03621402745690013,0.01731764364730677,0.02515484699823106,0.016433930372931876,-0.017855965171685834,0.08082790501188429,-0.05060891978083664,-0.04380508564715635,-0.0467433736689455,-0.03238944589694729,0.056938725945315634,-0.05946540732336625,0.023502451880514332,-0.05756088070238226,-0.018015074591230116,0.04773416684521377,0.00954414826285015,-0.0010060234712779077],[0.024620318948855052,-0.04902549708412902,-0.08234652659826829,0.029696505562499288,-0.01838945806631828,0.011256484024011944,0.02063941211441842,0.03696234158080729,0.005592508078670574,-0.03736086988416371,0.029073649937950034,0.017792034688751283,0.007818410519956026,-0.040695132882639484,-0.0333213578906394,-0.01769443522041199,-0.03645511083613407,-0.01583638267698965,0.01665022350266059,-0.021400252890463274,-0.028267420244805486,0.012077674572466857,0.035332483606653954,-0.02097171822129478,-0.005659692225255289],[-0.001989255479233162,-0.018049247305779514,-0.04417777642390388,0.00026524859543368954,0.012200772519512253,-0.019667526732835748,-0.01443639285558224,0.020776314032199185,-0.028204447432974004,0.04355747166353339,0.05091029305826109,0.024763256619593,-0.04805733895258221,0.012493752656361637,0.02885373282759967,0.04337411387036656,0.053255053466700404,-0.02014462405794833,0.034419888698561406,0.021142037382715057,0.0009330042551849432,-0.00574812577841373,-0.018106138660930266,-0.007428652328104974,-0.03583829071215061],[-0.0009716257061875229,0.026867407517018604,0.01674228541225668,-0.027080823488720072,-0.013212778463192994,0.02241090840092974,-0.017408354657287423,-0.047629772418573725,-0.008507615224499674,0.004281103496379532,-0.002200219640399527,0.010224467715335786,0.004261398148044372,0.061756069595332426,0.04378077526269927,-0.00560760322441443,0.006434140717541582,0.010411833756892967,0.003115092780767722,-0.004461156395606308,0.05294291882319167,-0.01736939406907865,0.03395866159872772,0.03897325554524341,-0.01656914633093907],[-0.03952535704394574,-0.02676552464410175,0.03771058389675265,-0.02085238227336064,-0.003607219582199528,0.01764063226722435,0.03808450404365376,-0.03610131608973939,0.027680372373998795,-0.032787192482041524,0.020281643332044744,0.015351182649991751,-0.004710051519508076,0.003305623809281709,0.008784568558027877,0.029840498017824946,-0.06820928791887246,0.02163035490492273,-0.002318930187787547,-0.03277233609390024,0.025603999746679696,-0.0002896937681019327,0.04468620214787988,0.05064333906661989,0.003600941934276616],[-0.03670042729896825,-0.017305134654118273,0.012691800878783738,-0.012206297024521796,0.0011365137901053499,-0.01547783452905516,0.010465992927116032,0.003690647722643833,0.02639588185983133,0.0027210526361639417,0.026260259427529454,-0.00019309594148160167,-0.016009905591650487,0.017737542403124862,0.03426987892646849,0.019047349599094657,0.018567529602523704,0.029136649238975614,0.004187199673843518,-0.0032730649912407392,0.03303716662992036,0.023077592913773422,0.0069331726124045555,-0.022161431473745035,0.011483742779352815],[-0.00770748842951474,0.009115417985603448,0.043914742821384176,0.058890691789781804,0.07824318633886226,0.04685989812821243,0.0007129939786516252,0.0016214649933886036,0.007474806141332013,0.06608621784611629,0.027970871749189587,-0.022572506772509982,-0.015825328732881977,0.0405528884732512,0.035467702526420855,-0.02343444175747838,-0.014604546430278859,0.04488792235269246,0.014595192655955968,0.009172373102750857,0.00519043564446097,0.03849085755919106,0.09757029342170838,0.05218560515987597,0.0442019761999385],[-0.003401489684955018,0.02646820435794815,0.011653470419518303,0.023237608077073594,0.022817138147373107,-0.03133385374359079,-0.01763754181133125,-0.008194377263072284,0.015303738351445119,0.06931193728399344,0.00915139122875668,-0.005029424813600497,-0.07053032041590045,-0.01782453162380302,0.03685516194900243,-0.017221004532119163,0.004505094155389551,-0.04436393486078079,0.046368160733739776,0.02184655036198053,0.015912577882191897,0.038617669634730074,-0.01638007524019649,-0.023967275591883722,0.02023423716699966],[0.051314248507011044,-0.01272536534261664,0.05611097228974698,0.03060603905870759,-0.005379512865158821,0.0256859466031607,-0.0306601928552777,-0.031985822206741746,0.014878373370395367,0.00021400913019606837,-0.04307434398514884,-0.020724412076390655,-0.012339207810489444,0.0027397612478660643,0.038634405610172694,-0.027068151120651546,-0.021480647702135505,0.023482195114529873,0.02689871314599427,-0.020923642002963854,0.04589944488748229,0.027535944779496117,-0.004103972709271605,-0.007954371548111456,-0.004868990269932185],[-0.0556350104226889,-0.019210690560248118,-0.046066577665425046,-0.014552690538580833,0.0005899328257840735,-0.005744451176152574,0.010813514220653134,0.02083466168861679,-0.007905330725108873,0.002057151568199696,0.018815146134810844,0.013670585402175715,0.00923110448921878,0.009515481968654803,0.04111402208431581,-0.038658191662169314,-0.019503738420367532,-0.036922083656614965,0.0021628362961458873,0.0535223404826556,-0.02894926494684029,-0.013402608255998413,0.036394756496616595,-0.010552063226415479,0.004552106355247933],[0.013640317399005217,-0.014539160157339331,-0.0016182253895536377,0.030978685156897768,0.0063804140272801305,0.019536550369134775,-0.041327487232172534,0.04640743534666699,0.007005854320590262,-0.09185613762498698,-0.01674044266396085,-0.02871757176468133,-0.03547077791750944,-0.03126777555065884,-0.0440932695371382,-0.04188876927816997,-0.012783617206147846,0.014794480932666837,-0.030026206747890416,-0.06526120171106783,-0.04508389134424924,0.014072641595466506,0.011489868635993628,0.008991307991108916,-0.004287546559580594],[-0.008716320430216664,-0.00844893565162728,0.03212845983006991,-0.004205634345786852,-0.05373357093001791,-0.015255436192723197,0.0005447631929400046,-0.03632221959083995,-0.024439292547593333,-0.01279522775012673,0.013299287379866095,0.0006275821507929885,-0.008909863614271827,0.006972873914378906,0.0006852937814996253,-0.03403093591125651,-0.009760247585665722,0.04426503740744678,-0.06656159143535635,-0.040790851819509075,0.002525274569276618,0.012572689450177438,0.00772200601920014,-0.07558217105661576,0.007181459600323836],[-0.01963908965758779,-0.02413586860025299,-0.012094793632208545,-0.055792951722133,-0.018235905791182307,0.0002740444707590195,-0.03556441562762856,-0.007010206555320612,0.0516433049861196,0.025215332971401598,-0.014381295864430281,-0.05895692133091993,0.00010204648163210294,0.02119304154035312,-0.04167079670455236,0.026246156575691824,-0.04549459778509021,-0.028287712741280814,-0.05574837318246595,-0.04023940114812726,-0.0014817518108217946,0.03905220560331926,0.05232016709768868,-0.044378544918323604,0.03250483262467677],[-0.011409766910953334,0.020491150574895197,-0.004632572630473049,-0.043656765121417467,-0.014821710969569813,0.018024899156310305,0.03892675651983914,0.004192382818819199,-0.012016786376187959,-0.017569038681928384,0.011023465833444079,0.04436523389567301,-0.0037089417135370375,-0.0476043039178675,0.025527524563924292,0.037200306021528545,0.002618498063195625,0.03438252077381153,0.008106682097514873,0.028760936152336575,-0.010012793155174414,-0.0015686338612372333,-0.011963729127163562,0.03580299581417863,0.03603269176805713],[0.016481795159043477,-0.03290000223328103,-0.03396087062513873,-0.02456579678102263,-0.05224509355282806,0.018698672655954537,-0.03649653038205701,-0.02649131041467402,-0.032573453212321204,0.0029454753394768294,-0.009102529534536358,0.006045820726785004,0.0045663459149754,-0.014916154894898129,0.04064995454788302,-0.035729461023921896,-0.024261843481689013,0.011945840573637763,0.044450912046567634,0.01471272927814592,0.03775751509750202,0.014719160156526821,-0.03714647935099881,-0.05116987979916054,-0.05104775059404433],[0.02130601585357769,-0.051346371631337276,-0.06968722265104765,-0.0030639942725190616,-0.05290880252749558,0.0030418091439977668,0.01449163244982794,0.0047308021645939774,0.06922772594489031,-0.005992327361576835,-0.018278992554963312,0.004923971933633274,0.019702617783142952,-0.01346737392011509,-0.020348110914576528,0.028540095357528498,-0.04607408730740212,-0.04530375750052732,0.030008016310997906,-0.05079599708997761,0.02888838488296867,-0.05996381240824019,-0.017285560980254393,0.04981924269164606,-0.013932965760613075],[-0.0015649795917942575,-0.04805417695037752,-0.04649733931654387,-0.00015327888051017003,-0.006602691281554462,-0.017744487277579005,0.02124389574769513,0.02336673340542047,0.015507520530559132,-0.03361294928133667,-0.037679780400129516,-0.026867430260393833,-0.020681790667113883,0.016467598806538364,0.0367383358188027,-0.05227673762940741,-0.0024073520551268234,-0.038620243859398135,-0.05806013720196725,0.02817708476542639,-0.004549814723282477,0.05524139529861537,-0.04392443123603546,-0.03776992792162367,0.006372301851845177],[0.04259033036359777,-0.012894327763688002,0.030875863628559277,0.019702389616143217,-0.018002228936204855,0.035505222220623224,0.0072783265536419915,0.021475019278321184,-0.04774999626417674,0.014403076697961084,-0.0562863134015341,-0.040579396342764765,0.030145091063462814,-0.027174331549351408,-0.03999765222621296,0.028484717082061094,0.0003395777109995779,0.01512605672797992,-0.027233629728741226,-0.008689184657021433,-0.022847686949625766,0.021080444720898678,-0.03014128990942976,-0.016812032462800493,0.029621418836430356],[-0.022586512383650167,0.06927652164314242,0.08244461698401521,0.05096048208518184,0.008119721989415879,0.005655702485136334,0.008631914085002752,0.041785795112007695,-0.020606865880997912,-0.00485667612707353,-0.01250505493814257,0.019119945370510975,-0.014925215406291438,-0.03346151804380353,0.05988830789504628,-0.06334189052905591,0.006070033043122993,0.039716962474178656,0.007426469080513447,-0.008443468665357471,-0.02554705920080196,0.07584743785682589,0.05225749699510431,-0.04719005454709426,0.06834808636498904],[-0.022514747290175347,0.0016378186841532333,-0.06094306849454782,-0.016488261333976167,-0.02930334444998341,-0.004189710647010086,-0.029814139077896092,-0.038231303639453096,-0.07435455749378092,-0.06001832730311233,-0.019044691834225552,-0.04488782563877208,-0.02378433291955316,-0.051916211843098435,0.02799211986725058,-0.05995406428935031,-0.009445562318769278,0.01916912535425201,-0.04848197888680391,-0.01075717889496036,0.027003740300368315,-0.02901043442803812,-0.010830561749435945,0.045648883922004446,0.03882966785617198],[-0.017965720476029123,0.022278831211988093,0.03915990018655648,-0.009574117354098462,-0.04265274846812908,0.0008894699880518502,-0.00029089585560549303,-0.015612413597149257,0.012424325780734784,0.015127099745485848,0.058628696854518866,0.021488082129615418,-0.035588565396107795,-0.034009708006212114,-0.02589755064412878,0.02072876476759118,-0.02129601202562635,-0.019872572370058076,0.059066940169054005,0.04351357242475579,-0.004562323218140268,-0.016975121204875893,-0.028436077749283535,-0.03912736462711924,-0.06112579373335699],[-0.025123129077408494,0.013685571300555206,-0.06132752115297109,-0.006629781497131096,-0.016512630295700034,0.03070239817288195,-0.00465696252178156,-0.011873189453779725,-0.025350058242745492,-0.04048640035597824,-0.02627662203105842,-0.04081240904835717,0.03069047433631421,0.047804662614382085,0.029575127104987615,-0.03112835279915138,-0.05428093576886878,-0.06335914696565263,0.0400522564557724,-0.008978159822265935,0.04078505173700576,0.03862041696280774,0.0012957222182462256,-0.024200298581854397,0.004110404789806114],[0.014397068407257737,-0.012093672465748582,-0.0724575440639931,-0.04835325801699883,-0.057805034770496894,-0.004730923377988984,0.0039841271785783765,0.014135468039362968,-0.04652428987870116,-0.026978467628112877,-0.014406590296902309,-0.005917288076365177,0.03950413309709006,-0.012539700140245047,0.03495328458896022,-0.02444011027277921,0.0355895770445975,-0.000025760413932564736,0.020047331268899564,0.005246307156518092,-0.03652105818146764,-0.025281033913203906,-0.01925507612629316,-0.04129203595401232,-0.05590944120562699],[0.04665280628593697,0.004926584208494908,0.0019728357407987345,0.013246778916553313,-0.018990318841242533,0.0005376807830718064,0.045055112968422496,-0.041381913207079686,-0.05190362880061188,-0.06708534942903693,-0.0436887573318999,-0.018104708367487423,0.0034825751947930713,-0.03583989288579455,-0.055866164379476335,0.022912187304295308,-0.031313927547769044,-0.016165800391121376,0.01672664599851573,-0.038647886845535676,-0.016162102134097037,-0.06460607625922442,-0.026746765692594064,0.018549359057738385,-0.00983147467217445],[-0.058290724340547516,-0.03223878881206723,0.05171147931112602,-0.025810859624335825,-0.027293963434188644,-0.0010293172771495135,0.013500923813940592,-0.02001085863792251,-0.011522093274286056,-0.03088392988590951,-0.008594354896315744,0.03977715346708858,-0.0236806513573578,0.025146168435560938,-0.02560062556204866,-0.005660270564985597,0.027041839098458302,-0.04134092670635075,-0.01906924991016726,-0.011229875637327613,-0.010766622022898983,0.019943125521281854,-0.006847618468940295,-0.005251473121735745,-0.005880820796953509],[0.02455177612130181,-0.0005711514032742723,0.022860160427353938,0.016474617550407137,-0.006367707977335567,-0.037213494663133326,0.03699956097918864,0.04214848230182692,-0.028479681036710724,0.003299943347339734,-0.0324305845459433,-0.03289505309706475,0.032753865812364086,-0.014634712760315548,-0.02291613698099771,0.015725882817204457,-0.021588469317272128,-0.0025406811687167436,0.01754893058543789,-0.01641715725951457,0.0034139317508075397,-0.02263186843210341,0.019344673366349114,-0.005629015444233846,-0.004605437927939723],[-0.009019839627891435,0.03670029404839405,0.016023482957215656,-0.0010916629748780827,-0.0010630556672321214,-0.004256230120836535,-0.0025747510250625663,-0.037955300159946276,-0.047661945016023805,0.028976389965351623,0.012944887095048204,-0.0013862204145287194,-0.02838001723549263,0.0007961204609182902,0.019159328940545665,-0.011965323515130641,0.029879982673581072,-0.005127360817318318,0.003649108279952866,0.04509400593142178,0.050933369041027646,0.035252834046495735,0.037015536093305774,-0.026132639851459617,-0.008337760725575634],[-0.048697885173397196,-0.03962580702850748,-0.029705619954156243,-0.015024031984005424,-0.024218009698081903,0.01502864706782806,-0.04671219252813537,0.027087741469145898,-0.01952178409181776,0.03383412553388642,0.011238360143126156,-0.04045231971711097,-0.008926044732721747,-0.029429596836822343,0.028678268834215898,-0.02456720584630533,-0.034842033373642445,0.013205918853500013,-0.007637795000278375,-0.02818137801081741,0.014727599436383368,0.03510012382522749,0.044309716221341486,-0.007110616549732438,-0.011603528322865748],[-0.03130341549051783,-0.052984532232172726,-0.05022982744075964,0.01500481200671371,-0.01910294304718115,-0.06668748988312001,-0.04302582788546223,-0.02751544169243977,0.028927242668892773,0.01531096984352896,-0.046767269033754985,-0.0013531714862279028,0.044005148902380636,0.0062034744491891725,-0.00022327654619983678,-0.009659502196474443,0.0885695725231978,-0.04111022120671977,-0.015065558545850214,-0.04447014425423683,-0.04504413937763315,0.06102902241293668,0.005200716348993347,0.0073935141118016785,0.04332625630775337],[0.01103023698870547,0.03086334457457843,-0.0051578798161337125,-0.03877209150499546,0.011167729391361006,0.03503625412895857,-0.0018001058435162828,0.023376022376162826,-0.012831639710947383,0.060798616271518786,0.017056272810146784,0.0017183588043246727,-0.05150167923500137,-0.012631574569018582,0.00932832547425417,-0.01939801412676527,-0.010532562329246795,-0.032614730892725714,-0.008978598378258089,-0.021126059639687878,-0.0024258922875021243,0.00883074243300642,0.016621705130021307,0.017094245129839494,-0.009389098256905344],[0.022207395457506593,-0.012451668056115396,-0.024213011281750185,-0.06001327881625759,-0.0342362375140234,-0.020675527178185937,0.01465544106046306,-0.044130516881033824,-0.04269670885412859,-0.010741617198742663,-0.031128709402865447,0.0037906823408267215,0.019005839141349828,0.05423314934116368,0.019130304802414316,0.05083487132818085,0.01185060302269207,0.01622856079523769,0.01881867891277849,0.015705690030251674,-0.008929150722119961,-0.004535593580245131,-0.07952252802754835,-0.03191852717214639,-0.002113562886263707],[0.014451487130788582,0.030785185712019488,-0.0335349780102656,-0.011890798386255032,0.05376337282733981,0.08182218619516612,0.087241616797084,-0.09078408258333498,-0.0931118833325645,-0.03875930097767978,0.045201842345681066,-0.006876985282620899,-0.022046042666818106,0.05831995914859591,0.02744397218854038,-0.0034787166290044863,-0.020959305472290465,0.050398106732525184,0.08296121381617445,0.03485786474727445,-0.013829875288376115,0.02154055947277614,0.06338852194895178,0.005711881913324459,-0.056355623373084446],[0.036232653756073346,0.023603545479404204,-0.0055398330430850885,-0.034141261952065745,-0.016512444362585185,-0.003950510766124529,0.039675850457540116,-0.05575905725941726,-0.04264092577101324,-0.07386502507180397,0.019501827738933965,-0.0403711480068562,0.004055079410353282,-0.012382204726139276,-0.057418288564833,0.015052573290400486,-0.008731267355878515,-0.008822429467170292,-0.006739803384092483,-0.0037377725038593443,-0.011931517229188612,0.01783702950897709,0.005084697072921388,0.012911352939501295,0.04927594870971831],[0.08237320597674061,-0.002245681559860425,0.03867752389223991,0.01436286668824289,0.08906511995903135,0.021276915859937465,-0.024126213221094633,0.052868535773026366,0.09549808475410615,0.01124716025803726,0.01902722206135099,0.023693187357786458,0.017249152847101528,-0.014409890199195413,-0.04890689207549552,-0.061650152892584714,-0.01913914506216603,-0.030043268722328438,-0.003199104746168974,0.05431511981404729,-0.01775271799410921,-0.03939274651414166,0.07833503915784473,0.07067389089880831,0.02804264149797817],[0.017211637854376755,0.025186875603614566,0.03898567934363818,0.05324418222490116,0.033273077934462596,-0.047625729941458465,-0.02094227571303564,-0.028828992424283773,0.0052738411441293044,-0.014443553222251356,-0.039193898330410835,-0.0025444463455648932,0.043678772524736,-0.038216845156444475,0.03799158007595775,-0.034360717218496484,0.04023264336641456,-0.025373391373419166,0.03337815266664712,-0.01662070371235655,0.04229530368927387,0.061901157955773264,-0.027917402471724074,0.0018191367002690227,-0.007847521086392917],[-0.0022237721172148083,-0.02392973579783236,0.01051636971129836,0.024617488173293137,0.007320714287448411,-0.04202093235300624,0.018196311250119744,0.018392716339160016,0.03462135904024023,0.05333032302977422,-0.041150164356769256,-0.012097229931718525,-0.013152058564346876,0.03157652972012222,0.02357215689631893,0.017284951571847534,0.013216029211485044,-0.035133819241919675,0.032189795876766465,0.00005497110736076135,0.02307898404710235,0.032832970616030036,0.03801226827311942,0.03604045980509744,-0.022621876223027148],[-0.06162177847454112,-0.0543829922208027,-0.04272224306245493,-0.012168408305445954,-0.015924278516456572,-0.02166743298231009,-0.05568584735516414,0.016610367544850388,0.018946232212153413,0.015556732757973769,-0.03232746838643418,-0.03516569445061701,0.021978451216712488,0.013360552518514045,0.0025535379824479405,-0.03288213607126458,0.004634149725539406,-0.012229097427713734,0.02803980946596199,-0.050507792690849276,-0.024391675511990164,0.0147577958914041,-0.06361713267423863,-0.010060352102278023,0.022867813254441337],[0.05153932336043174,0.11103503713734157,0.0950484308728954,0.0940783193430614,0.03871578009177163,0.026343209219779208,0.09045578727014493,0.004119466700958822,0.009731017883741616,0.010464142297855838,0.04786677804864586,0.025380975191756302,0.018530451046601955,-0.03324430683177959,-0.018846385190567447,0.05002604385816066,0.046182602555910376,-0.010433738358074903,0.009984825810932517,0.04659685734690643,0.022309260322308847,0.09951739357700479,0.06293187369136767,-0.012914119998032823,0.053932648524645015],[0.0083929295913076,-0.019214754397255816,-0.06016305788029817,0.013297160086303793,0.026328423652043246,0.024224564504904053,-0.05727431419154875,0.02628169410334995,0.004770021324465762,-0.0038104341320083345,-0.052469778075030046,-0.050540102015011044,0.02356818286809911,0.0037473622501023717,0.019215897878823805,-0.01755177117464201,-0.046166313395358594,-0.00813175155953064,-0.0024882792630673872,0.009542094278911489,-0.016092905984900728,0.0068094901705726876,-0.01694568533943016,0.018767537973622645,0.01784410879674145],[0.04575816089598868,0.007763030896180478,-0.015796630138358584,0.019184436132527162,-0.009483675951194127,0.004452396352433304,-0.004659547036824197,0.01773662736259438,0.03429470609052613,-0.05794710928618033,-0.046722948524988525,-0.036127114146058736,-0.00018991749167314765,0.009209670542014756,-0.035944942737934256,-0.06750024708553944,-0.014368155400540854,-0.011307946064097128,-0.05635961987256184,0.00017449428007116372,-0.056889655555573515,-0.04069981960185174,0.05279491295552863,-0.007639720259526208,-0.02108889201495429],[-0.009998188927405975,0.01604491003433661,0.003638606622178255,0.00025988981986318035,-0.007319838655794591,-0.01559167306147554,0.03438450834228954,0.03345632645049523,-0.03781452278718315,0.02963854532300504,0.002341880769155727,0.01980815126787846,-0.053700130377581715,0.043134595454058254,0.07996339664590753,-0.0045658207082624625,-0.015723148463697694,-0.07756215356489253,0.06503574940042822,0.00010733311526262606,0.01229648387250099,-0.034075329014040256,-0.04276318258596236,-0.058449354829827646,0.05674715602457048],[0.03979727086754746,-0.013093628517477208,-0.06301811517387723,-0.022307485691908192,0.009958572077081423,0.005727320904925852,-0.04083414882511762,-0.058424461772142895,-0.040201096854104786,0.024101204227099427,0.030376097012401338,0.007255087819263951,0.02355063096922494,0.00765023875002106,-0.06399525041225966,0.01513121744861328,0.03239091578279401,0.021197158961149893,0.004368930331289645,-0.013272484027133248,-0.009231227770066833,0.01763776394809223,0.024901201649342963,0.014159175925758025,0.01749659026841062],[0.0281836949749656,-0.0027434430360744858,-0.05906872336820672,-0.004766731204170189,-0.0033663671629287606,0.04381828893796361,-0.02819565843042796,-0.055528988829841974,0.032808299671568425,0.03935175600367953,0.03364125742709597,-0.04532121487523827,0.019939983449937356,0.06282067540785208,0.09205067239698476,0.012078938824356207,0.02251458302619031,0.018698477754146577,0.026166949536857633,-0.03476197178984397,0.04391734689900367,-0.017945741429901914,-0.06771215802424066,0.004335172856550352,0.0683099173485658],[0.006138819558166522,0.02811251701077629,0.005661908579339063,0.02070836392421996,0.02498770996591207,0.025723433631513203,0.0012722775393259349,-0.020533411494256155,0.051687214197065984,0.03223269782939558,0.0033046126964707333,0.020032227137318705,0.006479125776152323,0.04372724777713041,0.021124513424809553,0.002469349705299869,-0.018415377176789226,0.04523818480531232,-0.01825479777612278,-0.004675249798363591,0.0038510288604147757,0.030923910330324697,-0.007857392985687224,0.0264403964433387,0.001360653438518487],[0.06942332407649864,0.06441724503012763,0.0794870038822965,-0.03359266922844783,-0.04346849495367971,0.0378502812184479,0.06984324533862665,-0.06269840628721335,-0.04675514658688613,-0.06700771690993687,-0.010776931246147212,0.04036820203622693,-0.08486726154929915,-0.036369878039000325,-0.07906635767697331,0.050304106665103494,0.05178424044134778,0.0153132078864558,-0.05202166576072983,-0.09459980164845062,-0.006953412434151029,-0.010616715776932026,-0.044782385074526095,0.006353705022458711,-0.002760119281475297],[-0.007999919226303245,0.018655848323250925,0.01461095674051014,0.018176449687158744,-0.03458919677318574,-0.04230003764569882,0.011182687573394802,0.0031941986300822863,0.05376327451115158,0.08862197802365705,0.0514428343952196,0.006934811210090572,-0.038274555666336973,0.01145336289001422,0.049684844340419344,-0.008456471502883742,-0.007485698959777948,0.028061792864750693,0.0713298653384316,0.02599662408365609,-0.04044256185590786,-0.01690309465024521,-0.005097004686104433,-0.06434164668447412,0.004215417364825626],[0.060919858707228006,0.1215242249039816,0.14971102946118833,0.08741827720970191,0.07267284721951155,0.015013639636551442,0.0633917714443193,-0.023213538327322224,0.0032832811417771147,0.014516129016675455,0.09260076646036229,-0.012111184269980332,-0.017558026097547398,-0.024567781622996766,0.043642718361713045,0.04928776322954498,0.08117969623468183,0.02676076138924321,-0.008297851603242163,0.046736366403525464,-0.002930978806410076,0.030581152330863084,0.06093387821599792,-0.03570092342741833,-0.011936556389058342],[-0.0012887299177980179,-0.029542206899702262,0.031165759364632447,0.004642929244314979,0.03846064894630457,-0.02747070878861848,-0.017727655184173727,-0.031103222519607947,0.033527712583034074,0.003644450854363244,0.005460257538388473,-0.008075137990041219,0.01461876094271749,-0.016027053484432657,0.017783246821762244,-0.006285090522246591,-0.019068834655374886,0.016149429104344023,-0.030785226721949326,-0.05141208411048239,0.03479917573576721,0.034639125493850204,-0.022575773797592513,-0.0004155494713524054,-0.015025817008223589],[0.018251638960057947,0.04320881658193149,-0.06187015900407153,-0.0816848740532203,0.0008226848128936036,0.00735838119743014,0.007963356089833706,-0.035627633075732225,0.00856387654815353,-0.044256096781588754,-0.04421585740957139,0.007040446306169684,-0.00804803616402451,0.01308724703511694,0.02057889279648746,-0.013033843756248156,0.06619011808404232,0.014698075665565224,-0.03048263775555851,0.034363414068039146,0.02014572047255797,-0.026354151753055728,-0.025422939897477424,-0.04160974925031593,-0.04234628558838364],[0.060381947902316976,0.006200204917586888,-0.059844957400338156,-0.02574965043901815,-0.006804456426127116,0.0021472046319469407,-0.030665599414678165,0.00371393450179656,0.004734885295335933,0.024523165925839,-0.04367878516862506,-0.0357554647806599,0.03536920173092947,-0.020221452472280514,-0.002125376631935642,0.02466374757435318,0.047797925729382656,0.04156268328117619,-0.07236074325005439,-0.007052486090888199,-0.009200342210531932,-0.021554785785281007,-0.014443052967518714,-0.029976256842584217,0.023774805233246196],[-0.040752397917200915,-0.0284894767039923,-0.003144175125566493,-0.03987144827918654,-0.023360377885625835,0.043904821022402334,0.009267206013835573,-0.04769878776160521,0.05519398916273199,-0.0367619992801761,-0.01681179431911738,-0.024333741620263295,0.007447761142214142,-0.0025077629175815847,-0.05670267149251564,-0.045667941743428295,0.03925316404152503,-0.012134552305425535,0.015996058956121276,-0.02830329161983836,0.028682305240571932,0.059486882376201804,0.016105454079714913,-0.014369063183894741,-0.03627600859693348],[-0.023249310680444762,0.04770045887883818,0.039751177679886514,0.02369167481460923,0.04495586792072835,-0.04344816433033012,0.023073658778221783,-0.01346412871790841,-0.0759466243402808,-0.03711726250505219,-0.04821124755401674,0.021939031605280674,0.06553166579289192,-0.053594701153841455,-0.0416130438356505,0.004752178684014012,0.012844042232460825,0.06635756237743261,-0.026316898265714234,0.034119864978513464,0.00892435392935068,0.0333017296601856,0.09053944001801575,0.009145117099853928,-0.0046582722900650984],[0.00007187949321659946,0.0445088528273611,0.047167662753135976,-0.04802954153764816,-0.025215528728773976,0.0031082638094179402,0.027378053475497068,0.04067405917498486,-0.001316883351286546,0.009722084556992774,-0.026820863714775166,-0.01107892618693761,0.004533322972162541,-0.020037750351579883,-0.0034685679886421457,-0.052735623245613705,-0.016559420493372806,-0.0033711298817079606,-0.048892460385908464,-0.019053788264471655,-0.0006912360279008553,-0.015539997321117124,-0.004080794531198169,-0.00669809997718113,-0.027100129057605088],[0.015301813952696527,0.050008468826539705,0.14881023615589992,0.054131105629430964,0.03810390072595046,0.024738489383769734,0.013415355182168891,-0.020215332848001824,-0.019313003112416894,-0.03456499741550462,0.06350060975636676,0.07139057160574172,-0.10013403050316706,0.0009426015153500823,0.013432540563217157,0.0937416239634929,0.07497963507664894,-0.053209375094377495,-0.019959119515702402,0.003950139024849787,0.030660995021740967,-0.024929875197995926,-0.08153358742696959,-0.040372901300299434,0.041384869071213026],[0.014698137472556466,0.051330408309768386,0.046938704178286286,0.030528385589160833,0.0033576089321878996,-0.018606722588797135,-0.03626606368306294,-0.04696305366606673,-0.01983648650240449,0.009947697716703582,0.012894562057206946,-0.0007851312526617608,0.023179249853977166,0.03111524144678365,0.008616699667576432,0.0007588238943651378,-0.05526902189372566,-0.005855936465730855,-0.020420396819653287,-0.05280711151711908,-0.010007539903399748,-0.054545074839027374,-0.023970418952190414,0.027917654209255592,-0.028542300708680326],[-0.010809053349840935,0.028608546693815774,0.01969805972657672,0.028797486461741975,-0.04322366562485866,-0.002470778421231369,0.025196567502748866,0.00036705496339557644,-0.04261608725002919,-0.03382791254199396,0.019282420183187647,0.00810829273135744,-0.0634874616145398,-0.02270508259167793,-0.05040209970549322,-0.040719665895727244,0.000705780069418997,-0.04838666721235776,0.057422798652947735,0.005767661034140264,0.04063301296382319,0.020278680650672985,-0.005010021507781305,0.015608868197001139,-0.04032540250970113],[0.030940571775309112,-0.0072229168202304645,0.014432234375753809,0.010252327445033465,-0.00961869451837496,0.010548444731355577,-0.005145589900091646,0.03228542606065278,0.010158228649116875,0.0472715250133126,0.034602059842137586,0.057557920685171196,-0.03479614264979626,-0.006139419122786553,-0.029914183731866793,0.0027690384491365475,-0.02789592974631134,-0.06885708518091435,0.02731154252656988,-0.034364967509179986,-0.04204318630437148,-0.00623768507851409,-0.020294245331183916,-0.014670262902014727,-0.012844764460507503],[0.030185868435623653,-0.054898967649859895,-0.020520796954875246,-0.05312119858773476,-0.05148266567014979,0.010207372188650648,-0.0013428722780299586,-0.007035766487301783,-0.014786831456559514,-0.0035140170118193883,-0.03536053943626645,-0.03847498298896559,0.07498083079162246,0.03476993700947766,-0.020444032247946987,0.05670803638710269,0.0002299112723204827,0.02677312259372789,-0.02907110350053879,-0.021279512780937777,-0.04308315362575966,-0.02666141284427871,0.011934823484141079,-0.009237583039963327,-0.022189911951490535],[0.00873742900873318,0.04060433198448617,0.16666824802702815,0.031597526954104206,0.07427681680388998,-0.03962359033396556,0.06647835018432281,0.0008500819739193573,0.03459140421477386,0.009457417434008108,0.02251344423947123,0.07472513110734669,-0.034633578151884024,-0.012230178662366495,-0.043348320544560205,0.021139060526745468,0.06889253235670992,-0.0003916151339849857,0.026204341578473705,0.021122161205526443,0.012417359334213191,-0.017386857050518567,-0.034821768295812454,0.02010964979210279,-0.006882720363660572],[-0.011020299028451329,0.0038761369675971717,0.09188609126472576,0.059818332424888244,0.045587857213258365,0.018487810384710816,0.02343274688668941,-0.019736875091210845,-0.04163367418328837,-0.02691776052205886,0.016055070866426224,-0.06011483023314966,-0.0011550059665581878,0.012756201165425828,0.003986052561794332,0.01119475808469377,-0.015253407177843053,0.06503925841633386,-0.035150452966366375,-0.0024190959992264525,-0.023317196101480482,0.03686322365069271,0.04148294066222039,-0.022929791322203425,-0.047630707476709805],[0.01857771513239843,0.002036340109553119,0.04820335463837246,0.04071970268173664,0.025639190516442863,-0.026124082778925913,-0.004922055289882431,-0.03277545687241199,0.022572695320759596,0.01038062194202546,0.04408301882653794,-0.011227559059688462,-0.043424601619649485,-0.001807417115633753,0.03150454348376136,0.0056826081265172815,0.020496318046387782,0.03280757996148245,0.020359592511158278,0.04773244955566033,0.046242444105195186,-0.03158491760260781,-0.03467315719897123,-0.0060100466329205595,0.0354037912782224],[-0.020619870432483495,-0.017145307174019877,-0.05637719445697578,-0.016899177161825988,-0.001578008067882162,0.022584055711479506,0.010194260320571316,-0.013344523685401939,-0.02790602562724438,-0.029024614817274787,0.020384407363495706,-0.0351863642101206,-0.0008448251496262143,-0.009646429600350344,0.03212033569094642,-0.012405575681038953,-0.017882435730361718,0.010358270007464174,0.012721012991088122,-0.03309509585448418,-0.03580897177776627,0.0008417921370284381,-0.058653115749006335,-0.05719982837895787,-0.028598023254630626],[0.02075144001427201,0.041025243122905224,0.017976058568845946,0.01786868154437804,0.00981472928179589,-0.045659412074020106,0.011373585581315614,0.008786972607998012,0.03837027735849916,0.06165835091003717,-0.010793502242522042,-0.01598672963585604,-0.004785108403294353,0.01643253294236819,-0.004138566557888885,0.038588370294002264,0.03665728171743823,-0.018155050355394473,-0.034606007635426025,-0.016999232572535734,-0.007641315349898286,-0.04915272959215962,-0.05251392324036502,-0.020772495675573474,0.01514942413418939],[-0.028465159313430053,-0.03531728325869092,-0.020179705372677256,-0.021728164359012172,0.0012168480613854716,-0.05543397951074188,-0.053519622482589436,0.023540771029017454,-0.04468055837477826,-0.051176381694331974,-0.03102086649917412,-0.014019557576122296,-0.05992832923460584,-0.019586393531222504,0.016724235573652095,0.003979985576667449,-0.0828439353275692,0.0006531855246507058,-0.06637314227040231,-0.026151211411079536,