{"c_1":{"kernels":[[0.16165097748754118,0.0768408956638638,-0.11894826153156794,-0.22455222587294518,-0.049076732634089036,0.15698060878057016,0.09093340760192097,-0.22293836841294337,-0.41233451524227427,-0.3997514517075472,0.057159896971512344,0.15562693735001054,-0.010955481115937086,-0.1946088590322196,-0.27098436859055186,-0.010356896627655229,0.15996615501363384,0.15252213675167,0.13190418674827473,0.16503640220432483,-0.010251954221261647,0.08687820471217263,0.18505002404269458,0.17458984813593892,0.1637141859114406],[0.1479081945483076,0.02509724752062732,0.03923887248223139,-0.07544627931345099,0.3388134796992354,0.15293946900745306,-0.10863556281014525,-0.21061911326641378,-0.2387840901697201,0.0776363362537918,-0.06360693884084334,-0.07099014747680418,-0.23000686817185362,-0.10512218086273475,0.011538722193063311,-0.11239136722240604,-0.27443148048366844,-0.2890943106280359,-0.13520404187966498,-0.0028276934396178747,0.18296152660706708,0.042257855538337045,0.16963544087525745,0.04336982458929605,-0.0066675213682479036],[0.11085130263623351,-0.15186083510175946,-0.41968064597111937,-0.0026729828275822904,-0.39163483044276004,-0.11760033456197967,0.18373481272493783,0.22886758970983295,0.19649663990923666,-0.16943995140895773,0.018001824823784266,0.409782291450671,0.18213198304108064,0.6080167259255008,-0.2989211047565667,-0.21783470324841034,0.40400733268038225,0.11184670794075803,0.48572550943010595,0.05821071904531199,-0.14875694713467572,0.22648780508127986,0.0011165385011002549,-0.05434078950424607,-0.15075410705487768],[0.1402352489535584,0.051053038692396545,-0.005769464244485856,-0.03903880962742542,-0.03810018998469749,0.36805400283412343,0.23303778941312586,0.32637651266261836,0.04558467160092723,0.05428375435806979,0.10945279441590249,0.20938936957018614,0.5333388517018979,-0.0992517337652744,-0.2650468621764228,0.025253787176877745,0.1993312452700028,0.13278318423384233,-0.2828525021812333,-0.1724702519144548,-0.007737944960405654,0.021643281622824733,-0.08244545143013028,-0.31884903678012777,-0.18420857414337183],[-0.07753921217681084,-0.10469303919998123,-0.04547921380194881,-0.22178940003000777,-0.15069522361170215,0.10043921100187085,0.030826333658083002,-0.3870659745082638,0.03788762457769328,-0.09592968042567054,-0.12962936636880404,-0.08927354101721392,-0.02823800259219187,0.09682424940975644,0.23529968002352075,-0.22416113264117904,0.2574845254042062,0.23969528870946036,0.3190684574014037,0.21150614717891608,-0.13466375872645076,0.196826367702662,0.3268971029531658,0.12620099625787037,0.3342384718565504],[-0.073781852198488,0.043247033729656534,0.06553753621883672,0.17706897441759592,0.17988088695942125,0.12769509998424694,0.20805923151420974,0.2379976278425666,0.1284458585694866,0.20667007935161838,0.29592975279653894,0.2204798809024281,0.08044025329912274,-0.10870534256486922,-0.07518052923414634,0.07641510958659554,-0.2735299742237604,-0.38387604989890145,-0.1329622637460113,-0.2843288325879968,-0.37212489726701703,-0.16917858956796747,-0.04826332512893121,-0.0770690266160624,-0.0007869247647352451]],"bias":[-0.1212500491367683,-0.004673804569057379,0.1341383824411053,0.2712865411620159,0.02032036613161435,-0.6233692772392793]},"s_2":{"kernels":[[-0.6011468308055538],[0.5016739009126675],[0.9588526944976191],[0.11800033012224195],[0.7345272430347995],[0.0037662753407135168]],"bias":[0,0,0,0,0,0]},"c_3":{"kernels":[[0.23640844857770218,0.05025656876797456,-0.24031579630320254,-0.01775156177165359,0.08528710147741024,-0.027689058084286844,0.23186448844358032,0.11998936990074047,-0.08401668184852494,-0.0457851724898779,-0.08437519554112047,-0.04046625253442559,0.2521403139813313,0.012378621798724579,0.096348280976169,0.056083170871692865,-0.2606375077833315,-0.04669778950510779,-0.011204636691434166,-0.14892168283141943,-0.2084862276980044,-0.18680595326225496,-0.11786006280487575,-0.03461262257068773,-0.19095000761176464],[-0.038156774223373255,-0.05399817677449302,0.0735365753685897,0.05409175103214418,0.012888202385193158,-0.0988837117301985,0.10138329615655689,-0.05365494130302235,-0.00981767837630073,-0.009591642116161876,-0.05995522185782652,-0.04198566905544394,-0.07239976074676112,-0.08445255792135604,-0.0375204041759389,0.016334808976514008,0.0027702190406456717,0.016917027904315134,0.028625513665582646,-0.025219671321616947,-0.009671517448241738,0.011624188596085867,0.01836873975519611,0.011105944289789442,0.0994884521900681],[-0.0745969186461637,-0.07856489815041133,-0.07398003086985006,0.055648946526211586,-0.01916587541818096,-0.043530858133689294,-0.025723047232043463,0.0005238304542028556,-0.03604477496732507,-0.06078261749791204,0.06907631997553985,-0.08091978541989421,0.06180212877715868,0.0508958150614458,0.03929800340711169,0.10398801550071014,0.08138191562792355,0.048316204091397696,-0.0642948461342333,-0.09246787287023568,0.10415707980784591,-0.021810515308243336,-0.031232152263944775,-0.05587812291988708,0.06478847850158104],[0.03166008043884634,-0.02305519127733352,0.05421418297254587,-0.09262614186489337,-0.06777162530244159,0.05981590085975307,-0.04444389858993456,0.09485377213801935,0.05451102974732596,-0.020084308375171337,0.0993043398229625,0.009038735235491792,-0.06685839997796574,-0.013747283788272616,0.035728387070974636,-0.0900405976995146,-0.07868786616490873,-0.07513054874591939,0.06010992354250206,-0.030044223108410286,0.0005286812389909898,-0.00121815258212864,-0.10321506863707747,0.031481595098823104,-0.05926886686486196],[-0.06056299493964172,-0.058146697846628355,0.03767884670548591,0.11332637157074585,0.06300886804775356,-0.0410186250709106,-0.039289445703469324,-0.15362353250668112,-0.136431968596437,0.10859937150608243,-0.1711178707424801,-0.07598952557892241,-0.07258923994210092,-0.2657330048472248,-0.19371470760899204,-0.0295122253530736,0.11303745767849714,0.04943134017791806,-0.04086328990469943,-0.12435355602231485,-0.00949965418983567,-0.07623407711402194,-0.0583178178432238,-0.07316760974549036,-0.08154831825643197],[-0.03640520590140783,0.0654702131615329,0.07202909738095863,-0.040755613503850374,-0.08005166031610259,0.10321829106567312,-0.011628109174198247,-0.14400839622016126,0.12188273394902902,-0.009362589297866803,-0.24992985628002282,0.042488449709867794,0.24879745931241345,0.10850370936353981,-0.25282562069939074,0.229186436404679,0.21653198079108527,-0.24716615021371577,0.04656505677520002,-0.049647029158642025,0.008297515443872524,-0.19616919249970313,0.0479597236697258,-0.02392776948233961,-0.11421779506462951],[-0.0979967117759561,-0.1817955983665001,-0.05976727157749087,-0.06399808287000966,-0.12914616578201177,-0.15012170657163484,-0.09035594435640137,0.06851031406699025,-0.09506652691978566,-0.08037337263141087,-0.15436810354988925,-0.14658897420536718,0.0055175733621695205,0.09790452016324355,-0.03331594536574348,-0.11162125683218357,-0.06620696296931415,-0.051503361242067676,-0.015639089061282765,-0.06239180935441237,-0.01080420566906564,0.06250334197851913,-0.0792576003574383,0.001171830516902069,0.035418473430117885],[0.05600265946909563,-0.02702665443637873,-0.05095581348393528,0.09927368418602071,-0.037485158884840455,0.013276074998608587,0.0369399880173658,0.015831990880803837,0.08021585559129117,-0.08152684307974038,0.05301952798880669,-0.05340199793639934,0.09875685900238484,-0.005230981235849906,-0.020319429004716387,0.02269409805033553,0.035947942534780876,0.05102516387514819,-0.08095166835621276,-0.035893071299645835,-0.016550433668015726,-0.03379634451346385,-0.04557578402455783,0.05489672124635001,0.0704232948057569],[0.06842722942773681,0.059963622783829267,-0.08780486926406268,0.08489722262912767,-0.066279629832423,0.0851750971862294,0.019241587542998633,-0.08735976604748623,0.0017441166569509183,-0.08090730333680163,-0.10211362814505894,-0.03340743277620024,-0.03025027531223105,0.012639275148345005,0.06566194961778227,-0.026318552937721562,-0.06056748408607287,-0.046158832938245645,-0.0194579587597494,-0.010488239756781106,-0.08209815410102135,-0.019791110814635526,0.04773743131947127,0.00637298048501725,-0.04158162472756466],[-0.07350079157667871,-0.02826167715435207,-0.027908386002454686,-0.08356049025740445,0.0450937430233751,0.028445661368042344,0.11858322713806499,0.0015148631207440926,0.04535921371351679,0.2461219805175882,0.07429245398382375,0.009410954412568609,-0.18216425965101718,-0.14035592868975624,-0.11894682577051481,-0.0747047686376195,-0.17297483740427,-0.14309481140842123,-0.12168737923424397,-0.10198639801666888,-0.07065987968721557,-0.07237495977192471,-0.06296830382945966,-0.08765374195404427,0.07673184438343833],[0.010102774275813547,0.013748624035103614,-0.13675836849724646,-0.017572986813480157,0.07854988840028375,0.09090902528641674,-0.051471446852671854,-0.03826432510849624,-0.11924887473957367,0.015585804558145212,0.12307345643068965,0.1466062093967066,-0.127541039392358,-0.08099192869612397,-0.14529189802884424,0.07193533752712741,0.031467339780789264,-0.09939220060458753,-0.2178226920015435,-0.21753562271590116,0.15914281764606164,0.001894469508978078,-0.09108024341296407,-0.13788439823536788,-0.07643952986181661],[0.08852943072401666,0.05703310867696368,0.027748221592216134,0.011235799319050254,-0.10586896512482062,-0.04770942510807784,0.07585545224360331,0.1800943480551232,0.11707200942199379,0.10358547487888144,-0.07041265683922412,-0.2914057441495255,-0.1434933995780983,-0.019068778670961368,0.051342717248256155,0.2637441684598846,-0.11865447389251499,-0.21615178003106422,-0.23636081896624206,-0.13651727297395824,0.13294879957156513,0.3155527748517799,0.20822573868169483,0.0024578123461096862,-0.13969387872134656],[0.02620061270916065,0.1403977225660536,0.055568454348933156,0.13285142737115824,-0.042881169932873546,0.09118692551455712,0.027018277049562965,-0.15046484541491192,0.12226324705269105,0.21809337382130262,0.13791790580973767,0.07117911837443545,0.045157527935311845,0.07965158670099422,0.005629614417466475,0.033030276063703824,-0.10433117476463344,-0.02727026931627595,0.1176432615632919,-0.031337235013603554,0.065559281805973,0.005165146638795547,-0.13498120087352952,-0.011634424579496587,0.03027804750222157],[0.07477886069623316,-0.03459887394174892,0.022081437341317435,0.08244968685361198,0.09147758176332724,0.09010750214931282,-0.06736858736588769,-0.055732921302793746,-0.037993389568267394,0.07391808153063706,-0.006212154024910979,0.06312171198173523,-0.0905510184464922,-0.012482443223303153,0.0639126863431012,0.015407240338361782,-0.05143237246038476,0.09871807884200662,-0.00419208238120603,0.005348487490891218,-0.00986531630753569,-0.07406279716947196,-0.052077313321938025,-0.10412486628763802,-0.005492749689443593],[0.21037353762277503,-0.19311836342233318,0.08148264139945703,0.08410337801601692,-0.005692570036307231,0.05952522798621815,-0.15654476130990358,-0.011078537017875222,-0.08558148578687565,-0.13486983939745062,-0.022335546891202634,0.026580170647614657,0.0680184703330028,-0.10395163106564397,-0.004884602503320706,-0.0022806384524733225,0.009213419140272319,0.12201062534226005,0.13516440566163712,0.017559411435456414,0.09128219642576675,-0.0045226050744805475,-0.09258752239047792,0.002738822124477044,0.0509671353683349],[-0.043763524024900725,0.0420622315284534,0.04942876286871805,0.05016884027694264,-0.12359802784165655,-0.04580557719868436,0.054412149419700864,-0.1350693275458985,-0.022851134503821712,0.01005065209818776,-0.050540119512743134,-0.08473346300863704,0.21891608699849444,0.2481704064986994,0.04380402261068137,-0.020564928218418994,0.11865880808378139,0.10557124269821865,0.008169080751050842,-0.22792434173774875,0.01919384139811498,0.030565937611402756,0.0906207151251643,-0.01715635398701759,0.019898130645198374],[-0.13183930645714598,0.1391106755763785,0.1229212470230918,-0.09186996417772834,-0.05277070359931088,-0.18925233895017396,-0.23446661851628395,0.18545747564495646,0.05070181855690984,0.09805010531762813,-0.023820616920172056,-0.16370137151525907,-0.16634798463654993,-0.0709153292173524,0.060496450510352434,-0.06417034113859016,-0.016901587098769127,-0.041977004734788756,-0.014808177079018792,0.10899855501904604,-0.09091801024045562,-0.06632541248277699,-0.1383500490201043,-0.16527047791033336,-0.10052546547733944],[0.0394401057960455,0.05325426522565034,-0.02932829569105185,-0.025760045894125477,0.007751728602032855,0.051931209966001764,-0.02147621689194586,-0.14724469660248665,0.013996835491257896,0.022136616398472267,0.07888636815380426,-0.07397425715507003,-0.0898839463529131,0.19852556967719454,-0.05437767911473246,-0.04252268243633124,-0.10018345356965912,0.26307728211948034,0.06762172123672493,-0.20892165256660314,-0.08939135205141452,-0.06531105127601303,0.13266887461915322,-0.09269471584429632,-0.10698226711856262],[-0.013860236185794383,0.034290884539564456,0.0815734615363682,-0.02707162094629446,0.033447735315027864,0.015860824342460215,-0.025882551891596394,0.08501686914370277,-0.04362171525149012,0.07094708316486543,0.07687139163990363,-0.06398009739313357,-0.06276823410019255,0.07418296399984056,-0.09215281796088767,-0.0024013266213332054,-0.051741694411841045,-0.0872553402046543,0.08281310360336212,0.02902973045932505,0.017163851942821755,-0.014877228908980626,-0.1034245956924467,0.10136279966359643,-0.05809389200648241],[0.09472308527909407,0.010756946921569603,0.023202691515170546,-0.01986594879141091,-0.06193390796852049,0.0916303247494016,-0.002564676501173376,-0.10253226305577649,-0.10240176043280426,0.01777841921186085,-0.06888019876077542,0.07683649629011517,-0.023126187924760483,0.032287528077202816,0.02127580182521039,-0.013402195646283577,-0.015595812207720605,0.03500984472436572,0.08573237402892311,0.028723488137306758,-0.0033674958530371633,-0.005134813375655883,0.08015868563813897,-0.008103444153793275,0.09258316440290158],[0.09209297308457133,-0.015024897770378685,-0.06771136035064305,0.037976816017097084,-0.08444303032538171,-0.037012968849043176,0.10055384298802422,0.10331902625405932,-0.060770697023201134,0.03998641213485807,-0.0543232555204249,-0.048931732325051464,-0.08079917837843506,-0.08534225376606253,0.03765747163952223,0.048054503875143546,-0.020717200652853093,0.059363792542838224,0.07673129892275228,-0.10159957861126587,-0.09637890133527639,0.016729728177402984,0.049905940041807234,-0.07888444889365376,-0.0077997658145460905],[-0.070271014572546,-0.04716161581491232,0.1242436570287291,-0.013858529365418502,-0.13571627005301343,0.13639164662128972,0.01966673841013494,-0.2200730023672787,0.03679351732508729,-0.06846612047596241,-0.20815467842893598,0.0032061898075690523,0.19179433937096654,-0.05605294940485468,-0.19098170431267844,0.06040117125402803,0.10881336983959058,-0.18905610155998914,-0.07868901313933838,-0.1278441613780847,-0.01051862411240689,-0.19987981469631713,-0.017880470482537318,-0.0953806076323543,-0.16411777759660545],[-0.11265607539416782,-0.03183242371925747,-0.1328850697283774,-0.09623592880122266,-0.09418559721595039,0.009493464715509822,-0.05609534947535256,-0.10427442272076687,-0.17915924508028266,0.006473327148252836,-0.008612407313387867,-0.2624039575892913,-0.10067331858671194,-0.08273185169580656,0.1729148800401145,0.09685136613835219,-0.09541070436702444,-0.012198643883049696,-0.034156547546984675,0.08877804528577056,-0.010930208783969239,-0.039665275009153365,-0.002614462634209224,-0.006614188731059501,-0.01604009010522007],[0.0092367705960355,-0.11611873629002199,-0.09341134119895836,-0.18151936910528302,-0.04143320272498018,-0.0875464291823535,-0.07063280648693962,-0.13161767456621531,-0.15210167272680664,-0.09099714545862744,-0.01795926064485416,-0.09504041737791304,-0.07823239547506661,-0.0959822951552157,-0.07494044272301285,-0.05076942493621822,-0.03724289066406389,0.1310217973376245,0.04833072532199978,-0.02708404127581057,-0.06340541042128803,-0.08901537737308052,0.05336784173964478,0.06837549802094763,-0.025883483683161856],[0.034665975662145215,-0.08996457040865265,0.07594328780311692,0.02552916666303432,-0.08274476067348276,-0.083836587774326,0.02176440218729455,-0.025474528981501855,0.08631727692632114,0.02451825717950691,0.10097018511440631,-0.0512450760407706,0.09785708382657958,0.08418237720940029,0.02039845154028072,0.09818151298027575,-0.0427503043387565,0.051186680782347754,0.09825796681530566,-0.09334293635314832,0.05684503439680738,-0.09652687023669408,0.09414318792857565,0.025134652800696773,-0.0644180110302349],[0.007790718117238271,0.09210896250855152,0.005488052596738784,-0.055018195091704435,0.03608981788555184,0.02292536898501369,-0.07690119987900748,0.07214855186338988,-0.05726713793357131,-0.044773152070034884,0.03995267015660883,0.03329909235709661,-0.03275328308383533,-0.08474335107624904,0.07529473751216881,0.049969095669327404,0.08381875336443158,0.10337468963570105,-0.031039721069645476,0.029482713994290338,0.019259838769713957,0.0738199200993027,-0.03138762177675938,0.05237401243558995,-0.0422588614999553],[-0.21672706840055603,-0.06116709097302248,-0.011589990893440651,-0.19610527367149003,0.012109871116063957,-0.16687541110534576,0.06661441921593382,-0.08975779138173215,-0.17245793923429004,-0.05635455113183897,-0.14325693728488983,0.1566156351610084,-0.059765881812506666,-0.14704238481191192,-0.11596853942223456,-0.08795578866644033,0.11502530959169989,-0.23577038822961693,-0.025906741726382878,-0.05226456549181601,0.012566413426954389,0.019119203357053922,-0.11776974998876183,-0.08350121990020472,-0.07807693441464643],[-0.1344557399458884,-0.0295008236436693,0.10575810034929925,-0.02948653777760944,-0.07004915875578438,-0.06924851248191476,-0.04179641427242462,0.004988848291075906,0.008595882083815938,-0.00611763736008678,0.024749181712112513,-0.036246226333173585,-0.0897079914663222,-0.24200296946403294,-0.1534083891935354,-0.07724051213819078,0.17218901853083898,-0.008934312148753457,-0.08625142825468961,-0.13069029291443915,-0.23447636120791113,-0.058198317330911735,0.055265166571808785,0.015939496206638343,-0.09797106933143901],[-0.021090020914111215,0.055141826034100776,0.048465400579682884,0.04048685966313424,0.19900028701113673,-0.030459354717379275,-0.08242122473594708,0.04984909351878777,-0.16207148734446997,0.022652950888430567,0.053614278641387736,0.0012643481265333695,0.07305364886236455,-0.02118962273864717,0.12161681344684598,0.0432729406380165,0.028580485106745674,0.0483054652577998,-0.006081629188960024,0.1145503503762343,-0.007904894736261143,0.03567634218800268,-0.05886709919554131,-0.07115036686216106,0.011618357214813253],[-0.1483211828992496,0.06765486001786584,0.0605113690679993,0.08161097019088613,0.046299123028465575,-0.09203273641249267,0.035191709335223635,-0.014634936139637797,-0.05846028955042757,0.026217955130304674,-0.10945070613899105,0.06269808471788177,0.03586972237478502,-0.03862928115416046,-0.07534506967226044,-0.15875361269215996,0.13537893133383108,-0.02531288413929628,-0.005530521820134963,-0.005851439339803122,-0.10105804067961062,0.0845943213412434,-0.07113866759027535,-0.08837675798007133,0.02558695207380319],[0.08322998063655826,0.09319663724812455,0.08146844835632162,0.04281846128176034,0.10442821204888969,0.05057434379943937,0.03966860083581439,0.07426552675472553,0.03196688548789122,0.018772372032654517,-0.0911749935678635,-0.03589083532301712,0.02655732399742927,0.09207418889651134,-0.004062514604921642,0.01223300680847387,-0.0024816194511482733,-0.021987613042210464,0.04429293760520227,0.01653878108444248,-0.10047404163241865,0.04549932522858092,-0.041829408271583886,0.0816707738675789,0.028473480532658944],[-0.17146430032140864,-0.04769643513161782,-0.1390374086778748,-0.1406148249325147,-0.01705036962933693,-0.0898190010706743,-0.02733678674480346,-0.07581811639444994,-0.004888603147862825,0.11672608364489379,-0.1880284104058118,-0.07736930409342828,0.05321021873489279,0.11692392552449127,-0.08309101353140423,-0.17055481383440324,-0.03524001794139341,0.02002879643902544,-0.030967282465689593,-0.13362387827117508,-0.2216740249286201,-0.021428407045707525,-0.13167980077655825,-0.13391263445539742,-0.11304334511264019],[-0.01847193630689974,-0.04839726738967008,-0.31355534376740773,-0.04308376202988793,0.03396696490264577,0.08577506048707621,0.14045339971686605,-0.004050499925888436,-0.21338559193458548,-0.08523537306881017,-0.03831159328982018,0.07765807953656044,0.18545348823521254,0.15412507558056388,0.08352993359299102,-0.03018101526149225,-0.07131502152485193,-0.05738830087579023,0.07104971300250652,-0.053155229679085786,-0.013261901561773672,-0.059872425463513804,-0.038728245915011124,-0.04502897581847661,-0.029122484762022668],[0.08600713395717521,-0.026659555160124342,0.025400024692594385,-0.10738501907260886,0.0025072541394061073,-0.03084974221717227,-0.020058195170217466,0.1105806507333147,-0.13147022099015704,-0.13192877477507872,-0.02608202352022579,-0.0057435737288351755,-0.07245130839507792,-0.36919631421051247,-0.038309257790292754,-0.11165003183771642,-0.07019946402064804,-0.30510384262644374,-0.11340422463097258,-0.024123209092200053,-0.13409016076767338,-0.2221604832508024,-0.20519175824575467,0.03156839051793141,-0.1650670764018205],[-0.24162226950303267,-0.225619076328172,-0.21156335791787598,-0.164873836506422,-0.13363588583886998,-0.0051107138155427724,-0.036622399387624294,-0.037125599305396766,-0.05238691817999197,-0.05818288223187497,0.03250866120126406,0.024601210749898846,0.1258257874163768,0.0575445136170457,-0.06474179717550024,0.04484172293754584,0.04283080159512485,-0.014801257795031676,-0.0022538568752769133,0.03619506688737104,0.06528188011718425,0.06882067614589268,0.08037686127724407,0.00047117474876989416,0.012990093038886324],[0.0008695547160519657,0.023552094465125486,-0.10134201708935933,0.02487743188184704,-0.04040596866307147,0.07144755711584773,0.06255724273863575,-0.08774061571088143,0.07554394445888127,0.017237284707042888,-0.08676043156073737,-0.07889732605294664,-0.02990862573878601,0.0010055212384966295,0.0957579324018729,0.03100630875118763,0.014837811461460718,0.034213074955540004,-0.05401693119687103,-0.06321978635331352,-0.04798488097230315,-0.020538189744268975,-0.06857083785129423,0.01643749712606965,0.032296941765943235],[-0.017910539735830486,-0.05141289801977841,0.09875289856167183,0.051108698343366295,-0.07311438841982487,0.1043530732539069,-0.044337800713418904,-0.05159961600270048,0.0659161687746071,0.08857049824451271,0.10123206431384611,-0.0646175972719273,0.026350900938502383,-0.02831164257437012,0.08297382257628351,0.09184642792910451,0.09282627546440404,0.03605622454116548,-0.10172129923941484,0.07243784228907449,0.07282032634132035,-0.017646253358453965,0.07392857709491593,0.03766543867720999,0.04616368917034811],[-0.09647865289603234,0.06976007679410845,-0.004490337578564893,-0.0993994668570226,-0.031024339264398484,-0.07980334934694316,-0.005717202677940525,-0.04646148504237948,0.10152127035479512,0.0678435055820742,0.03587389115992436,0.06331829325137822,0.01723110088661559,-0.04559636397815595,0.0697921500946087,0.1025510981178615,-0.10211027697672816,0.025083958050652635,-0.03293554175905115,-0.06310840696508256,0.04708494072341852,0.07760848851190877,0.034970034681119026,-0.08843634275954106,-0.08426225750242716],[0.020286277172137667,-0.017328009595479907,-0.08375054920742643,0.022169615018646387,-0.07133360973116036,-0.06334929824142314,0.023315687915290224,0.20841601185476982,0.08229555396829298,-0.13717620099641306,-0.27757748407459876,-0.013477508527057811,0.249393109837976,-0.10221222012723478,-0.16125896712257806,-0.0810919125660852,0.1726029842671801,0.14404453218874888,-0.056286946103180704,0.01088585304826766,0.06761899386054465,0.009492611211617428,0.10899299644816518,0.06915484991587517,0.07768205912462112],[-0.07161957595969363,0.05637977914934627,0.0800779046329761,0.18462407156590432,0.20077349863049712,0.11867476898851131,0.09595289268057001,0.16235577409357296,0.12305377949740982,0.18043370451514532,0.2519315052328923,-0.021493446072394166,-0.022683155250905022,-0.03728039439570127,0.14338929561263886,-0.03043867084491239,-0.01722675772086575,-0.14821481776760484,-0.053691423197377866,0.03353575826008324,-0.10474637518210105,-0.21042328167866306,-0.12985296354455234,-0.14766604281052198,-0.2238212055334875],[-0.06750195643693385,-0.03815151912489963,-0.0691625615959178,-0.026434779406567344,-0.15483439702210494,0.02459034832626881,-0.10361257536543701,-0.21869505503981823,-0.04909240409961061,-0.06135180508751041,0.05427149266547703,-0.06845270078127633,-0.09405355547304903,0.1312889111104743,-0.007972104860125461,0.2756958207966322,0.055806348804453676,-0.0308376051754488,0.0419560140293461,-0.07951524073428143,0.32871614595827675,0.16759118839378814,-0.03741744873659676,0.016554584167313348,0.09182647522425268],[-0.03545494580092583,0.04115401672829113,-0.015139258541842506,-0.0704165873136014,0.0007257319017656568,0.08876879094359495,0.0873487397105158,-0.09852126178147128,-0.06207076911507296,-0.05494605178460771,0.06581326380248578,-0.05218097688121869,-0.046856823881020006,0.033146841866603195,0.0722703712727481,-0.0645343690692309,0.06581915779660787,-0.03883328144473546,0.013067403706595702,-0.10422785374766226,0.07087245695243521,0.010296990191964213,0.03507631878769387,-0.012506848893857704,0.006467888118764717],[-0.022226190333165016,0.08190294448458532,-0.003930326573163499,-0.09418334805904252,0.08840575769450211,0.09817760487268982,-0.004424622734673676,0.048627339901257643,-0.08167888876094176,0.09861937292242139,-0.0826238809744859,0.0021480611336127642,0.03024828991206224,-0.039467531270970954,0.010943695302451205,-0.01349367059653202,0.038818343644244385,-0.05064984873176495,0.02492086682097039,0.09039415315664999,0.05645370983974578,0.027261646470395827,0.07855837032235576,0.06170689508273822,-0.0868539797977352],[0.06960446444886127,0.019696885362166395,-0.021478879173932302,0.033664075968270334,-0.05274674278945791,-0.04541492266246758,0.05245403382441854,0.0666409458390832,0.006414529987286106,-0.16001722831052906,-0.14343257266697929,-0.19700695829645065,0.18122138360330722,0.35257903294890336,0.33054806937981973,-0.04344940983408123,-0.35134982458945,-0.3879076039395491,-0.29929460844142824,-0.07838821228347045,0.15980724872081595,0.05986669707824121,-0.1442698908102046,-0.15847813660413723,-0.15744790732508934],[-0.06299417897190593,-0.0014414474813230103,-0.05353457136564743,-0.011579999738929725,-0.053755736219022444,-0.05724765819156081,-0.019161750001662047,-0.04830667041583146,0.01041448136961762,0.07266166008180931,0.07465287749597192,0.052694554249586155,0.06818110673095219,0.057668439441404054,0.025152309151503502,-0.059700141684877944,0.046874362579564226,0.0467419871018285,-0.07888137101513823,-0.0992407825532828,0.0724324966255054,0.08653975832748208,0.06865102791168776,0.06134432655765051,0.024173142092766574],[0.0415305884068139,-0.24197401751479955,-0.12555831224497183,-0.12205533162508109,-0.15492919218053067,0.24007182507699681,0.139971907316276,-0.06449933351601195,-0.06874393933071737,-0.2226647401640036,0.04441012776013414,0.19028129944232133,0.16049024158337352,0.19543157145513207,0.14894189227785412,0.1043515409782,0.08697028786230908,0.02868567418660771,0.0674955306150487,0.002826649715874953,0.039248816468013856,0.04908169824861923,-0.12935971735269458,0.07905151595190389,-0.08956338742260418],[-0.2711520769525407,-0.13516044153267023,0.04072237030231356,0.07936231776065886,0.19179979316021525,-0.23615535194991114,0.005717856679759244,0.11605290969402396,-0.08886358700724722,-0.012159829607274285,-0.18431755446601106,-0.011780302291395914,-0.029846825493074224,-0.14953147633883263,-0.2714179457363948,0.03555924528119835,0.11647652617097744,-0.018163335320873955,-0.04442998788687754,0.16143195534102173,0.06306384692513978,-0.0806445709722206,0.09405074309179365,0.1890158212988616,0.21021084391240474],[0.03900818854841998,0.08549385535957389,0.029426223229007033,-0.07368973601977595,-0.04564990295081399,0.15852268313137793,0.03180923123533572,-0.24148692831592752,-0.18328542816087237,-0.14441802817167912,0.0021933813168887257,-0.13285952757032507,-0.20484163535510183,-0.21297678239044218,0.05598017534261013,-0.20042323863950878,-0.18877354867176416,-0.09609916502763738,-0.06201045343372302,0.043921450369139046,0.11620238544822671,0.12534479229087583,-0.003097202182491847,0.07270225577054977,-0.028567859297950093],[0.024564514508375653,-0.08102228943077028,0.0008598425923041549,-0.060643660448528314,0.0035974753364847564,0.10164909941643177,0.05734625813169999,0.10278068262238231,-0.02831108072280475,-0.03707447812307582,0.004385808966311437,-0.07738279231982263,0.0035945452163708568,0.06642279366758369,-0.015480838759303102,-0.04203064354178425,0.037860396841724875,-0.010661986662874594,-0.010899732703387332,0.04912976209394304,-0.09816156126738658,-0.09002065994536845,0.042165256941618094,0.08319580681273693,0.02817399628500084],[0.1553319509021083,0.0440152304571695,0.005171885278031583,-0.0840200394442349,-0.31319446673119544,0.00606808165881953,-0.00251094075836371,0.006948315837959797,-0.03415525064691653,-0.00864158374137253,-0.023196818778267424,0.07682149711003255,0.07039380265994942,-0.07041324982331791,-0.10912808961102337,0.025528143575723354,0.09426598156759133,-0.034936966086993815,-0.18115600852104016,-0.12527664798612195,0.024340131586546826,0.014201733168686878,-0.09053030984062907,-0.09417734637896803,0.04261152647073121],[-0.22084229660131136,-0.2247498703279501,-0.16888689195368528,-0.14428755963203088,-0.04276994948744304,-0.19107884128391492,-0.16920130094658412,-0.2664857923240698,-0.22612192182693475,-0.14730727192820944,-0.08102832136137589,-0.11533757842084398,-0.0293907612252543,0.029044840496262023,0.03696110056978476,-0.010625518949746206,0.02023586217754649,0.006190953563634299,0.1453356178866842,-0.091726144179211,-0.024311656952923363,0.029014171205330896,0.010511157430596444,-0.05526651264112718,-0.000049111643849012406],[-0.12644802667543678,-0.2323416131321951,-0.14621570332020667,-0.10594306377803388,0.045440165108077905,0.06964945694059686,0.12173434179098155,0.03442815006033575,-0.07776754656837793,-0.07340960426973009,0.08708185156402591,-0.08786619487259201,-0.03927932470925245,-0.1022312888421863,-0.07794957086469304,-0.08997522859299496,-0.0457689477012586,0.02557080728337982,0.06539871491152144,0.03836482669280253,0.11233726479309236,0.12425380197820612,0.03489770303701711,-0.13237507785115238,-0.19031941834233382],[0.0009676293308139151,0.06897009447623097,-0.08414442168486792,-0.09579298878789173,0.08798722618548367,0.03231598980829185,0.043332467382948846,0.08574420384475955,-0.04356440288997718,-0.046964338059265545,0.011149163962722669,0.08279838612728163,0.032584736028378726,0.07627899727481491,0.020061627217337827,-0.0737046909675681,-0.06151736604243008,-0.027225532819026593,0.06343456972656925,0.07346637013811842,-0.09089097356471858,0.03954135575545764,-0.10388785646138644,0.0784783502959886,0.10027092820605066],[0.05384362065956603,0.04669943832402104,0.10344519106388991,-0.03443701502102721,-0.08155067566364373,-0.0829367776287081,-0.09134140109333735,-0.05141106446349698,-0.04591861581112609,-0.0006491335183586298,0.07386419567575778,-0.05457814061142848,-0.08399658376217821,0.06535279444169109,-0.030702817079730268,-0.05554398777067176,0.08650421562274771,0.0035475318294529855,0.007924384900294339,-0.0841916828759518,-0.09898231492899894,-0.08541640868852834,-0.03293934067716646,0.06434437958495035,0.0394559119549246],[-0.0018950459385148606,-0.050606223178355184,-0.09897989069393998,0.07725462522744589,0.047968220713087484,0.097196565472049,-0.07974200705384343,0.06321399492555788,0.2273161970790457,0.042932803781788834,-0.09510781721955047,-0.23214411689002365,0.2287162717207576,0.11408413872987064,-0.17231381035071947,-0.10552853864056319,-0.030916080814598124,0.25736962679339326,0.04503744288796319,-0.058805139270979315,-0.003901802715556432,0.05769173017394865,0.07655445798320741,0.014093284278987176,-0.03789663993212969],[-0.11321406272516596,0.03490496656404103,0.06100606764232594,0.10392391499973874,-0.004315768816261713,0.12190199319321925,0.06550152745811363,0.06138285262636618,0.11009562343996754,0.06154227349338687,0.0627013875191331,0.11174418191452819,-0.0049543041759081445,-0.07759261659072214,-0.05654845806633556,0.00021698657303266135,-0.062027950475486426,-0.05412206352912393,-0.10468406361872976,-0.11010368071211932,-0.05598226607594484,-0.16931285499064863,-0.026580007703542848,-0.12109185761943458,-0.05007500120537667],[-0.07703625364193624,0.0004643921112966106,0.013409975109588591,0.03358064782690215,0.319783640431994,0.07414671826353224,-0.0277729451392785,-0.07895903865455516,-0.06396529140583589,-0.25475904557664825,-0.05660655494830107,-0.20062009460536862,-0.18438772050962618,-0.11735338023284116,-0.021583996226746758,0.11785967603764526,-0.06840705060949885,-0.043195454633170156,0.024071452593404947,-0.01988308710628698,0.21805308300845166,0.2246061831525428,0.04697363957712763,0.05875426687814599,0.07354290594582587],[0.16653134966248836,0.01890061344346075,0.003405406681637459,0.04347243280555076,-0.1681722251458301,-0.016186095053535857,-0.07805142421438714,-0.21609888783213968,-0.18630895765708122,-0.23827361477360132,-0.07285712338644039,-0.18663186816049632,0.04358414132857022,0.15587475531492995,0.19455518806528446,0.09520973782733581,0.1683282295150706,0.10882654181761098,-0.04692927776052327,-0.02355198849313149,-0.05743278072510438,0.0014590167045954027,-0.11145504669357519,-0.20281587312813382,-0.11048649838187531],[0.042099541368175834,-0.03808340765374877,0.012756502325799576,-0.08913348713130202,-0.0296826769274971,-0.07157247580388498,0.04062589712200021,-0.0857367310535752,0.052234846734612095,0.051397709934647845,-0.030284704819369495,0.05870106517857476,0.07774287015769923,0.09366840463069268,-0.04702876023600783,-0.07924483255932149,0.07039029813683834,-0.0824889997807879,0.10182604423650332,-0.005185559194272013,-0.0918426251686871,0.04356940260044859,-0.06030484469446143,-0.05549782377569793,0.09368176674687251],[0.08343717896504471,0.06830649782759873,-0.07437791554975945,0.09553613697322567,-0.008446568149866794,-0.008479074706404462,0.08356082249515771,-0.03143495679840732,-0.011516437216482623,-0.09109563218016481,-0.05792370341257507,-0.030806692257445915,-0.09049261929713054,-0.07770820019054182,0.0465656654156087,-0.08977236090059253,-0.02210768332865962,-0.014050558004886768,-0.014212355059681275,0.025218085909958665,0.06123509701039017,-0.026285492360132907,-0.07514468924440985,0.06023697383273421,-0.06285950258749996],[-0.09528351815785104,-0.0728305819268797,0.027171588382188208,0.07148586111698224,0.11047059350420325,0.18303011688738446,0.06836515475469544,0.005982198665488721,0.20566659962272865,-0.0000073366069616144245,0.23208763091396048,-0.06338135621142071,0.04488675409806524,0.15028257851644738,0.2408233332844847,-0.04170302797903758,-0.11851155040566146,-0.08366154923127406,0.1129677367744219,0.04646256312232125,-0.018857826552680992,0.05033000092791078,-0.025939306384049673,-0.0815454863139997,-0.03714645592321159],[-0.002436796516874939,-0.012994641594316658,0.051439444582144306,-0.09034976746662636,0.09815175906840513,0.07397469483635455,0.03865938245157091,-0.07739622797474614,-0.0690051402594415,-0.0974189096424876,0.06100847749852244,0.01675731026449865,-0.08677073296716922,0.07009941422579741,0.0515349247675389,-0.015280917702325383,0.048898041999015054,-0.006219751909778351,-0.0072587466760641005,-0.0024678062292491686,-0.07186766474690805,-0.002677526858824632,0.021115463386105437,0.09067834912750296,-0.06624106284685531],[0.19792615348549267,-0.17671807935439138,-0.002322252535928041,0.31884106133098333,0.12432927589746666,-0.018748558464257922,-0.13858850354280028,0.05306932008901825,0.11576230408754636,0.001547550935184063,-0.1347893530830646,-0.15387231226323203,0.07639881035080937,-0.07604933202735294,-0.07935244473099211,-0.0018701285441738214,0.07101622182183165,0.035867738378949014,-0.2374152261064992,-0.18245267578380836,0.14102978061279123,0.13166910964534648,0.06818800716207606,0.06663662339937104,0.06301229617186412],[0.0016658345143667481,0.02363086318397361,0.07692241693447963,-0.0026372020168384954,0.01645489456318442,-0.054898303058355157,0.09653240862257668,-0.017198918443772613,0.052844859825752814,-0.13456229930414393,0.3103706086411014,-0.019765703705633134,-0.16883742995454692,-0.1849984495281716,-0.026561630726401865,0.241726622309865,-0.20460050522052886,-0.18610424934135802,-0.19638195871410974,0.10449316916828527,-0.104153246301974,-0.13666248235085662,0.04724371391772267,-0.027779541809708028,0.07380132248825697],[0.05081168523095172,0.08323418265593516,0.01046365607577561,-0.07126764958904966,0.09258066330742915,-0.01692314348740291,0.08984646261447,-0.055859943237809274,0.007817713742580536,-0.05581283393924953,0.03903524981644595,-0.09059718317101705,-0.031201194544240494,-0.07594210622227127,-0.015845259468541827,0.03727859341755281,0.02023721599659446,0.03134460608629369,0.03425603087145807,-0.09656198075539921,-0.011945342065664324,0.022661313680766237,0.04895026885485565,0.03963723228160762,0.03407341476487507],[0.06643176943116011,-0.040397675953804627,0.016352000554678878,0.02822930719622235,-0.07962161925576583,0.0727557319418986,-0.033356659575102164,-0.08035405439397267,-0.06609381741687416,0.08642882450038254,-0.08279824605348417,0.01809575922094015,0.08476888565406503,0.052620511775252184,-0.07687051729731441,0.06115044876093528,0.03366442899333319,-0.010882039680482234,0.05265547190917198,0.031771022291007166,-0.08679037890090399,-0.050743622643214234,-0.004452591191993998,0.037293284240702385,0.028960334641401436],[0.1472605827737066,-0.044997809291082734,-0.14210048443243123,-0.25881517727388514,-0.22805898762505245,0.18157064075196977,0.1907301133166455,0.08261687582952688,-0.034455484829301136,-0.15730732816587684,0.1788912816720161,0.056530250104272255,0.030409847611393537,-0.08192673780376769,-0.018936214629201174,0.02569655680150573,0.039431117085122605,0.0198668799188884,0.05350044985543987,-0.020275902210033933,-0.014376202665050847,0.17107746417282824,0.05883619785524499,0.031785735849486296,0.09830904881018633],[0.011838489137791751,-0.020830932184469457,-0.01866158375209278,0.07887997659848234,0.05015862379593323,0.002241354151469073,-0.14160212373840333,-0.10233787942214899,0.014286793104719033,-0.04964644852439996,-0.13777939341781784,-0.03937875393308885,-0.08329463584581917,0.02326649204226701,0.05161696649040592,-0.0686993367885451,-0.10377331582739835,-0.11461472108137001,-0.20995261097220094,-0.10477305869300044,-0.1675910745238058,-0.16353750278948442,0.04988377945947391,0.0674943086038943,0.04677134960898628],[0.029392828003239745,0.09750256678040979,0.10770243485047519,0.1290117550589279,0.15661369999686928,-0.3217474656782956,-0.2198321587505899,-0.07333977985046947,-0.03493942572663247,0.09718969542532811,-0.23024754396582847,-0.28787496844452,-0.17896191050024474,-0.1922971833497781,-0.07819971457237421,-0.025190772337610537,0.06556584879036222,-0.07901976584028637,0.12969683256960635,0.0361066294076939,0.1595727413505085,0.14984351706650287,0.07422571133331644,0.09893177692573668,0.06021712186465559],[0.0662815785118567,0.05108580600482841,-0.04381089970052917,0.0440844065815338,-0.03115278805531545,0.033423900591108155,-0.03145962428050761,-0.054437018692322946,0.039270083926983744,0.01220042773456398,0.03186971250092693,0.05964960553922737,0.01913058387354732,0.026394088024823015,0.06585743923590302,-0.012304840105020254,-0.06389993456931176,-0.052665348376448116,-0.07944866396117495,-0.0031230517558955362,-0.000985219341113808,-0.06632733425007502,-0.03284452759323225,-0.07975323862681567,0.03660165527471648],[0.07024666106624387,0.07301213201856785,0.08259497776775121,-0.09158690819496415,-0.0928523701428629,-0.09802461670883318,-0.05798576952858936,0.0627802264113614,-0.023364013097241444,-0.10021837533817382,-0.04444532233308493,0.09409506124678838,0.026746467299790314,0.053650728340380004,0.030072957156579865,-0.02762506156649695,-0.030850629662680932,-0.08199676275273714,0.08888462852088727,-0.05327900424170574,0.028660726370068477,0.07135361861768644,-0.07056193678636982,-0.08351520843574914,-0.01671723349739595],[0.1561605405840264,0.013987214396889758,0.06702088818519279,0.1125478983274125,0.08721127825395773,0.12882671329958356,0.023265291296979677,-0.1286168947514386,0.05821398644721249,0.14655032764715686,0.05783376481260856,-0.06123749882513694,-0.054485477470338835,-0.07570709245560707,0.11582148991501745,-0.093973818967626,-0.04102987808986844,-0.12692635090676765,-0.19786253692315245,-0.11824566739341004,-0.09579868845137364,-0.03739437150732248,0.08217456514890584,-0.08023267671545012,-0.37321174343505065],[-0.058807785692385706,-0.1203258127928003,-0.25971100569175304,-0.16577726895960904,-0.28769690530474984,-0.1416434730535561,-0.1311088775913757,0.015356121447143914,-0.08165243153799205,0.1372478174795206,-0.009276271921406518,0.048513897382319204,0.09705941249710619,0.1427668781045466,0.03909259731592318,0.2342231991313103,0.09327961807742097,-0.03731769495376482,-0.0029034996288240427,-0.02166762188010742,0.13925884382773054,0.1366090268886877,0.07038414019359919,0.051677876440045206,0.0748089881501092],[-0.08212687892800609,0.008457016602645659,0.009074848488812582,-0.05309703555892981,0.05407965531789477,0.014661846257963344,-0.006780500893860955,0.07946912086567093,0.08132579409647872,0.18643261336769593,0.13120565774155982,0.08245470961888163,-0.04187751781927091,-0.10102983962669987,0.08901379407090082,-0.07676640765235357,-0.012747810060439261,0.029647909988316658,0.028021410135581924,-0.1786868119669854,-0.05776298535452433,0.13992784541419806,0.1485256528695092,-0.042196563639656966,0.01006745504973493],[0.04984684607527374,-0.08817276889742373,0.1682324808949416,0.010856463990224914,-0.03979310221410031,0.06689228052566674,-0.21177731472011926,0.04931493214665963,0.1020620254673268,-0.00043427704051655875,-0.048070538655149125,-0.28616950770130123,0.05381298919556276,0.2567407586672416,0.003422566176528112,-0.21213281371232337,-0.043630960224021596,0.1891205332013186,0.13050875366059378,-0.004586385601586625,-0.04298407740547173,0.0884709004453021,0.0035599490517140672,-0.17040171004427385,-0.20645994386043706],[-0.017661874067344405,-0.08663857207470933,-0.00433996042920231,0.0719029580911009,-0.07721025549570167,-0.08199016313686036,0.08090747025807692,0.10226121383763975,-0.0010918535349088334,-0.046246755412716195,0.049645035084810815,0.09241287138592369,-0.030574457294038775,0.06715802629352746,0.07243469432502347,0.04915415857215464,0.0906131461366133,-0.019237285769677783,-0.04930808245816037,0.07120037204685552,-0.015256262184861957,0.07094854450421213,0.10409189131070336,0.09536842967963953,-0.026548475564825685],[0.18227367626083707,0.08350191632122776,0.08396906044824987,0.09014379138639098,-0.0147573189908609,0.13372539252128293,-0.09769288625820043,-0.06547768038704628,0.13503879122784695,0.22063108804058368,-0.09035225966587139,-0.07478322124952014,0.09234029335851456,0.02562186476673835,0.131552817409951,-0.05760009683891556,0.022375372134740362,0.06281414291208287,0.02578751866952972,-0.06528777395326973,0.0518090169954072,0.10149140825767364,0.040577483081315355,0.02786115518860902,-0.08711417287763314],[0.04829509473146374,-0.11205756464594985,-0.08431343826473243,-0.10177632511892627,-0.117964395186097,0.069491898701804,0.17369480898880008,-0.06335804701559103,-0.07505788264522913,-0.05601817507766909,0.017159061611958615,0.07828664335986837,-0.00536014955069369,0.18050804697371556,0.26523925175810426,-0.028908483232463967,0.015588562474004237,-0.0334746804110723,-0.007799054698427356,0.1114603681392859,0.04053353235329856,-0.20907523336462985,-0.1416318407630256,-0.026328545703303258,0.02508531167174145],[0.08612980974312959,0.06441804264411279,0.09574956435430318,0.08066831307132821,0.06994028397183227,-0.08908238684815954,-0.06629552538750422,-0.07098043468740424,0.023587132612368594,-0.0023201840104801947,0.0664304382923536,0.10018011641768707,-0.09902972407303136,0.07774959418634472,0.08590483682793307,-0.016889379428075883,-0.005588005610852063,0.07367214506391165,0.020684411614157218,0.06868535168256379,0.0326216682846386,-0.03158315623795,-0.08658170780343805,0.07669631724275879,-0.028859129717723357],[0.056777192069059956,0.07893805147360221,-0.16417595702445226,-0.12182680844323737,-0.1250134617126342,-0.04098855648678418,-0.08944669700436562,-0.1475805951698354,-0.08957970355230813,0.06761660598650958,-0.11928664394519127,-0.11274972548467618,-0.04091052234448648,0.025364477258935966,0.27179787961861634,-0.026991598027729605,-0.04462749469902846,0.15001525910961785,0.13889460751321095,0.015799644568445643,0.09952570254891824,0.013326400917862729,0.12462745402048923,-0.020879600461958688,0.03390142003039134],[-0.015562048488850724,0.08130687731643572,-0.05183691730890629,-0.021278265421759982,0.0247725225412302,0.07367110443232466,0.01641968844500817,-0.08555595711197572,-0.03088020337544751,-0.032544248913140894,-0.013994925896665796,0.02872959584124342,-0.09828637742918597,0.0026265244327934446,-0.10199303190095502,0.06100226221012743,0.07015412530016334,-0.026129366251392706,0.0445542804873627,-0.007464672229826333,-0.078073706812168,0.053001761913525264,0.08409951431722225,-0.010536805628287507,0.023254699116608733],[0.00582872841410781,-0.08859909182979095,0.019993462784276748,0.0074167327994696846,0.016474798389239712,-0.038217263244611,0.07796174713904902,0.02227647303278828,0.09177255393242137,-0.05600139282260006,-0.025387002020962203,0.08751992360657286,0.013366391373187137,0.10207063618932007,-0.07921822238010592,0.010596412816878798,-0.03794004012794095,0.03247401775928972,0.07187561500492215,-0.06561065726817238,-0.08805078744337566,-0.04038575616000802,0.10150174829882497,-0.06506142226646519,-0.004108268592217481],[-0.03800744928114063,-0.08440767185660038,-0.04141975092400196,-0.05368769410735047,-0.07897631794736779,-0.09374370849875482,0.10203532480089843,-0.06492574727261148,0.0026044481213992362,-0.038552540822100134,0.10191871754727111,-0.07643315330395789,-0.03435541517622631,-0.026606203284057498,-0.062209100696041644,-0.061452903156740395,-0.08866354338312132,-0.07057331773377681,-0.007888615110643168,0.05413561173724772,0.028222995315271195,0.049858820091802473,-0.043708433431759654,0.10061799279904922,0.0007863393534536695],[-0.06040506589939539,-0.12285384783308935,-0.1179271157237614,-0.023777311067517702,-0.013126921035509474,0.07342261486497882,-0.13214213714795547,-0.140130137216248,0.07260289454103785,0.12297319561010167,0.22089044468173472,0.06262724345530642,-0.0411626928699768,0.17280128542728423,0.16567630727241384,-0.04285703387197625,0.07714054179309562,0.03059125482648991,-0.008885429430774498,0.19185038946087316,0.23430878872902786,0.3129364176631475,0.30575619034067536,0.3039934856550454,0.2241812409637723],[-0.06243492060593478,-0.09636762351585783,-0.08371212372988153,-0.1604294958063085,-0.04457276573503059,0.12580277337569556,0.10202171506353055,0.1739901862696769,0.10918808520851685,0.006224040421256533,0.019034485205977003,0.14017393348548898,0.265542917495264,0.2996467507258127,0.19771267196310882,-0.14772911463523555,-0.12867561944382938,-0.08121598638053522,-0.14711278577073816,-0.06914704417506781,0.02639972749706654,0.001373027778928227,-0.017581694077323105,-0.05371795821919477,-0.09703313811945803],[0.20233700840178992,0.10251943234849556,0.002370289633320672,0.1256817345972709,-0.08621149244878422,-0.13830256111742037,0.11985698038909241,0.33480195016665726,0.0035087979429998294,-0.26446950805388336,0.3165039708040168,0.23295399839247846,-0.30934412434030106,-0.19136560110791312,0.18404089351120712,0.005654449003335606,-0.3701013213270927,0.1572736421633685,0.394974769379569,0.07268539032956187,-0.26775639710159393,0.164527077856152,0.21813956331661793,-0.0896270203150192,-0.08499276269310034],[0.08194154853134526,-0.05570852706187198,0.027032816710732325,0.004128796164051749,0.06748212194513016,0.10218637255356637,-0.07620352502637538,-0.07603748859919132,-0.08310363261214608,-0.0557737339923372,0.07106850637937846,-0.008748343430937904,-0.051863263147465886,-0.06919997075252642,0.06832723298101898,-0.05349169205258736,-0.04581950732528335,-0.057746409283471085,-0.1003197857034215,0.08187738709614054,0.030891258845822347,0.007989097486982668,-0.06584135852077078,-0.08339557607446399,0.08426334511710036],[0.04496370885319516,-0.020437389915958625,0.00008868624144221215,0.0027562348119855164,-0.035018601428086674,0.02818391778989379,-0.0627937951363925,0.02883799408942524,-0.0489454602867537,-0.03006677411434033,-0.06595279082576967,-0.0026103996527790745,-0.10125722866883352,0.062024844315563,-0.08990728761827473,0.08080003205041182,-0.0036740323300301124,-0.002459036150426033,-0.06990267464358126,0.02883923700119402,0.05342580921741264,-0.09493520525609188,-0.05658848179533645,0.07970562554895241,-0.00809471191435014],[-0.005840621667271517,0.03510098429591336,0.19407440701258138,0.33360841397004876,0.48831445291243164,0.05104502365214063,0.1633320801470357,0.110851867673196,0.09520334342187715,-0.09980179263605769,-0.004649292089213919,0.006139514322942237,-0.19293068906790567,-0.10189040638920181,-0.08714302529927263,-0.11808010689154669,-0.0990734963328387,-0.1799837511696555,-0.035935220184655864,0.0362665094043578,-0.020425365556198016,0.018910415721182152,-0.07234290427352391,-0.048692944602933656,-0.020898615504763855],[-0.1156390499111138,-0.13637856545532234,-0.10882289565583375,-0.028831387260318204,-0.06849307031271337,-0.11758983431420994,-0.0007027668633819157,-0.12160306573541232,0.041872203234907174,0.13257552677691906,0.037997617464531605,0.0315010932709578,0.1376621752268169,0.30314105920697015,0.2144882918363655,0.32449721023160283,0.2031600710893295,0.2511777963146426,0.18254963495527207,0.2649154869704747,0.06999929337073053,-0.0324286831746808,-0.10186190828218948,0.033709554167034673,0.0994686096787998],[0.007225462259354694,0.06503303569348533,-0.1151773396965454,-0.1667096836114471,-0.09630922325872063,0.04206224568497616,-0.0821988451119035,-0.1525129283800696,-0.1338005457951264,-0.17134227232955168,0.08880176584313432,-0.05201543580022543,0.10593017637468333,0.019978885492672988,0.01470406955798201,0.17057403494685305,0.06787473289953294,0.10230751324459282,-0.05024015343282083,0.1975043165475816,-0.051186979702566845,-0.16507514829593037,-0.22582382822096256,0.0936378513094545,0.11342819084388756],[0.06049965235359632,-0.06159548168697675,-0.012196777128876356,0.1140438965305814,-0.04677546687332685,-0.05656577886143576,-0.032430325929301465,0.05587628597068985,0.11592828904208807,-0.017224895883786496,-0.021550507722832752,0.030187942660869,0.10918910861870096,0.031865375079062334,-0.03946729499287649,-0.015887178823700086,-0.055175319017733364,0.09337882654368183,0.23791835257106733,0.25471950962172524,0.10130121265801534,-0.1063780076364342,-0.309045288699586,-0.2296139153606194,-0.032197251866385106],[-0.04208041550705087,-0.0935556967300389,-0.0849431698988093,0.08332395269406687,-0.07570936879275247,0.03077044991327526,-0.09323760051700025,-0.03092886189993452,-0.04218921413283709,-0.07320671232428676,-0.07979195687262992,-0.0923545559890201,0.02474101571278519,-0.011247501264491613,-0.0967616151474595,-0.04845855496352902,-0.06978185831825041,0.006366078932288148,-0.0732627026420627,0.08186062050576808,-0.10072995159670699,-0.006936346160594367,-0.03349352291030773,0.03634989587213916,-0.10047080587906056],[-0.12244322262272339,-0.13150325727081985,-0.023911930737516823,-0.01625100617288446,0.03316082274649924,0.0007464956341338999,-0.18940467374450778,-0.13811433534538492,-0.1968428373442032,-0.15189129491337913,0.053313753397003366,-0.03404068576941335,-0.011669118128863953,-0.07498113889245617,-0.06610562893729037,0.08525837733240171,-0.07222589129235348,0.24050503852824834,0.16740075312990496,0.05643947162494037,0.04417961736660152,0.13606199351222437,0.17335547252787384,0.12140895572353787,0.13439682608945067],[0.049347970253168706,-0.10393446640919898,-0.11099509582090955,0.15315448909706342,0.08070331323725094,0.11858237522232253,-0.20657980789786953,0.09989399100403074,-0.012461461324141424,0.009753607290438688,0.008569956511827969,-0.1554687256525868,0.03999102162057257,-0.03191545369012735,0.07473924885070948,0.18678167711915813,0.16286019958180428,-0.011071150782571312,0.08304591783087087,0.0017630789337322302,0.19225511750157806,0.08045504111359401,0.20055097931955873,0.23101082450783775,0.21167105826956734],[-0.06382789106602078,-0.03167042741105736,-0.030564318269188998,0.04588720408665038,0.14902755970777812,-0.06444380795278307,0.09646987487186888,0.0870475533272994,0.26901705399726333,0.12096365545417573,0.17651367199672816,0.2185892707284354,0.04783824373150253,-0.051320701125621045,0.08190283568608735,-0.02604064601478803,-0.10087777991674568,-0.07371470878580466,0.021998156278779643,0.13240134208435456,-0.008484411695385734,-0.045865396764798866,-0.00581185423983629,0.0420242127430336,-0.04009936121956102]],"bias":[-0.3226495143255618,-0.014114196280214404,-0.46896376884526647,-0.24854899847914835,-0.7596624626704565,-0.18612931342433311,-0.4901908012277002,-0.13694207192299668,-0.507425349931845,-0.3229019088763193,-0.15698472780931153,-0.3674926604950725,-0.16316532637204048,-0.36880928994978235,-0.3704725965403865,-0.27511263504148553]},"s_4":{"kernels":[[-0.5236972573377511],[0.536693115730538],[-0.7400063518014655],[-0.966298063407311],[0.3558581688508011],[0.013793064124828927],[-1.0776197530258647],[-0.8588017513302191],[0.22164591951214885],[0.17807584598498452],[-0.6785311040250072],[-0.05259105979643461],[-0.09031945267266377],[1.0947687221087739],[-0.2793350827316868],[0.4461075408131515]],"bias":[0,0,0,0,0,0,0,0,0,0,0,0,0,0,0,0]},"c_5":{"kernels":[[-0.054447926960851,-0.04032252208263081,-0.03229547372763393,-0.024987294656368897,0.03050568995147397,-0.04583302522329222,0.02949222281452569,0.056130645763716874,0.004448956428851383,-0.023243183739132117,0.0228716233367634,0.025699126856437486,0.0016837802291533662,-0.02401008958159133,-0.015693215030128112,0.0014096883079775533,0.002610167409221791,0.0001760655018669757,-0.01776848081424601,0.013107288697216285,0.010987901582846498,-0.007926250349696367,-0.010819644998024923,-0.022215183135851985,0.026728488387915927],[-0.014395102698847292,0.040373872996834766,0.016565513657787932,-0.03417083212856129,-0.05211991517575902,0.018754615024784694,-0.01711854464516934,0.04628188107614597,-0.0223713221763653,-0.0714859207192817,0.020791375134016164,0.013562823936881005,0.060584877902559967,-0.021217391124703645,0.03560386604682305,-0.025817688166977628,-0.02836323435140015,-0.018841353156538402,0.032460219421002814,0.0166536105386719,0.03964358088254159,0.014663342969133464,0.012113138332784847,-0.05670732596175073,0.02365647954980774],[0.052184768244813474,-0.010707196622707835,0.01276897348120273,-0.006635962955736578,-0.058374023515505184,0.04663786343157478,0.055776519196842324,0.01447430921159706,-0.023433118707316236,0.03281545950453682,-0.0242335488543645,0.024733627870070288,0.009260550486278987,-0.022164998294415456,-0.011873092913972311,-0.04628165418462086,-0.004202797982748033,0.010794531822833187,-0.06887551332992412,-0.02540001841323548,0.04152181027210736,-0.03067214868707369,-0.026629543949286245,-0.015621004503528626,0.0027081723214458257],[0.011832109366252438,-0.05123174075082936,-0.002677658419215912,-0.055873634388148345,0.013167492750540091,-0.011925603850146712,-0.059092500930853636,-0.01169855712951413,0.008981160506612604,-0.0456422893772378,0.02471158503106073,-0.05988200029739688,-0.08972324603602841,0.054872629348300526,-0.022462776690603835,0.05882814899937319,0.00910109029270828,0.051288463388913116,0.06859255709029968,0.01872861744456213,-0.018391363612687863,0.02779671642834088,0.04312948482486059,0.019896785519250188,0.00826400567229004],[-0.040314550755623325,-0.06995594044527606,-0.04111345878457354,-0.017492877047694783,0.04311941121117103,-0.05703706985011638,-0.005929173873704425,0.006348729619559153,0.02358988433166523,-0.005920170779443845,-0.03968271392677906,0.030328704618863816,0.0067463349927355575,0.0026564054945259173,0.027196051225487752,-0.056356933805459385,-0.012666391395259711,0.011362051039291098,0.034691598461029066,-0.01624585349723583,-0.009403765554033956,0.027239483446400498,0.011252900363697256,-0.026049552538778144,0.015267735139316521],[-0.024846223371522164,0.024090253050155608,-0.04727043100741961,-0.025147328068991382,-0.052716770671498284,0.02840268995742101,-0.02791930493853195,-0.0020052859651583828,0.005345906727403111,-0.00922331266622024,0.022942139184718942,-0.01956132121437162,0.0212944140003517,0.00043001967286061414,0.05716615637586066,-0.024004274072574376,0.028526956461820775,-0.02391303821910669,0.010276408282310467,-0.04462051737657316,0.026076294260850875,-0.03685145055881768,-0.03900398252664723,-0.05983981014751727,0.026382251803695675],[0.000017475454129192572,-0.045804554198172316,0.019381389478776753,0.014658133977554385,-0.012216145111487754,-0.0441850117629706,0.0002923371906015446,0.03370763167515241,0.016441277298257746,0.045331597293213816,-0.009470006496337223,0.05498218505347209,0.005573724863417657,-0.010505757079964902,-0.019999802201295887,-0.04142982315014684,0.042189906938236925,0.04422302814594778,-0.01798621902994494,-0.02529029155091579,0.031859787193525134,0.02074706483268963,0.0034650877978683655,-0.021906468227541703,-0.032111770302987626],[-0.006965649197787218,-0.024408240536777308,0.008530050287252787,-0.020677832019296998,-0.03750522910769915,-0.034027277673909666,0.021567727101228756,0.0011200661263066293,-0.01616881043691029,0.030191795390702884,0.0033241332348268064,0.017200174804193922,0.03114749398103853,0.002111027624955375,0.03392662094219678,0.027437282503227082,-0.012929119465865608,-0.022535367432597618,-0.010819905896659194,-0.0029430732557701868,0.07237549941906087,-0.001758296038949107,-0.05251453389549499,0.032553999279427696,0.03042299978785311],[-0.023359859704926354,-0.029462763276886305,-0.011403494375651135,-0.0027558441152734452,-0.03764559064849088,0.03296902601672561,-0.011321653979174007,-0.02468384426070965,0.022143568301622858,-0.021278360003251545,-0.02962255794399006,0.04848685934690098,-0.06604871443535983,-0.05752366664232413,0.019109206355583098,-0.016792622116460654,0.01924630994004611,0.006533829157378979,-0.03438276366084942,0.04467112197860008,0.027260899871363597,-0.02580403406507687,-0.029610869948093716,0.02324136164584713,0.04273258241569505],[0.0160326003415274,-0.038697594980557685,0.01391229137278921,-0.007778433775137753,0.015603511686347585,0.026285871351371733,-0.019969656028001357,0.03884097127358099,0.06487506146706716,0.06938003773245859,0.028019749925958806,-0.026205247639125653,0.005168559880466345,0.029894598749399114,-0.024754659255228524,0.051789143760446375,-0.015850364749114686,-0.05986080227093009,-0.05899521779511635,-0.06655963224134337,0.04605938249452999,0.024367478653758903,0.001985341027921641,-0.02535987060262881,-0.012406046689196136],[0.03664571423298225,0.0674571392603463,0.0022479205670066053,-0.0295185259898023,-0.037165077265435546,0.004017572164210421,-0.010899013054021398,0.05675779639509377,0.016133574834203777,-0.014843104541443166,0.03166720560908093,0.07696938115628515,0.0756454346885824,0.06470422268601612,0.038023552926022504,0.002104220327318592,0.005885008555757725,0.027926145008080477,-0.00048049441158468315,0.04250993176555333,0.013846584667741656,-0.013451296863860608,0.019647282146758187,0.005507718419786301,-0.019610917738906348],[-0.04839815420270975,0.032225111787705756,0.01261542539191919,-0.04257492336857031,0.01722788086059932,0.011021441495606877,-0.008358926184207282,0.04606737544523591,0.00122259356840421,0.021388881183444754,-0.026724984668718508,0.0010391899211009696,0.04310360106261151,-0.023718472731173414,0.03449610886314506,-0.026786414815057835,-0.046415315868087254,-0.026413939485076043,-0.006393354973529478,-0.0023160357471767113,-0.019492231421431472,-0.02798245919191084,-0.013078138452441369,-0.060312332089327424,-0.00979985513028649],[-0.02246125571034185,0.06081471027292442,-0.007889539015706984,-0.013547933088146936,0.010171049208130199,0.037586756831626864,-0.01979169121768192,-0.008150400553182384,0.027615050287516384,0.037264491350034415,-0.03549458873367709,-0.030252747954525545,-0.010553303241662974,0.01210366095873527,0.012618858675644376,0.034349270188992066,0.03504293540141888,-0.006058422700620164,-0.03904341443855192,-0.04036626221182686,0.02802586384632853,0.02989153303039316,0.02774064296362882,0.04148838292557288,-0.03612928850223813],[0.04508146831311848,0.05794285084418311,0.007438609368297233,-0.004905985498213756,0.05505448287584047,-0.0006923762706104711,0.04967398535969421,0.013110514401235689,-0.02947159175224187,-0.011612776761171771,-0.00923533106771267,-0.12879637261622878,-0.11349016082460169,-0.04817554266925594,-0.012374148917346657,0.047588609205251806,0.06090848348789607,-0.00691800729196794,-0.09671172763889853,-0.014248800308760759,0.04407507838682322,0.0607273288714174,-0.01802774763593762,-0.03673360962214621,-0.052415314715305465],[-0.04272248184750229,-0.03393353468560203,0.02307187433100242,0.009133047509423849,0.0012673020289348303,-0.02162362553552904,0.0565530881666513,0.06336118223337549,-0.012085890235544216,-0.007236703050038316,0.02315751859493374,0.04803078762778988,-0.009632162029468627,-0.01401457425830397,-0.007838167000806393,-0.02090885861972312,0.020360292183747797,-0.026297713930808483,-0.006143754657437098,0.003865514367096451,-0.030562623170234865,-0.0020179607208401693,-0.012211380926242838,-0.0030610012305725574,-0.01875124939994439],[-0.03440490557031438,-0.017207831095261025,-0.00044226379444876814,-0.050010196822359736,0.014316753551759081,0.04237662987616958,0.0004883952166482943,-0.0009157973481461921,-0.03543267932088299,0.041155249926205215,0.03075685148931982,0.039940683525353696,-0.05067061808244411,-0.052366708195553356,-0.0340297493971463,0.01578106076526278,-0.00870001063042563,-0.034377036595991756,-0.00855891917138289,-0.027672242168375258,-0.01865798292608849,0.0222294872355858,0.01790893124786069,-0.03322357649914505,-0.010410197403287856],[0.014669552063367635,-0.04999751469461283,-0.09307808913601295,-0.06366814460725131,-0.014071047363275607,-0.06637546841728147,-0.006625656469539419,0.07325929528820817,-0.000652936861612444,-0.04111247643291087,-0.022484900143434388,-0.01274960062509912,0.04952896772705739,0.08774097002199151,0.07588332938864918,0.04972990873247102,0.029832533623577316,0.004629964794288901,0.04588562433100613,0.058492807902141564,0.07384141519761053,0.10092205067673872,-0.010889492410307419,0.0008082749993402632,-0.027167091924674504],[-0.018925508911598853,-0.04292519045699391,-0.050285380021030605,-0.04998644095014332,-0.023006429226169748,-0.011367114124416138,-0.04166967936843917,0.03387804640470014,-0.04903255144522492,0.0017099161544667089,0.009724143866777644,0.04247636706935128,-0.026530954719678746,-0.002290481748883902,0.038178584584312565,-0.05834681213093575,-0.02096651105417384,0.05909427309007034,0.01252879617448562,0.0001732595571607839,0.04044272514470036,0.023748413583452015,0.02026094178824765,-0.0043536952489067774,-0.014094852167447287],[0.017373335805984075,0.027276619265637205,-0.008611713204261871,0.03502500367666109,0.03404764222790396,0.018824543921270212,0.029736759997376877,-0.0655153276140526,-0.07398479836863683,0.009663694400944313,-0.0026781897006576557,-0.004912738600518515,-0.019704927951501774,-0.06224377606753877,0.028376306816239417,-0.045827020322155854,-0.0410571127707729,0.023492069700647922,-0.0006162174914262746,-0.0034013743244941928,-0.029336408562541078,-0.004468594633420188,-0.002529726973043259,0.05364645225366132,0.029752928481467062],[0.012813735586084021,0.04606809879815964,0.03164474264533946,0.0035961950176240354,0.015219674846065734,-0.0025425344434042833,0.045750166193418075,-0.008759035821763817,-0.054205827006440443,0.014582321584590921,-0.012716474030215546,-0.08429735968473948,-0.07945267103841562,0.07222036000484627,0.013953912290940802,0.07143940003803372,0.014363550115870585,-0.022773490037704108,0.08553819020814037,0.0033211577446048955,0.07537749418761425,0.06552292122927685,0.03176249717511054,0.04047158198223388,0.00672117518262411],[-0.028539487083569206,0.05293513871740232,0.022309071308911667,0.017968143148581944,-0.00046205758399978574,-0.03930412303908185,-0.002369958635116223,0.029920450252870923,0.0033808428456094585,-0.051117291630759364,-0.05887222703138389,-0.06927000352142694,-0.08037122652430141,-0.00977114879596491,-0.031100052619643936,0.036357039379564325,0.00402309428808429,-0.007194495168261516,-0.025347333024806344,-0.014116058582301767,-0.011075088848100564,0.028435247385103276,0.015917457480015034,-0.01402505522245517,-0.01970161108866957],[-0.02105502811950586,-0.016650537971090586,-0.05818819031505788,-0.022064789438133697,-0.010998474818984716,-0.0006527800689934904,0.016144023866563176,-0.016049253693860958,-0.0181023553259393,-0.01046863423958079,0.0004836306652560397,-0.026714709848457644,-0.06027701878089208,0.013585004725051029,-0.019965503850715126,-0.04504712089704024,-0.011985983350335558,-0.058202770854221694,0.0015186487990079191,-0.04645500640669376,0.03472492588924336,0.05123379196333767,0.01566562964780948,-0.036455984469334894,0.004262785700591679],[0.02458780949196517,0.0434236058079278,0.00043630913422256174,-0.05456369177539441,0.03929273362673813,0.02368586516034021,-0.02557630473026365,0.019013634653882647,-0.0016966879422643001,0.029362949834336436,-0.04107684854504443,-0.0657229257685701,-0.02628175322194766,0.07296952651046129,0.07061570947380623,-0.0076500545719916015,-0.04920571786324493,-0.01946606333635172,-0.01239801261671569,-0.000297205977860107,0.0030325112957373984,0.02828428115849437,0.0540095838206656,-0.03446848914305222,-0.04035814381165239],[0.034356351787674586,-0.013813871375964478,0.042955208040508334,0.04238348967682146,-0.007452813128301337,0.01572896763323252,0.022809041453382493,0.0036908301857812857,0.06444349099394649,0.0012794450370350319,0.0036342319492796613,-0.09867287647796419,-0.11342481468325537,0.006183488780215394,0.030230386909865917,0.0352932569049857,0.03267345871572621,-0.04328388478663752,-0.09093348883577881,-0.007737102031012435,0.021216598202174333,0.02966315036029101,-0.014138388418743117,-0.05017625908555508,-0.043570661642351474],[0.03313325544651353,-0.015541660451431131,-0.005584488979502708,-0.007407978735830527,-0.011583508783662357,-0.01669765956002305,0.02393744510293416,-0.02840147362483158,0.028661043834561258,0.006191908264178794,-0.006458984546804298,0.0015378388125659008,-0.01733610309714118,-0.03964081939816956,0.021231170475988093,0.016234888957920905,0.0022820587918203194,-0.049205721319257816,0.011405978640520896,0.02376710006224504,0.003258096937691859,-0.03445077617891848,-0.037474383076062816,-0.04467494869791679,-0.031115628025906405],[-0.00026713130004020605,-0.07025175356990095,0.006862431819827197,0.0012278435881856345,0.027551695142597428,-0.002394617682235441,0.022924237795046414,0.017083325007485467,0.03606581945074783,0.06377718845137743,-0.01603840703163722,0.012794604063106688,-0.043206712056687364,-0.002438060476637458,0.008612886708178936,-0.018428401363086773,-0.014204518923910744,-0.048853050047221236,0.03272887092302581,0.06510972969077443,0.015169530636596656,-0.0023548798876888836,0.06787175604394159,-0.00019077072751461105,0.03445075565822111],[-0.006794180349473168,-0.028939473164803983,0.003692319606887934,-0.004352782047433857,0.0047007908215750665,0.010383681998741439,-0.045563218890300974,-0.03673208970577271,-0.05175155340099187,0.01074743685102339,0.0061956196948636175,-0.009811254837700229,-0.023051227979086892,0.04964085259140349,0.04543033964633702,0.021014854068367297,0.0032921306059483625,0.07146444329171095,0.09391066771914892,0.0017093187508861697,0.02184423398267836,0.04020951285373991,0.021753897068569044,0.026918690622181597,-0.0029281473360360465],[0.026424407496827642,0.0019644918807313573,0.062022136280550644,0.01645708699133663,0.01950612223568274,-0.04079148735323164,0.020561276088904182,0.06179115126177519,0.06870929028567786,0.016715235390286236,-0.01320658931260002,-0.042325278257303076,-0.049996195427721005,-0.025670110820349375,0.014968252454288832,0.05507712167815883,0.04378326868616066,-0.07478699966140405,-0.03703734845472422,-0.005175256081287872,0.023003520599014053,-0.013887302220271687,-0.009086772206279837,-0.013936515691110929,-0.0053218401313581045],[-0.021854953176814563,-0.04398417707179918,0.025123885650699916,-0.02539868593310157,-0.012325150161428735,-0.028752328089875323,-0.030881392235440223,0.03204741847271865,0.005525409492113347,0.03667407243061745,0.0014871956979659216,0.03755545787419756,0.0018326033137180838,0.03617794806363989,0.043773238155418025,0.009649200107565791,0.02979188974981196,0.05590830118861237,0.026605224320040557,0.041098023908225534,0.009425811068610249,-0.030811784565297182,0.012443527817253195,0.049666136335818956,0.015271911989417523],[0.04036476825509622,-0.001195662980992456,0.035960426943620345,0.04102242491631793,-0.020128574904122544,-0.0025847047728009874,6.945118135682865e-7,0.0386648126809714,0.06154258901434502,0.02312074575494192,-0.005849434430585281,0.11170649088659497,0.026014612094024444,0.04791609811649698,-0.03556453070452233,-0.022910483487052494,-0.06141155081044396,-0.05477205124717722,0.020761746496667337,0.0573510233875813,-0.008569891228535374,-0.05608907026771912,0.038974349854819026,0.017507475843031924,0.03210854954969062],[-0.003919593701493295,0.031519080995788464,0.015575257075483042,0.0525523077465402,0.013031774683261733,-0.029930711984105733,-0.004511145883802814,0.005515634495523767,0.03754489405590972,-0.01981225306268558,0.01744721523767405,-0.0564079182505487,-0.037180121124693224,0.007203786033237666,-0.0035195531985875014,0.041472364773950596,-0.008331804803657026,-0.017083725817913523,0.0020031136270757047,-0.028133642910738235,0.003405091295233942,0.01373036247732121,0.040114675590050455,-0.014343328082592933,-0.0069395485808401835],[0.005508987552840017,-0.0010930921171337109,-0.00007791761175893522,0.04509526523249563,0.03813455538979726,0.017829090354271174,-0.012675009380588326,-0.032294739322534786,-0.02667812979763584,-0.03906487440095123,0.002727606653587236,-0.00398574849483454,0.04568411121640561,-0.022841529848863812,-0.045451848819412013,0.017743719530394948,0.02361946984224804,0.004631502234926082,-0.010607103679887753,0.0009077574240731409,0.03301350825815415,0.004497237917223659,-0.016654671071315852,0.03384484105851396,0.06696087412738029],[-0.04393664015347917,-0.043766664648749,0.02335354045886129,-0.0062523538164680975,0.04470539360943058,-0.045775993738062626,-0.007766691508286328,0.013866682477714908,0.000984514301322092,-0.0008540342266031898,0.0032578945900098573,0.08073848244207608,-0.0052462650101148854,-0.03781991043787229,-0.00043836101412913825,-0.020438808829157988,0.040234480836371427,0.02575165628552897,-0.0112833582829468,-0.006634441375830939,-0.022259043564714167,0.01342326246349332,-0.033112297963296046,0.018142729337261552,-0.024556604047531343],[0.016080760966145205,0.00635410653170781,0.006333429412329891,0.004230101949322225,0.03807477700946581,0.008100461814651013,0.02428944550057861,-0.0035739732594454445,0.02497976513433861,0.03273355818816395,-0.03925786361999226,-0.06392189519921997,-0.06455331906913189,0.03954691326014818,0.028129009726722935,-0.01719704563769359,0.03299198652204772,-0.039795337317646326,0.022363141391536785,-0.008283596566230041,-0.02151432904287448,-0.0013368653503546804,0.012870903990950169,0.009076856849342087,-0.02480022932045242],[0.010430522962454055,0.0024064731679132633,-0.03742028808945818,-0.01405778528245959,0.014801235632576955,-0.013555896328395474,-0.016677211421196905,-0.023367437251708853,-0.004900319831219243,-0.024529509748244197,0.02041198810288696,0.008383942168067069,0.05832280040872484,0.016495192673334238,0.00758589450956022,-0.025711630402974528,0.0306609708010272,0.017703409266645046,0.06279726341429005,0.018563812109887633,-0.007458325156464257,-0.039584668610912546,0.004356063455482324,0.01333683378628349,0.0325981278601034],[0.033823987971027654,0.03846103323799732,0.02089546017081596,0.008952858360862993,0.03018015177221607,0.0247720273679889,0.046080761913602115,0.03260346924878823,0.02384909650755684,0.06960858232626645,-0.0015621517193266483,-0.006975203897290892,-0.04765794625112123,0.011332594168939917,0.022900632439112306,0.08222882895130414,-0.003570046344575494,-0.017834589954206666,-0.01868958148905192,0.014526319037472507,-0.014951565329883662,0.09554656731976059,0.10510808419233916,-0.004862094868476688,-0.04935730542019294],[0.06261437254773952,0.029285720605477586,0.040179803466480986,0.045490202010025564,0.003571676777762981,0.08002553202975601,-0.00456683514835287,-0.0031889046773227445,0.032914569458568264,-0.005861983063908642,0.05009447318659898,-0.09482806512597675,-0.07302105866189788,-0.07906314880528412,-0.02054809437162076,0.006984022931520022,-0.07254133611106597,-0.0058183151833076496,-0.06965162600479483,-0.029343788038643234,-0.03731723199744364,-0.004979212548858122,-0.022143037480904116,0.016990036745133358,0.019630285016738195],[0.02404090563009433,-0.017598088468921417,-0.017987195051240957,0.04586556165483275,0.00439498298176319,0.05169153190910304,0.06977093778416683,-0.006611312063616638,-0.0009639391864459544,-0.04219478314229553,0.0570565674898873,-0.033785246585838064,0.0004894074043879146,0.03815897093380604,-0.016745989580674237,0.03319698141225574,-0.006829738457584582,-0.043165051985587496,-0.03725767034058275,-0.00866734362291731,0.023179014344929184,-0.03810200824640605,0.04060709668432135,-0.014638293629410494,-0.0066033796692328076],[0.02142139917624593,-0.02731151778491099,0.018216471268948962,0.0446702093676643,0.014080819302996928,0.017114781184160415,0.01763855252664644,-0.007357621114756958,0.042417663068350986,0.03516869575173258,0.010853403420787014,-0.04552763025458485,-0.053046429486884636,-0.013205348682808217,-0.015673699021984785,-0.002224135059778707,-0.013618687627505377,-0.009220688019276582,0.007939279823516986,-0.016940702846809513,-0.02026335059076547,0.001249872984168396,-0.028563872206962198,-0.0022568538407007357,0.020163076809774583],[0.014850126033999099,0.011371535558441271,-0.05186253910488626,-0.02220894429050657,0.0246422513538272,-0.013037848502586142,-0.023759303288940888,-0.05021856080468094,-0.021269418759091024,-0.018994250822400353,0.03094105670307315,-0.053482025527802235,0.011056203561683478,0.02550745266973619,0.011029295125892815,-0.012565489096404392,-0.01930682097493256,-0.0008627942984317419,0.002933881210192779,-0.005985015267170947,-0.0056775737915526515,0.03446252737224251,0.03497636228821928,-0.0027803753278602406,0.011381994315648247],[-0.023373750312151973,-0.04881288604474453,-0.007657462950312978,-0.028245526946187743,-0.0019792760105530743,-0.04888149986881067,-0.08284524754344451,0.004351361735155967,-0.027403106974772766,0.0031781546176494163,-0.033918371074252704,0.027892022251094897,0.025883456898456215,0.04265430592873553,-0.044755954058450786,0.05411181432419634,0.03450762744760177,-0.015549389682819511,0.022814275203897363,0.029986797709007317,0.017096065180755553,0.024424412613998556,0.03191150940410489,-0.018752598978034784,-0.0019068851819651676],[0.0013233710951060366,0.0041589118747269675,-0.031112559866184844,-0.008718467458633705,0.006871245818501166,-0.018398659229970447,-0.045576735002200094,-0.027797274514833478,0.03380292961644914,-0.015849255390465982,-0.00802976029024109,-0.011966300987323722,-0.06495139254865509,-0.02137868574268933,-0.029017644841847944,-0.04543791208496779,-0.009456891729558964,-0.11084444956013488,-0.057223030100697764,0.00201150909629147,0.029204112334852053,-0.015522223772890498,-0.07477129034535544,-0.00791362901768843,-0.01217334358731787],[0.033114392684088854,0.03501386145102325,0.011065072807367297,0.010614465760795243,-0.0157247793182224,-0.04750073808572376,0.06625531587141098,0.05021190395492068,0.005480318017731302,-0.00905403862501312,-0.04905954020509945,-0.0118979895544917,0.0437760760066899,-0.024856392031811086,-0.010730155723754211,0.07876669919192633,0.02831422032081661,0.0525271396753498,0.03710980009714297,-0.020993546550040054,0.06355925974512047,0.03818313629941264,0.0436094160693767,0.046972581848355156,-0.0069560747603635],[0.00928993991875309,-0.005549099897756371,0.04503860753256823,0.0737742922718951,-0.006621308066717352,0.056884656825557794,-0.019011538951192078,-0.021644708724235,-0.006719972994925715,-0.051778004273820684,-0.027522300831701065,-0.12588397217307276,-0.14678407919176656,-0.023087149794187255,0.061077644644945146,0.033943382413457714,-0.051119371702897015,-0.10745238942826316,0.02264297583641699,-0.013033060065919555,-0.018711089660123213,0.04592676246894325,0.016607614304113606,0.03840666424425913,-0.022658850519668924],[0.01575402569020866,-0.0029599465081988625,-0.02072104201510064,0.02360001822680394,-0.036138036910597915,0.028187229471397984,0.006774918601071189,0.018947707553526896,0.026745765543258224,0.014006629694239912,0.028470721940084313,0.005792271974807761,0.041342530222817,-0.026827163777905477,-0.020997218701100013,0.04451227782907161,0.05694683843172807,0.030028111973040728,-0.02121110865037375,-0.048190982023747976,-0.0001768303010268171,-0.01883022452655787,-0.054655349947417595,-0.031117719454620593,-0.02835365309372096],[-0.0020905150412574218,-0.02120419790384075,0.019675838695847176,-0.028310934244928795,0.0014824796963999675,0.007499746711643282,0.034067454341613894,0.032548814833379965,-0.03093599393270738,0.021045848105400177,-0.04229115271831286,-0.016121815825959368,0.0121428944576745,0.0032256213287699623,0.016679502624145446,-0.0065495963829655555,0.019193156197921606,-0.01464777733167319,-0.02516023056243262,0.004891696889740464,-0.04051568698647525,-0.03656452373702134,0.051989683698293924,0.039999919202006684,-0.003264058418417794],[0.018273314050300714,-0.009902278799799578,0.02519760050297919,-0.03430636586897523,0.023932157610830892,-0.0500142565328554,-0.026746625450229915,0.002238055838276066,0.02693151900942105,-0.01665815508409068,-0.0032333522202410403,0.0029552666494339695,0.03017572135293613,0.0006005027798202221,0.02520629704271221,0.0067232500321031145,0.025890179584544613,-0.07009764419325729,-0.01699448225272395,0.004666136125845818,0.04144061841140054,0.02269151475369158,0.020039514030524827,0.016160406132459247,0.03367789652301367],[0.018552714292361206,0.004347441446978856,-0.031639913711346807,-0.06607825527727548,-0.03102583266010336,0.05887079231586314,0.04994213264850914,-0.09407731507434133,-0.09688954115046026,-0.07228857839868626,0.043655772441598004,0.0062830797490179505,0.07991818800942387,-0.05601553505624619,-0.06738233086034129,0.05628086596147786,0.05294043779700659,0.07042203311532386,0.013953488417772946,0.009985323351432226,0.024670213089057803,-0.035560127086815864,-0.07379395090756366,-0.016276055066262243,0.008083558175811793],[0.05624669304021906,0.04038999167567987,-0.018549280644339406,0.0738834245918671,-0.019368955404675713,-0.036093951254955056,-0.004098840167660122,-0.018559712364685815,-0.022374014610613537,0.003397027752921071,0.013555284541838438,0.04345343238318018,0.019075295255555062,-0.07773674660487095,-0.0939565130227215,-0.02094813213986118,0.0009370291103643584,-0.032532477510391115,-0.020801023125219614,0.011917670535884259,0.035316214919821516,0.013721154901968036,-0.03694801677471131,-0.012292166073907321,0.048644104461311295],[0.011590376511281439,-0.04608397841278435,0.013110445703979567,-0.027229592677494703,0.020694536750733183,-0.002085986651091009,0.02378924690225604,0.026819436816343575,-0.02789387389020478,0.007225783168858331,0.032676730700012195,0.015347048346173505,-0.019350837953731055,0.020955867142340264,0.0100968920108966,0.020114053552756136,-0.04245465591225233,-0.001349836260073374,0.028325533250541608,-0.024997083005554983,-0.03139690389400777,-0.032239773655924765,0.0249257056619076,0.03746250920364606,-0.03485031284297903],[-0.010888655210933839,-0.03386079688495478,0.03407345833561905,-0.010018444776707096,-0.06287816674968429,-0.03190868169208771,0.033024140875514224,-0.019708334520750746,-0.024387367314361988,0.005658440148367924,0.0036574975853134995,-0.02757374053661131,-0.06028113960971991,0.0629999061447955,0.013071474433152503,0.03283787028733499,0.035688693703609276,0.0454415545793289,0.049618666055349266,0.0238839194158967,0.08807335267874536,0.10351384341570205,0.023498026070714547,-0.020563572069693073,0.015043692522202758],[-0.003315174709744849,0.017965078363980466,0.017786043607225546,0.022405557009840656,0.02147914880568268,-0.02898035932412555,0.01627833709129108,0.039101762283106786,-0.003971939475330207,0.005693930189111349,-0.03546861609833116,0.01706249929387967,0.037120318859026155,-0.025079740604315146,0.023414234421907005,-0.04986513114190494,0.0062099048598169525,-0.025633575994811475,0.03605362862257412,0.027201362544307387,-0.0329201413307485,-0.013407393757623952,0.013730368237293473,-0.03260026232739102,-0.05795631155823157],[-0.03049193309657455,-0.037021510535013326,-0.009719307091800453,-0.031967567832137986,-0.027196438749889522,-0.01755955703008123,0.020291882009502472,0.03437520347653189,0.0043434640827289565,0.03039393817100726,0.012965383783649899,0.03826233006524695,0.01560190574621386,0.0012209055324968678,-0.0011690665606005981,0.0007961497460294695,0.01578612510356381,-0.0038496678375766523,0.015408106267571756,0.029507250979418004,0.02634887911114993,0.031091511361867812,-0.005206814362337354,0.03617790985183464,-0.008763876138019168],[-0.041299465691061195,0.016620675200110117,-0.004202127671293753,-0.0493260738196131,-0.013937580955605391,-0.0449451762521865,-0.02340089315866856,0.01750678283847355,-0.003247218375835337,0.0007086070376336276,-0.01697104956688125,0.049712194488138774,0.010161853063958063,-0.0010533716079494818,0.018099990823451227,0.08725214186737854,0.027738410229760986,0.038798839054859015,0.024611280359684237,-0.025513200478910578,0.018408054240587748,0.056500063419805194,-0.020801581695270126,-0.00981374198821668,0.025630558988624152],[0.033898876556482826,0.015008323971150699,0.010391847695151592,0.007980867395738235,0.029244132110435077,-0.019406106469424228,-0.004999457153602901,0.04914794051419435,-0.007882099767399854,-0.0954143663008409,0.020021013763811654,-0.012932794469218307,0.010688248446469617,-0.005426610408709285,0.0021261777332476045,0.04040498322417883,0.039777280241238715,-0.04260122757070801,-0.05050365937239308,0.031784216333120084,0.03794636037627835,0.022462453775278782,-0.019135913689956322,-0.027420413917451467,-0.012919757352086439],[-0.013531609657460609,0.026835956786195502,0.015953185852653297,0.0061281597264783725,0.004953092703203093,0.004283686239415459,0.044614402812971195,0.03261832525644158,-0.010836809204729217,-0.013945158649199754,-0.0083267505761556,0.029940212700039315,0.031816765611920574,0.03605456092753942,-0.031956396214763406,-0.05664561755248103,-0.03586314944267821,0.019746564432807746,-0.019203322360824265,0.005548451110724029,-0.056536170094623306,0.010570793837994148,0.000167650163258135,-0.036376685241738,0.018893232543638998],[0.020660984205758376,0.00397763407269321,-0.020763169396233197,0.04744055567103012,0.03713701324346414,-0.044463157041443026,0.01686851033963285,-0.007018643361172402,0.005684688147580001,0.014955436113272052,-0.007292633010780784,0.05457029757646878,-0.015079969148938126,-0.008963707671805385,-0.033330145040149896,-0.0001800066734662146,-0.011600819744430214,-0.030401665637795654,0.012467011180211278,0.01453188291523496,0.026979067277171188,0.058118830057324426,0.008742842105064605,0.025792004349019765,0.024443045294921643],[0.04830546685062968,-0.006054359175162288,0.05348871652186924,0.031082673916484057,-0.015512609437832803,0.012946571698912923,0.04519619337101928,-0.046207360997173756,-0.013468819032584055,0.002001537570450464,0.028739820766774837,-0.07461033548931155,-0.05694227200170723,0.0007326414366472738,0.012750967152204926,-0.01849873071624403,0.05303116644143555,0.0667518316335368,-0.04375255564581137,-0.000186634086469836,-0.0034269759449901483,0.023245839956386384,-0.030150714342214852,0.018604031964686303,0.02018924052153417],[0.00915873010650453,-0.011109906479430557,-0.08240229762251983,-0.03232002239646412,-0.001000678036252613,-0.006272370044323106,-0.0009784411994661923,0.03937397667872008,-0.018713947067992887,0.01553779735868309,0.06348734445163123,0.0508567584079201,0.016849878054242137,0.09018451024462448,0.055784971810495645,-0.0031173708340525236,-0.030633376665235836,0.003911185906724282,-0.014703871059261475,0.027950049364065224,0.0006450324231293651,0.02088971199296412,0.019400732422393985,-0.030641504505839384,-0.013093299238780243],[0.033092794171467384,-0.033786467643124866,-0.004663849950374829,-0.0712450072871698,-0.016037179331733716,0.05225465229928154,0.049174877310309846,0.013298456164846475,-0.023585568009032585,0.0005746761939996884,-0.039374918434040555,0.006827360581241911,-0.042888699881084805,-0.06261834286978588,0.025875299026952046,-0.03868728198187614,0.017740368857671055,0.03752323489028284,0.006685623983219445,-0.0381065287295037,0.002331039172238887,-0.005180791418479582,0.01256830030392892,-0.0025530959817731532,-0.01614700952100351],[0.014506917306067211,-0.03949932121765635,-0.019776627334682693,-0.014867590630655516,0.02243473109001103,-0.005645963891220574,0.02408450672235652,0.025532514764797985,-0.045437264064584044,0.012540614376600206,0.040025786399980966,0.03138265510480064,0.012920081102632569,0.0015931883897104435,-0.045428879213347984,0.02188919928203955,-0.01398510024071926,-0.006203081033687134,0.024825773245578032,-0.02373929788524354,0.03537643649185068,0.031869621500068016,-0.040596772384483046,0.034718968997775615,0.02525939164720059],[-0.0035152183592098165,-0.039631170051410626,-0.035923859602120856,0.03321535580538356,0.02346324218668018,-0.006591997347669951,-0.025026647648982107,0.03301624356902504,0.0047786495125197535,-0.032756664695953217,-0.0023519932210275163,-0.00789424087066081,-0.01974609287473494,0.004070581318961198,-0.041500372882648816,-0.022701473639080032,0.012767834662644188,-0.002332249871001951,0.05674866153377516,0.054718188796326624,-0.02527669567014693,-0.04517566829474292,0.04023413452556058,0.0034696833069618343,-0.005418273274562581],[-0.046276836580417716,-0.03070085179594147,-0.03004697604716606,-0.025460645908179983,0.010547013623148764,0.02565324788587074,0.025504029372234737,0.027196235251186012,-0.01262604927221758,0.005435148700549002,0.03442893875466363,0.05342049506199015,0.08404818718342504,0.032510507242108765,-0.04520159848559645,0.008825993427273306,0.025173048021534597,0.009105632435741895,0.03243421514262859,0.028176986057276594,-0.03840162769219999,0.0013664014617777507,-0.026709959850895255,0.018836691381334012,0.0335058384482872],[-0.008116608853641839,0.06356343424316073,-0.021694750694067903,-0.033334235432623496,-0.035029810746205065,0.04317224558120824,0.022416947538836884,0.0027435321165333046,-0.026027336077412394,-0.004357190680386203,-0.02848420396999971,-0.029345572170777007,-0.003773322323791839,0.006506459417536683,0.019683434113442637,0.024054582228718084,-0.018407073897254645,-0.029383114895487877,-0.047483682385003154,-0.003976247548882542,0.02123837576182501,0.05435444096825618,-0.001356129777480885,-0.06587333021747373,-0.04121344678619822],[-0.029574187157240098,-0.01024917227314151,0.044688505125738597,-0.032531322510231345,0.026173809713994318,0.01744043350988556,0.03934401186415941,0.03069413372652737,0.035408263139312744,-0.03898356359186834,-0.047825931180986346,-0.006094222007576464,0.03382175062625351,-0.029002220204249633,0.00013430406055815674,0.03889807534363936,-0.018081229679197144,-0.01078753206508769,-0.00848982915447456,-0.032300993354180574,0.04699194010927295,0.06031094504167751,-0.0005486957858887595,-0.0005721649268342508,0.007153854870293151],[-0.04091161858085276,0.03173847970520558,-0.02760954711295627,0.0007595345982239546,0.0033702297483678605,-0.04855540877503781,0.026497428773654963,-0.008644280296658478,-0.015373211476429956,0.005345174551877222,0.013524883810176743,-0.004178211500128709,-0.009129367908720171,0.02886575423889091,-0.012387029582149121,0.01567578516762603,0.05096174047411353,0.012501060796461691,0.044135572964803665,0.03734646681996383,0.0010300897722626775,0.04506511002401513,-0.003209623272724994,0.029409590974494502,0.01667839812595916],[0.027543126780461016,0.020271797284612963,0.02785990371987358,-0.022522825691604725,-0.020204829800943243,-0.041386513372311584,-0.022288507801273914,-0.00776264170897571,-0.04605160404105452,0.00782476969338145,-0.029491048938588782,-0.030602795210506687,0.03180299609297875,-0.003920411867323268,-0.004198884230042543,-0.015406750214776534,-0.012746195027728181,-0.03861333493308723,0.0013607657259564795,-0.009795696531481815,0.014201451977169452,0.0023427039301015316,-0.04645658337118279,-0.00292230474924835,0.04366401889177796],[-0.016898977789210613,-0.013940616820651147,-0.017997618601582412,-0.023290487095847502,0.02020934985740312,0.004536816977309398,-0.033647989009126036,-0.029234501828490005,0.010240196989458829,-0.019740150989722198,0.0006133862410344307,0.016156490349889616,-0.0013565182015710827,-0.04357872642558151,-0.017856788173975215,-0.02194774346029483,-0.03913034213696381,0.07026764845043867,0.0017507958379915642,-0.033110482423918904,-0.06824069303898647,-0.009363041307878692,0.047091489225438085,-0.002386219587135533,-0.020272870741975896],[0.0019073870885581805,-0.037097933845194865,0.030188636584854104,0.007840958009807436,0.02044686906864886,0.002885853612883789,0.002348892276242853,0.0016003001429141966,-0.04895752407297036,-0.0044549135810906665,0.017532062814029845,0.06303633055812538,0.05275361545261476,-0.0012193507488652614,0.01899248492072732,0.0055481714445434205,0.015786777618389133,-0.00517226127935465,0.008763654847500775,0.038315030275195665,0.01789868192688449,-0.00604617408849469,-0.06481477680578843,-0.030343100702084534,0.014806577906215269],[0.037433171938038294,0.007288209069268096,-0.02730486827103684,-0.07685078519541089,-0.054285624280345196,0.013878052799342618,-0.01740436311054416,0.027938079110842368,-0.021915297563327683,-0.031249027725068636,0.02593876091245206,-0.05265872479915566,0.007209518208126449,0.06424237240315829,0.019617228582449367,0.04432757630797882,0.02075684762840841,0.018237288197802896,0.0330991934268638,0.0333688412673312,0.003452638623161811,0.03384542582842126,0.08696158622669045,0.0572435338141372,0.020467653069652997],[0.019074570523024838,0.04352413291354516,-0.019220952705579573,-0.06837309636388575,-0.050032808169568184,-0.005550169028740059,-0.02356020614229769,0.015323277155658484,-0.0018329166510866958,0.00984587873077302,-0.011197962978949195,-0.08709703099245479,0.03518143248735992,0.03216825777958019,0.004573419215507284,0.012586999216278226,-0.03926753328594235,-0.0019333093708620939,0.001444558645653327,0.031137468193016223,0.008306209725437759,0.043526116362369784,0.011113693059354357,0.018040748183043378,0.03416092419082202],[-0.03534729450740443,0.054851805557095214,-0.002239284725649398,0.03313390085848235,-0.03040837225571276,0.03262915926794854,0.0266069404397001,-0.0027477840478390297,-0.009208727797865825,-0.043516659242230304,0.0071094305794615,-0.062331843295614135,-0.04969529282663948,-0.008612314569642215,0.00617163105688356,-0.0312909683836949,-0.06181101402603409,0.028083343074069664,-0.0030427689436365087,0.011802627599147858,-0.046417420783801205,0.007684215288442034,-0.028776743017302785,0.036849088013293035,-0.03616263339390505],[0.028318967844477863,0.010081241732027613,-0.06776393888197582,-0.03759115456229528,-0.050130396143591785,-0.00020577444585960687,0.05740949103138652,-0.003569973507623338,-0.046794128899041915,-0.026373745240687533,0.01816882068639077,0.012108447068287568,0.08260231962830404,0.001126372712661774,0.043067941589717926,-0.0007132387498633796,0.025757328781883873,0.12322340102442657,0.013830211302357422,0.013350284622850008,-0.02837732136586175,-0.007191743618745411,0.002607158378089599,0.015238592735159347,-0.05085628743087261],[0.029078504534562295,-0.025876093051703537,0.01790636847701501,0.03748852468921741,-0.003909780485561292,0.057029615614227605,-0.020591461113362974,0.019629974510107617,-0.02808402212691169,-0.020021847784784073,-0.047470576463071505,0.0300203194227388,0.07091900501848024,-0.04019859730408833,-0.05927755820911644,-0.013189849818720482,-0.01764572852037833,0.0191862075508633,-0.01791110931239752,0.02747485172648933,0.008875040927901047,-0.08264245423668025,-0.027372522744917277,0.0035817756111726426,-0.0033685298295680326],[-0.0034473980117704925,-0.0095272794321133,0.004267450559527278,-0.04034182951746373,0.013630968448644228,-0.010006035844821851,-0.01681918964411017,0.0069215514060472424,0.01971948078705917,0.00921542258190961,-0.028507928628641474,0.023507883855486782,0.020144865537573175,-0.04321684635049932,-0.04840049841916381,-0.00034523207213566176,-0.00029894494954220457,0.06563362419750542,0.034338506528350785,-0.003132036458750061,0.0219389726720849,0.04953836240296137,-0.005194398039186051,0.025503985014521786,0.03918936316987793],[-0.024336486244811537,0.022913301160582378,0.019363558428432903,0.054677292145974846,0.015429194254537046,-0.060540973102724126,0.010229678697007617,0.02408078568044575,0.045764338445178715,-0.012860968894513599,0.02446536494668728,0.015895047437120245,-0.03528258307001286,0.059753601185234574,-0.027646258419391025,-0.001530549419900324,0.00047662102896553997,-0.04143435049739547,0.005957926607820398,-0.0220671344097001,-0.004644563045277745,0.023414109462811125,-0.016001937924820592,0.013943370414003394,-0.043848269254280925],[-0.031282948518883344,-0.036933320997582855,0.007203192004742634,0.0007634935988201951,0.031911897424143174,-0.059479969708244915,-0.046194446615255576,0.04053890259657961,-0.015169275203958811,-0.031078211814184277,-0.009649371217040402,-0.03620066059541526,-0.05252518682051148,0.033683401568726734,-0.0030302103133113016,0.007771298067816386,0.04274522596925336,0.04541119600187389,0.000006288519645058108,-0.04014181052422484,0.024528256303305143,0.016194306433340952,0.0011000084618891632,0.021292532046387706,-0.009422101628432692],[-0.02240175594238244,0.023583487937319042,0.03927025427504248,0.004337936948819929,0.016148132490009973,-0.03294811556826112,0.03036530077586222,0.04272897898574271,0.020709752555075647,-0.027601723209167314,-0.023935793783161134,0.04655544186304003,0.005005536377738091,0.04925734235459918,0.036546767890557615,-0.013822115961868544,0.029285895862715294,0.0287410373542785,0.012152096002334023,0.018891123621787236,-0.003662961582622081,-0.04559081051507629,-0.04741645324661336,-0.008046185482726342,0.02103892960027979],[-0.01993102750293062,-0.030142599900518825,0.02746336735279792,0.04010541879797244,-0.023802594229708374,0.04339094368461778,-0.02422189971918029,0.0075669823050980595,-0.014030683547416165,-0.04923575255108046,-0.0144294349292667,-0.01553425918647153,-0.017231016584340293,0.0259196690094064,-0.006387491246665575,-0.014915188286952555,0.02259730524950348,-0.024419360084477034,0.01565556089958024,0.02782528089034264,0.007264640493251385,0.019069314206040064,-0.026828135623122005,0.019823984087937386,-0.0017583057502732384],[0.03355588352292649,0.005216208814183027,0.020074827018667946,-0.014967736314042978,-0.020163175156494025,-0.036897079194547044,-0.027605357988657108,-0.028244804426005687,-0.04617261878918153,-0.041974168087667005,-0.04475239097587836,-0.02011424012121016,0.028959124141061558,0.020070223038039823,-0.03334414409631219,0.02106976786352916,0.04079334184882596,0.027954415602048855,0.053608192244165395,-0.018248983930974304,0.03426264559872868,0.03464321020498711,-0.014041937057463469,0.03078484696425941,-0.01572585330179675],[-0.009635904974485736,-0.008129598302011,0.02192592895948355,-0.032393576188244025,-0.007834410983826623,-0.03437193560805145,0.021865552361518492,0.04778932437938199,-0.009906225447065686,-0.03814524641109624,0.02049530929476983,-0.005187010548059631,-0.0492086999976069,-0.006078125194364051,0.030696086150806812,0.001493156326528689,-0.011482042240573725,-0.008480918631418028,0.02426475607850667,-0.02615550638209677,0.05860524843462613,-0.012455188390514597,-0.011712088590551771,0.023857826194476836,-0.0376360199755163],[-0.015868772123587154,-0.006790098821444555,0.025287115466996274,0.05253883997901027,-0.024336806469164585,0.03748085409307383,0.04770141717840209,-0.018161230886606768,-0.035505373089489624,0.048621097110119346,-0.03678767608892474,-0.026293361247630417,-0.0019621315957658566,-0.024693089815603773,0.025105045121639046,-0.0033781128033389665,0.007619677647994241,0.08547302205659459,0.08238507832703804,0.044237954626755734,-0.01609523453796161,-0.006982055945973555,-0.013192483304412406,0.014250913625593555,0.012216086241976187],[-0.011731740096941926,-0.053004532872110204,-0.04416478339931269,-0.026146314897109228,-0.02601142364127671,-0.03410388973912349,0.004117863034402209,0.030369390941835345,-0.005781931269920624,0.005695192763003552,-0.013514833311223164,-0.002710146158584652,-0.01982746252058016,0.013840816508631691,-0.017471865339883957,0.016047291205099217,0.02906798051116935,0.004960341015819905,0.020356364049339725,0.013961176213267264,0.05217382449462986,0.0366274637573084,-0.04919366644471559,0.00027003278351739546,-0.009058636385212478],[0.00613944884062181,0.01122367450282108,0.011099425124487628,-0.01815635478369049,-0.02221764333118949,0.021464032854863268,0.009726928369383318,-0.0026721302187726077,0.050316432817912614,0.005500658582364718,-0.012190833310215428,-0.007909377769650972,0.04585753283012321,0.041600673148629704,0.02228632426552318,-0.03463210136035799,0.0312764384641973,-0.03867907140910106,0.06452132472815005,0.015136773692442627,-0.03694448350883883,0.05317629026690651,-0.006974763849207137,0.010350223194385832,-0.048621396126767844],[0.02929776421217289,-0.04741611075565502,-0.03581353458202637,-0.06459081907045969,-0.015112266616208233,-0.023043825098848225,-0.00319503693430428,0.003420322165423239,-0.019253112494090514,0.023606484750395916,0.014906824704791148,0.004854459649820413,-0.0437511304489,0.0414586066198514,0.04411496751186695,-0.005481287731605705,0.022355992179394178,0.003928528328903121,0.028087327309633873,-0.025288801984844032,0.025806328508596238,0.055016664097867256,0.04407422267284104,-0.017847514261494724,0.014699573402389799],[0.05373791833813424,0.0006075228052593089,-0.027423719483736505,0.03225840841573987,-0.036189983089467435,0.06016499664281089,0.029652508245732873,0.05545020731936093,0.013979835569085114,-0.038502638375747605,0.04573848984093922,0.07017798702308065,0.05986644252672578,0.009263794048646561,-0.06902061295771388,-0.043811611838314585,-0.02720990343898182,0.025661181792885422,-0.02155217867604511,0.023082442625647955,0.05121930171858855,0.051992778480612144,0.019031832094441037,0.001743126479781995,0.003567615554986085],[-0.07731575653732005,-0.045669339556045005,-0.017874814377373517,0.0007693353159630048,0.011724882853052707,-0.04178542001043748,-0.0633094629613461,-0.05992609407606648,0.0014371011374714024,0.0034350963147289277,-0.0030085187951053426,0.08393728798502316,0.11249069770125357,0.02062589927345843,-0.008423984629638667,0.03654499818674801,0.07798068849264457,0.0703933567426799,0.10396219074736689,-0.015157523916524114,-0.008067188418808248,